{"learner":{"attributes":{},"feature_names":["continuous","integer","quantized","cat_A","cat_B","cat_C","cat_D"],"feature_types":["float","int","float","int","int","int","int"],"gradient_booster":{"model":{"gbtree_model_param":{"num_parallel_tree":"1","num_trees":"10"},"iteration_indptr":[0,1,2,3,4,5,6,7,8,9,10],"tree_info":[0,0,0,0,0,0,0,0,0,0],"trees":[{"base_weights":[-2.2103141E-7,-7.1865935E0,7.4198294E0,-1.1724487E1,-4.331136E0,2.8348987E0,1.0566186E1,-1.2961938E0,-9.768158E-1,-5.831994E-1,-1.5721612E-1,1.0144564E-1,3.9718348E-1,7.7032286E-1,1.1886463E0],"categories":[],"categories_nodes":[],"categories_segments":[],"categories_sizes":[],"default_left":[0,0,0,0,0,0,0,0,0,0,0,0,0,0,0],"id":0,"left_children":[1,3,5,7,9,11,13,-1,-1,-1,-1,-1,-1,-1,-1],"loss_changes":[5.3429945E4,6.5447207E3,7.0819766E3,3.4787305E2,1.2910513E3,4.1405566E2,1.01216797E3,0E0,0E0,0E0,0E0,0E0,0E0,0E0,0E0],"parents":[2147483647,0,0,1,1,2,2,3,3,4,4,5,5,6,6],"right_children":[2,4,6,8,10,12,14,-1,-1,-1,-1,-1,-1,-1,-1],"split_conditions":[5E0,2E0,7E0,2.5049284E-1,4E0,-1.7694722E-1,8E0,-1.2961938E0,-9.768158E-1,-5.831994E-1,-1.5721612E-1,1.0144564E-1,3.9718348E-1,7.7032286E-1,1.1886463E0],"split_indices":[1,1,1,0,1,0,1,0,0,0,0,0,0,0,0],"split_type":[0,0,0,0,0,0,0,0,0,0,0,0,0,0,0],"sum_hessian":[1E3,5.08E2,4.92E2,1.95E2,3.13E2,2.01E2,2.91E2,1.16E2,7.9E1,2.02E2,1.11E2,7.8E1,1.23E2,9.4E1,1.97E2],"tree_param":{"num_deleted":"0","num_feature":"7","num_nodes":"15","size_leaf_vector":"1"}},{"base_weights":[-5.556196E-4,-6.4738545E0,6.6828313E0,-1.0563635E1,-3.9003808E0,2.5538766E0,9.516276E0,-1.2084204E0,-9.158584E-1,-5.251668E-1,-1.4163478E-1,1.1981689E-1,3.9247167E-1,6.9410145E-1,1.070382E0],"categories":[],"categories_nodes":[],"categories_segments":[],"categories_sizes":[],"default_left":[0,0,0,0,0,0,0,0,0,0,0,0,0,0,0],"id":1,"left_children":[1,3,5,7,9,11,13,-1,-1,-1,-1,-1,-1,-1,-1],"loss_changes":[4.3350086E4,5.315994E3,5.7433887E3,3.0807422E2,1.0465474E3,3.7070618E2,8.1870703E2,0E0,0E0,0E0,0E0,0E0,0E0,0E0,0E0],"parents":[2147483647,0,0,1,1,2,2,3,3,4,4,5,5,6,6],"right_children":[2,4,6,8,10,12,14,-1,-1,-1,-1,-1,-1,-1,-1],"split_conditions":[5E0,2E0,7E0,1E0,4E0,6E0,8E0,-1.2084204E0,-9.158584E-1,-5.251668E-1,-1.4163478E-1,1.1981689E-1,3.9247167E-1,6.9410145E-1,1.070382E0],"split_indices":[1,1,1,1,1,1,1,0,0,0,0,0,0,0,0],"split_type":[0,0,0,0,0,0,0,0,0,0,0,0,0,0,0],"sum_hessian":[1E3,5.08E2,4.92E2,1.95E2,3.13E2,2.01E2,2.91E2,9E1,1.05E2,2.02E2,1.11E2,1.02E2,9.9E1,9.4E1,1.97E2],"tree_param":{"num_deleted":"0","num_feature":"7","num_nodes":"15","size_leaf_vector":"1"}},{"base_weights":[-1.0136463E-3,-5.8319526E0,6.0191665E0,-8.391463E0,-2.4585106E0,2.301025E0,8.570692E0,-1.0889064E0,-7.2071767E-1,-4.4406462E-1,-6.260547E-2,6.467505E-2,3.4030867E-1,6.2542194E-1,9.6388453E-1],"categories":[],"categories_nodes":[],"categories_segments":[],"categories_sizes":[],"default_left":[0,0,0,0,0,0,0,0,0,0,0,0,0,0,0],"id":2,"left_children":[1,3,5,7,9,11,13,-1,-1,-1,-1,-1,-1,-1,-1],"loss_changes":[3.5173508E4,4.37426E3,4.657338E3,7.763457E2,7.999309E2,3.6606775E2,6.6222656E2,0E0,0E0,0E0,0E0,0E0,0E0,0E0,0E0],"parents":[2147483647,0,0,1,1,2,2,3,3,4,4,5,5,6,6],"right_children":[2,4,6,8,10,12,14,-1,-1,-1,-1,-1,-1,-1,-1],"split_conditions":[5E0,3E0,7E0,1E0,-1.8565898E-1,5E-1,8E0,-1.0889064E0,-7.2071767E-1,-4.4406462E-1,-6.260547E-2,6.467505E-2,3.4030867E-1,6.2542194E-1,9.6388453E-1],"split_indices":[1,1,1,1,0,2,1,0,0,0,0,0,0,0,0],"split_type":[0,0,0,0,0,0,0,0,0,0,0,0,0,0,0],"sum_hessian":[1E3,5.08E2,4.92E2,2.88E2,2.2E2,2.01E2,2.91E2,9E1,1.98E2,1.05E2,1.15E2,8.1E1,1.2E2,9.4E1,1.97E2],"tree_param":{"num_deleted":"0","num_feature":"7","num_nodes":"15","size_leaf_vector":"1"}},{"base_weights":[-1.2337002E-3,-5.2533073E0,5.421295E0,-8.632002E0,-3.1275833E0,2.0729272E0,7.719066E0,-9.9422437E-1,-7.104482E-1,-4.04039E-1,-2.1589458E-2,4.404916E-2,3.0962297E-1,6.26753E-1,9.29348E-1],"categories":[],"categories_nodes":[],"categories_segments":[],"categories_sizes":[],"default_left":[0,0,0,0,0,0,0,0,0,0,0,0,0,0,0],"id":3,"left_children":[1,3,5,7,9,11,13,-1,-1,-1,-1,-1,-1,-1,-1],"loss_changes":[2.8536482E4,3.6287275E3,3.7770332E3,3.2164355E2,8.3367944E2,3.3607208E2,6.0906836E2,0E0,0E0,0E0,0E0,0E0,0E0,0E0,0E0],"parents":[2147483647,0,0,1,1,2,2,3,3,4,4,5,5,6,6],"right_children":[2,4,6,8,10,12,14,-1,-1,-1,-1,-1,-1,-1,-1],"split_conditions":[5E0,2E0,7E0,1.6645221E-1,6.6967255E-1,-1.7694722E-1,9.6120775E-2,-9.9422437E-1,-7.104482E-1,-4.04039E-1,-2.1589458E-2,4.404916E-2,3.0962297E-1,6.26753E-1,9.29348E-1],"split_indices":[1,1,1,0,0,0,0,0,0,0,0,0,0,0,0],"split_type":[0,0,0,0,0,0,0,0,0,0,0,0,0,0,0],"sum_hessian":[1E3,5.08E2,4.92E2,1.95E2,3.13E2,2.01E2,2.91E2,1.02E2,9.3E1,2.38E2,7.5E1,7.8E1,1.23E2,1.54E2,1.37E2],"tree_param":{"num_deleted":"0","num_feature":"7","num_nodes":"15","size_leaf_vector":"1"}},{"base_weights":[-1.3306291E-3,-4.732162E0,4.8830395E0,-6.8807945E0,-1.9009988E0,1.8673851E0,6.9524884E0,-8.388815E-1,-5.522965E-1,-3.6005428E-1,-3.315794E-2,6.5409854E-2,3.0983967E-1,4.8750764E-1,7.9141134E-1],"categories":[],"categories_nodes":[],"categories_segments":[],"categories_sizes":[],"default_left":[0,0,0,0,0,0,0,0,0,0,0,0,0,0,0],"id":4,"left_children":[1,3,5,7,9,11,13,-1,-1,-1,-1,-1,-1,-1,-1],"loss_changes":[2.3153346E4,3.0832334E3,3.0637031E3,5.4543555E2,5.8827905E2,2.9967432E2,5.4474316E2,0E0,0E0,0E0,0E0,0E0,0E0,0E0,0E0],"parents":[2147483647,0,0,1,1,2,2,3,3,4,4,5,5,6,6],"right_children":[2,4,6,8,10,12,14,-1,-1,-1,-1,-1,-1,-1,-1],"split_conditions":[5E0,3E0,7E0,-7.972641E-3,-1.8565898E-1,6E0,8E0,-8.388815E-1,-5.522965E-1,-3.6005428E-1,-3.315794E-2,6.5409854E-2,3.0983967E-1,4.8750764E-1,7.9141134E-1],"split_indices":[1,1,1,0,0,1,1,0,0,0,0,0,0,0,0],"split_type":[0,0,0,0,0,0,0,0,0,0,0,0,0,0,0],"sum_hessian":[1E3,5.08E2,4.92E2,2.88E2,2.2E2,2.01E2,2.91E2,1.34E2,1.54E2,1.05E2,1.15E2,1.02E2,9.9E1,9.4E1,1.97E2],"tree_param":{"num_deleted":"0","num_feature":"7","num_nodes":"15","size_leaf_vector":"1"}},{"base_weights":[-1.3277157E-3,-4.262452E0,4.3980913E0,-7.089115E0,-2.4844635E0,1.6825042E0,6.2616205E0,-8.7390625E-1,-6.1238754E-1,-3.521912E-1,-5.8190472E-2,2.0277143E-2,2.6713932E-1,5.2602094E-1,8.190331E-1],"categories":[],"categories_nodes":[],"categories_segments":[],"categories_sizes":[],"default_left":[0,0,0,0,0,0,0,0,0,0,0,0,0,0,0],"id":5,"left_children":[1,3,5,7,9,11,13,-1,-1,-1,-1,-1,-1,-1,-1],"loss_changes":[1.8783965E4,2.5405059E3,2.4843281E3,2.586328E2,6.177261E2,2.950432E2,5.208955E2,0E0,0E0,0E0,0E0,0E0,0E0,0E0,0E0],"parents":[2147483647,0,0,1,1,2,2,3,3,4,4,5,5,6,6],"right_children":[2,4,6,8,10,12,14,-1,-1,-1,-1,-1,-1,-1,-1],"split_conditions":[5E0,2E0,7E0,5E-1,4E0,5E-1,5.009172E-1,-8.7390625E-1,-6.1238754E-1,-3.521912E-1,-5.8190472E-2,2.0277143E-2,2.6713932E-1,5.2602094E-1,8.190331E-1],"split_indices":[1,1,1,2,1,2,0,0,0,0,0,0,0,0,0],"split_type":[0,0,0,0,0,0,0,0,0,0,0,0,0,0,0],"sum_hessian":[1E3,5.08E2,4.92E2,1.95E2,3.13E2,2.01E2,2.91E2,6.9E1,1.26E2,2.02E2,1.11E2,8.1E1,1.2E2,1.94E2,9.7E1],"tree_param":{"num_deleted":"0","num_feature":"7","num_nodes":"15","size_leaf_vector":"1"}},{"base_weights":[-1.4584919E-3,-3.1267734E0,4.8823495E0,-5.6085534E0,-8.965533E-1,3.200396E0,6.505666E0,-7.583068E-1,-4.6774507E-1,-2.550972E-1,3.3573892E-2,2.2413562E-1,5.2546746E-1,4.2611966E-1,7.255371E-1],"categories":[],"categories_nodes":[],"categories_segments":[],"categories_sizes":[],"default_left":[0,0,0,0,0,0,0,0,0,0,0,0,0,0,0],"id":6,"left_children":[1,3,5,7,9,11,13,-1,-1,-1,-1,-1,-1,-1,-1],"loss_changes":[1.5293968E4,3.3768047E3,1.0467432E3,4.958496E2,6.593655E2,3.704286E2,3.0225586E2,0E0,0E0,0E0,0E0,0E0,0E0,0E0,0E0],"parents":[2147483647,0,0,1,1,2,2,3,3,4,4,5,5,6,6],"right_children":[2,4,6,8,10,12,14,-1,-1,-1,-1,-1,-1,-1,-1],"split_conditions":[6E0,3E0,8E0,1E0,-2.3681861E-1,4.1278094E-1,-6.127887E-1,-7.583068E-1,-4.6774507E-1,-2.550972E-1,3.3573892E-2,2.2413562E-1,5.2546746E-1,4.2611966E-1,7.255371E-1],"split_indices":[1,1,1,1,0,0,0,0,0,0,0,0,0,0,0],"split_type":[0,0,0,0,0,0,0,0,0,0,0,0,0,0,0],"sum_hessian":[1E3,6.1E2,3.9E2,2.88E2,3.22E2,1.93E2,1.97E2,9E1,1.98E2,1.37E2,1.85E2,1.33E2,6E1,5.1E1,1.46E2],"tree_param":{"num_deleted":"0","num_feature":"7","num_nodes":"15","size_leaf_vector":"1"}},{"base_weights":[-8.593692E-4,-3.4805627E0,3.5917773E0,-5.789007E0,-2.0285382E0,2.061773E0,5.860916E0,-8.680787E-1,-5.2348614E-1,-3.2034358E-1,-4.0553182E-2,1.2524144E-1,3.8149709E-1,4.358476E-1,6.8217087E-1],"categories":[],"categories_nodes":[],"categories_segments":[],"categories_sizes":[],"default_left":[0,0,0,0,0,0,0,0,0,0,0,0,0,0,0],"id":7,"left_children":[1,3,5,7,9,11,13,-1,-1,-1,-1,-1,-1,-1,-1],"loss_changes":[1.2526313E4,1.6943828E3,1.6995093E3,2.686416E2,5.974569E2,4.1523596E2,2.560869E2,0E0,0E0,0E0,0E0,0E0,0E0,0E0,0E0],"parents":[2147483647,0,0,1,1,2,2,3,3,4,4,5,5,6,6],"right_children":[2,4,6,8,10,12,14,-1,-1,-1,-1,-1,-1,-1,-1],"split_conditions":[5E0,2E0,8E0,-9.7837275E-1,7.5E-1,4.7141555E-1,-2.9900736E-1,-8.680787E-1,-5.2348614E-1,-3.2034358E-1,-4.0553182E-2,1.2524144E-1,3.8149709E-1,4.358476E-1,6.8217087E-1],"split_indices":[1,1,1,0,2,0,0,0,0,0,0,0,0,0,0],"split_type":[0,0,0,0,0,0,0,0,0,0,0,0,0,0,0],"sum_hessian":[1E3,5.08E2,4.92E2,1.95E2,3.13E2,2.95E2,1.97E2,2.9E1,1.66E2,1.81E2,1.32E2,2.03E2,9.2E1,7.9E1,1.18E2],"tree_param":{"num_deleted":"0","num_feature":"7","num_nodes":"15","size_leaf_vector":"1"}},{"base_weights":[-9.011851E-4,-2.5645492E0,4.005211E0,-4.6026883E0,-7.3301125E-1,3.182061E0,6.3062725E0,-5.398346E-1,-2.6617953E-1,-1.7976828E-1,8.41146E-2,1.9694029E-1,4.4852406E-1,4.672419E-1,7.28501E-1],"categories":[],"categories_nodes":[],"categories_segments":[],"categories_sizes":[],"default_left":[0,0,0,0,0,0,0,0,0,0,0,0,0,0,0],"id":8,"left_children":[1,3,5,7,9,11,13,-1,-1,-1,-1,-1,-1,-1,-1],"loss_changes":[1.0290803E4,2.277446E3,7.205337E2,4.319292E2,5.428473E2,4.4945728E2,1.2907104E2,0E0,0E0,0E0,0E0,0E0,0E0,0E0,0E0],"parents":[2147483647,0,0,1,1,2,2,3,3,4,4,5,5,6,6],"right_children":[2,4,6,8,10,12,14,-1,-1,-1,-1,-1,-1,-1,-1],"split_conditions":[6E0,3E0,9E0,5.76557E-1,7.5E-1,9.6120775E-2,5E-1,-5.398346E-1,-2.6617953E-1,-1.7976828E-1,8.41146E-2,1.9694029E-1,4.4852406E-1,4.672419E-1,7.28501E-1],"split_indices":[1,1,1,0,2,0,2,0,0,0,0,0,0,0,0],"split_type":[0,0,0,0,0,0,0,0,0,0,0,0,0,0,0],"sum_hessian":[1E3,6.1E2,3.9E2,2.88E2,3.22E2,2.89E2,1.01E2,2.03E2,8.5E1,1.92E2,1.3E2,1.51E2,1.38E2,4E1,6.1E1],"tree_param":{"num_deleted":"0","num_feature":"7","num_nodes":"15","size_leaf_vector":"1"}},{"base_weights":[1.2770329E-4,-3.595215E0,2.369244E0,-4.2095323E0,-8.9342856E-1,6.474557E-1,4.206746E0,-5.63378E-1,-3.3214536E-1,-1.7375281E-1,1.090515E-1,-1.1391163E-1,1.3184984E-1,3.394022E-1,5.687369E-1],"categories":[],"categories_nodes":[],"categories_segments":[],"categories_sizes":[],"default_left":[0,0,0,0,0,0,0,0,0,0,0,0,0,0,0],"id":9,"left_children":[1,3,5,7,9,11,13,-1,-1,-1,-1,-1,-1,-1,-1],"loss_changes":[8.534822E3,6.568213E2,1.9082056E3,3.9109668E2,1.27493225E2,3.76747E2,3.3207178E2,0E0,0E0,0E0,0E0,0E0,0E0,0E0,0E0],"parents":[2147483647,0,0,1,1,2,2,3,3,4,4,5,5,6,6],"right_children":[2,4,6,8,10,12,14,-1,-1,-1,-1,-1,-1,-1,-1],"split_conditions":[4E0,8.563988E-1,7E0,5E-1,3E0,-5.30997E-1,9E0,-5.63378E-1,-3.3214536E-1,-1.7375281E-1,1.090515E-1,-1.1391163E-1,1.3184984E-1,3.394022E-1,5.687369E-1],"split_indices":[1,0,1,2,1,0,1,0,0,0,0,0,0,0,0],"split_type":[0,0,0,0,0,0,0,0,0,0,0,0,0,0,0],"sum_hessian":[1E3,3.97E2,6.03E2,3.23E2,7.4E1,3.12E2,2.91E2,1.22E2,2.01E2,5.2E1,2.2E1,8.5E1,2.27E2,1.9E2,1.01E2],"tree_param":{"num_deleted":"0","num_feature":"7","num_nodes":"15","size_leaf_vector":"1"}}]},"name":"gbtree"},"learner_model_param":{"base_score":"2.2030588E1","boost_from_average":"1","num_class":"0","num_feature":"7","num_target":"1"},"objective":{"name":"reg:squarederror","reg_loss_param":{"scale_pos_weight":"1"}}},"version":[2,1,1]}