{"learner":{"attributes":{},"feature_names":["gender","customer_type","age","type_of_travel","class","flight_distance","inflight_wifi_service","departure/arrival_time_convenient","ease_of_online_booking","gate_location","food_and_drink","online_boarding","seat_comfort","inflight_entertainment","on_board_service","leg_room_service","baggage_handling","checkin_service","inflight_service","cleanliness","departure_delay_in_minutes","arrival_delay_in_minutes"],"feature_types":["int","int","int","int","int","int","int","int","int","int","int","int","int","int","int","int","int","int","int","int","int","float"],"gradient_booster":{"model":{"gbtree_model_param":{"num_parallel_tree":"10","num_trees":"10"},"iteration_indptr":[0,10],"tree_info":[0,0,0,0,0,0,0,0,0,0],"trees":[{"base_weights":[2.124522E-8,1.9280002E-1,-5.3555554E-1,-4.7333334E-3,2.1753427E-1,-6.016E-1,1.9333333E-3,-7.555553E-2,2.5476927E-1,-6.777272E-3,-3.2499984E-2,2.175E-3,-2.5833333E-1,2.847273E-3,8.18182E-2,-3.5499998E-3,1.9333333E-3,-5.325E-3,1.9333333E-3,2.5375E-3,-2.8249997E-1,-4.7333334E-3,1.4500001E-3],"categories":[],"categories_nodes":[],"categories_segments":[],"categories_sizes":[],"default_left":[0,0,0,0,0,0,0,0,0,0,0,0,0,0,0,0,0,0,0,0,0,0,0],"id":0,"left_children":[1,3,5,-1,7,9,-1,11,13,-1,15,-1,17,-1,19,-1,-1,-1,-1,-1,21,-1,-1],"loss_changes":[1.0532021E1,1.3386893E0,1.4160638E0,0E0,8.15912E-1,1.0610743E0,0E0,5.3826386E-1,3.1348753E-1,0E0,3.5995835E-1,0E0,8.4594166E-1,0E0,7.607011E-1,0E0,0E0,0E0,0E0,0E0,3.9495832E-1,0E0,0E0],"parents":[2147483647,0,0,1,1,2,2,4,4,5,5,7,7,8,8,10,10,12,12,14,14,20,20],"right_children":[2,4,6,-1,8,10,-1,12,14,-1,16,-1,18,-1,20,-1,-1,-1,-1,-1,22,-1,-1],"split_conditions":[1E0,2E0,5E0,-4.7333334E-3,3E0,5E0,1.9333333E-3,4E0,1E0,-6.777272E-3,1E0,2.175E-3,7.38E2,2.847273E-3,5E0,-3.5499998E-3,1.9333333E-3,-5.325E-3,1.9333333E-3,2.5375E-3,3E1,-4.7333334E-3,1.4500001E-3],"split_indices":[3,12,6,0,17,13,0,8,4,0,4,0,5,0,13,0,0,0,0,0,2,0,0],"split_type":[0,0,0,0,0,0,0,0,0,0,0,0,0,0,0,0,0,0,0,0,0,0,0],"sum_hessian":[1E2,7.4E1,2.6E1,2E0,7.2E1,2.4E1,2E0,8E0,6.4E1,2.1E1,3E0,3E0,5E0,5.4E1,1E1,1E0,2E0,3E0,2E0,7E0,3E0,2E0,1E0],"tree_param":{"num_deleted":"0","num_feature":"22","num_nodes":"23","size_leaf_vector":"1"}},{"base_weights":[2.124522E-8,1.9280002E-1,-5.3555554E-1,-4.7333334E-3,2.1753427E-1,-6.016E-1,1.9333333E-3,-7.555553E-2,2.5476927E-1,-6.777272E-3,-3.2499984E-2,2.175E-3,-2.5833333E-1,2.847273E-3,8.18182E-2,-3.5499998E-3,1.9333333E-3,-5.325E-3,1.9333333E-3,2.5375E-3,-2.8249997E-1,-4.7333334E-3,1.4500001E-3],"categories":[],"categories_nodes":[],"categories_segments":[],"categories_sizes":[],"default_left":[0,0,0,0,0,0,0,0,0,0,0,0,0,0,0,0,0,0,0,0,0,0,0],"id":1,"left_children":[1,3,5,-1,7,9,-1,11,13,-1,15,-1,17,-1,19,-1,-1,-1,-1,-1,21,-1,-1],"loss_changes":[1.0532021E1,1.3386893E0,1.4160638E0,0E0,8.15912E-1,1.0610743E0,0E0,5.3826386E-1,3.1348753E-1,0E0,3.5995835E-1,0E0,8.4594166E-1,0E0,7.607011E-1,0E0,0E0,0E0,0E0,0E0,3.9495832E-1,0E0,0E0],"parents":[2147483647,0,0,1,1,2,2,4,4,5,5,7,7,8,8,10,10,12,12,14,14,20,20],"right_children":[2,4,6,-1,8,10,-1,12,14,-1,16,-1,18,-1,20,-1,-1,-1,-1,-1,22,-1,-1],"split_conditions":[1E0,2E0,5E0,-4.7333334E-3,3E0,5E0,1.9333333E-3,4E0,1E0,-6.777272E-3,1E0,2.175E-3,7.38E2,2.847273E-3,5E0,-3.5499998E-3,1.9333333E-3,-5.325E-3,1.9333333E-3,2.5375E-3,3E1,-4.7333334E-3,1.4500001E-3],"split_indices":[3,12,6,0,17,13,0,8,4,0,4,0,5,0,13,0,0,0,0,0,2,0,0],"split_type":[0,0,0,0,0,0,0,0,0,0,0,0,0,0,0,0,0,0,0,0,0,0,0],"sum_hessian":[1E2,7.4E1,2.6E1,2E0,7.2E1,2.4E1,2E0,8E0,6.4E1,2.1E1,3E0,3E0,5E0,5.4E1,1E1,1E0,2E0,3E0,2E0,7E0,3E0,2E0,1E0],"tree_param":{"num_deleted":"0","num_feature":"22","num_nodes":"23","size_leaf_vector":"1"}},{"base_weights":[2.124522E-8,1.9280002E-1,-5.3555554E-1,-4.7333334E-3,2.1753427E-1,-6.016E-1,1.9333333E-3,-7.555553E-2,2.5476927E-1,-6.777272E-3,-3.2499984E-2,2.175E-3,-2.5833333E-1,2.847273E-3,8.18182E-2,-3.5499998E-3,1.9333333E-3,-5.325E-3,1.9333333E-3,2.5375E-3,-2.8249997E-1,-4.7333334E-3,1.4500001E-3],"categories":[],"categories_nodes":[],"categories_segments":[],"categories_sizes":[],"default_left":[0,0,0,0,0,0,0,0,0,0,0,0,0,0,0,0,0,0,0,0,0,0,0],"id":2,"left_children":[1,3,5,-1,7,9,-1,11,13,-1,15,-1,17,-1,19,-1,-1,-1,-1,-1,21,-1,-1],"loss_changes":[1.0532021E1,1.3386893E0,1.4160638E0,0E0,8.15912E-1,1.0610743E0,0E0,5.3826386E-1,3.1348753E-1,0E0,3.5995835E-1,0E0,8.4594166E-1,0E0,7.607011E-1,0E0,0E0,0E0,0E0,0E0,3.9495832E-1,0E0,0E0],"parents":[2147483647,0,0,1,1,2,2,4,4,5,5,7,7,8,8,10,10,12,12,14,14,20,20],"right_children":[2,4,6,-1,8,10,-1,12,14,-1,16,-1,18,-1,20,-1,-1,-1,-1,-1,22,-1,-1],"split_conditions":[1E0,2E0,5E0,-4.7333334E-3,3E0,5E0,1.9333333E-3,4E0,1E0,-6.777272E-3,1E0,2.175E-3,7.38E2,2.847273E-3,5E0,-3.5499998E-3,1.9333333E-3,-5.325E-3,1.9333333E-3,2.5375E-3,3E1,-4.7333334E-3,1.4500001E-3],"split_indices":[3,12,6,0,17,13,0,8,4,0,4,0,5,0,13,0,0,0,0,0,2,0,0],"split_type":[0,0,0,0,0,0,0,0,0,0,0,0,0,0,0,0,0,0,0,0,0,0,0],"sum_hessian":[1E2,7.4E1,2.6E1,2E0,7.2E1,2.4E1,2E0,8E0,6.4E1,2.1E1,3E0,3E0,5E0,5.4E1,1E1,1E0,2E0,3E0,2E0,7E0,3E0,2E0,1E0],"tree_param":{"num_deleted":"0","num_feature":"22","num_nodes":"23","size_leaf_vector":"1"}},{"base_weights":[2.124522E-8,1.9280002E-1,-5.3555554E-1,-4.7333334E-3,2.1753427E-1,-6.016E-1,1.9333333E-3,-7.555553E-2,2.5476927E-1,-6.777272E-3,-3.2499984E-2,2.175E-3,-2.5833333E-1,2.847273E-3,8.18182E-2,-3.5499998E-3,1.9333333E-3,-5.325E-3,1.9333333E-3,2.5375E-3,-2.8249997E-1,-4.7333334E-3,1.4500001E-3],"categories":[],"categories_nodes":[],"categories_segments":[],"categories_sizes":[],"default_left":[0,0,0,0,0,0,0,0,0,0,0,0,0,0,0,0,0,0,0,0,0,0,0],"id":3,"left_children":[1,3,5,-1,7,9,-1,11,13,-1,15,-1,17,-1,19,-1,-1,-1,-1,-1,21,-1,-1],"loss_changes":[1.0532021E1,1.3386893E0,1.4160638E0,0E0,8.15912E-1,1.0610743E0,0E0,5.3826386E-1,3.1348753E-1,0E0,3.5995835E-1,0E0,8.4594166E-1,0E0,7.607011E-1,0E0,0E0,0E0,0E0,0E0,3.9495832E-1,0E0,0E0],"parents":[2147483647,0,0,1,1,2,2,4,4,5,5,7,7,8,8,10,10,12,12,14,14,20,20],"right_children":[2,4,6,-1,8,10,-1,12,14,-1,16,-1,18,-1,20,-1,-1,-1,-1,-1,22,-1,-1],"split_conditions":[1E0,2E0,5E0,-4.7333334E-3,3E0,5E0,1.9333333E-3,4E0,1E0,-6.777272E-3,1E0,2.175E-3,7.38E2,2.847273E-3,5E0,-3.5499998E-3,1.9333333E-3,-5.325E-3,1.9333333E-3,2.5375E-3,3E1,-4.7333334E-3,1.4500001E-3],"split_indices":[3,12,6,0,17,13,0,8,4,0,4,0,5,0,13,0,0,0,0,0,2,0,0],"split_type":[0,0,0,0,0,0,0,0,0,0,0,0,0,0,0,0,0,0,0,0,0,0,0],"sum_hessian":[1E2,7.4E1,2.6E1,2E0,7.2E1,2.4E1,2E0,8E0,6.4E1,2.1E1,3E0,3E0,5E0,5.4E1,1E1,1E0,2E0,3E0,2E0,7E0,3E0,2E0,1E0],"tree_param":{"num_deleted":"0","num_feature":"22","num_nodes":"23","size_leaf_vector":"1"}},{"base_weights":[2.124522E-8,1.9280002E-1,-5.3555554E-1,-4.7333334E-3,2.1753427E-1,-6.016E-1,1.9333333E-3,-7.555553E-2,2.5476927E-1,-6.777272E-3,-3.2499984E-2,2.175E-3,-2.5833333E-1,2.847273E-3,8.18182E-2,-3.5499998E-3,1.9333333E-3,-5.325E-3,1.9333333E-3,2.5375E-3,-2.8249997E-1,-4.7333334E-3,1.4500001E-3],"categories":[],"categories_nodes":[],"categories_segments":[],"categories_sizes":[],"default_left":[0,0,0,0,0,0,0,0,0,0,0,0,0,0,0,0,0,0,0,0,0,0,0],"id":4,"left_children":[1,3,5,-1,7,9,-1,11,13,-1,15,-1,17,-1,19,-1,-1,-1,-1,-1,21,-1,-1],"loss_changes":[1.0532021E1,1.3386893E0,1.4160638E0,0E0,8.15912E-1,1.0610743E0,0E0,5.3826386E-1,3.1348753E-1,0E0,3.5995835E-1,0E0,8.4594166E-1,0E0,7.607011E-1,0E0,0E0,0E0,0E0,0E0,3.9495832E-1,0E0,0E0],"parents":[2147483647,0,0,1,1,2,2,4,4,5,5,7,7,8,8,10,10,12,12,14,14,20,20],"right_children":[2,4,6,-1,8,10,-1,12,14,-1,16,-1,18,-1,20,-1,-1,-1,-1,-1,22,-1,-1],"split_conditions":[1E0,2E0,5E0,-4.7333334E-3,3E0,5E0,1.9333333E-3,4E0,1E0,-6.777272E-3,1E0,2.175E-3,7.38E2,2.847273E-3,5E0,-3.5499998E-3,1.9333333E-3,-5.325E-3,1.9333333E-3,2.5375E-3,3E1,-4.7333334E-3,1.4500001E-3],"split_indices":[3,12,6,0,17,13,0,8,4,0,4,0,5,0,13,0,0,0,0,0,2,0,0],"split_type":[0,0,0,0,0,0,0,0,0,0,0,0,0,0,0,0,0,0,0,0,0,0,0],"sum_hessian":[1E2,7.4E1,2.6E1,2E0,7.2E1,2.4E1,2E0,8E0,6.4E1,2.1E1,3E0,3E0,5E0,5.4E1,1E1,1E0,2E0,3E0,2E0,7E0,3E0,2E0,1E0],"tree_param":{"num_deleted":"0","num_feature":"22","num_nodes":"23","size_leaf_vector":"1"}},{"base_weights":[2.124522E-8,1.9280002E-1,-5.3555554E-1,-4.7333334E-3,2.1753427E-1,-6.016E-1,1.9333333E-3,-7.555553E-2,2.5476927E-1,-6.777272E-3,-3.2499984E-2,2.175E-3,-2.5833333E-1,2.847273E-3,8.18182E-2,-3.5499998E-3,1.9333333E-3,-5.325E-3,1.9333333E-3,2.5375E-3,-2.8249997E-1,-4.7333334E-3,1.4500001E-3],"categories":[],"categories_nodes":[],"categories_segments":[],"categories_sizes":[],"default_left":[0,0,0,0,0,0,0,0,0,0,0,0,0,0,0,0,0,0,0,0,0,0,0],"id":5,"left_children":[1,3,5,-1,7,9,-1,11,13,-1,15,-1,17,-1,19,-1,-1,-1,-1,-1,21,-1,-1],"loss_changes":[1.0532021E1,1.3386893E0,1.4160638E0,0E0,8.15912E-1,1.0610743E0,0E0,5.3826386E-1,3.1348753E-1,0E0,3.5995835E-1,0E0,8.4594166E-1,0E0,7.607011E-1,0E0,0E0,0E0,0E0,0E0,3.9495832E-1,0E0,0E0],"parents":[2147483647,0,0,1,1,2,2,4,4,5,5,7,7,8,8,10,10,12,12,14,14,20,20],"right_children":[2,4,6,-1,8,10,-1,12,14,-1,16,-1,18,-1,20,-1,-1,-1,-1,-1,22,-1,-1],"split_conditions":[1E0,2E0,5E0,-4.7333334E-3,3E0,5E0,1.9333333E-3,4E0,1E0,-6.777272E-3,1E0,2.175E-3,7.38E2,2.847273E-3,5E0,-3.5499998E-3,1.9333333E-3,-5.325E-3,1.9333333E-3,2.5375E-3,3E1,-4.7333334E-3,1.4500001E-3],"split_indices":[3,12,6,0,17,13,0,8,4,0,4,0,5,0,13,0,0,0,0,0,2,0,0],"split_type":[0,0,0,0,0,0,0,0,0,0,0,0,0,0,0,0,0,0,0,0,0,0,0],"sum_hessian":[1E2,7.4E1,2.6E1,2E0,7.2E1,2.4E1,2E0,8E0,6.4E1,2.1E1,3E0,3E0,5E0,5.4E1,1E1,1E0,2E0,3E0,2E0,7E0,3E0,2E0,1E0],"tree_param":{"num_deleted":"0","num_feature":"22","num_nodes":"23","size_leaf_vector":"1"}},{"base_weights":[2.124522E-8,1.9280002E-1,-5.3555554E-1,-4.7333334E-3,2.1753427E-1,-6.016E-1,1.9333333E-3,-7.555553E-2,2.5476927E-1,-6.777272E-3,-3.2499984E-2,2.175E-3,-2.5833333E-1,2.847273E-3,8.18182E-2,-3.5499998E-3,1.9333333E-3,-5.325E-3,1.9333333E-3,2.5375E-3,-2.8249997E-1,-4.7333334E-3,1.4500001E-3],"categories":[],"categories_nodes":[],"categories_segments":[],"categories_sizes":[],"default_left":[0,0,0,0,0,0,0,0,0,0,0,0,0,0,0,0,0,0,0,0,0,0,0],"id":6,"left_children":[1,3,5,-1,7,9,-1,11,13,-1,15,-1,17,-1,19,-1,-1,-1,-1,-1,21,-1,-1],"loss_changes":[1.0532021E1,1.3386893E0,1.4160638E0,0E0,8.15912E-1,1.0610743E0,0E0,5.3826386E-1,3.1348753E-1,0E0,3.5995835E-1,0E0,8.4594166E-1,0E0,7.607011E-1,0E0,0E0,0E0,0E0,0E0,3.9495832E-1,0E0,0E0],"parents":[2147483647,0,0,1,1,2,2,4,4,5,5,7,7,8,8,10,10,12,12,14,14,20,20],"right_children":[2,4,6,-1,8,10,-1,12,14,-1,16,-1,18,-1,20,-1,-1,-1,-1,-1,22,-1,-1],"split_conditions":[1E0,2E0,5E0,-4.7333334E-3,3E0,5E0,1.9333333E-3,4E0,1E0,-6.777272E-3,1E0,2.175E-3,7.38E2,2.847273E-3,5E0,-3.5499998E-3,1.9333333E-3,-5.325E-3,1.9333333E-3,2.5375E-3,3E1,-4.7333334E-3,1.4500001E-3],"split_indices":[3,12,6,0,17,13,0,8,4,0,4,0,5,0,13,0,0,0,0,0,2,0,0],"split_type":[0,0,0,0,0,0,0,0,0,0,0,0,0,0,0,0,0,0,0,0,0,0,0],"sum_hessian":[1E2,7.4E1,2.6E1,2E0,7.2E1,2.4E1,2E0,8E0,6.4E1,2.1E1,3E0,3E0,5E0,5.4E1,1E1,1E0,2E0,3E0,2E0,7E0,3E0,2E0,1E0],"tree_param":{"num_deleted":"0","num_feature":"22","num_nodes":"23","size_leaf_vector":"1"}},{"base_weights":[2.124522E-8,1.9280002E-1,-5.3555554E-1,-4.7333334E-3,2.1753427E-1,-6.016E-1,1.9333333E-3,-7.555553E-2,2.5476927E-1,-6.777272E-3,-3.2499984E-2,2.175E-3,-2.5833333E-1,2.847273E-3,8.18182E-2,-3.5499998E-3,1.9333333E-3,-5.325E-3,1.9333333E-3,2.5375E-3,-2.8249997E-1,-4.7333334E-3,1.4500001E-3],"categories":[],"categories_nodes":[],"categories_segments":[],"categories_sizes":[],"default_left":[0,0,0,0,0,0,0,0,0,0,0,0,0,0,0,0,0,0,0,0,0,0,0],"id":7,"left_children":[1,3,5,-1,7,9,-1,11,13,-1,15,-1,17,-1,19,-1,-1,-1,-1,-1,21,-1,-1],"loss_changes":[1.0532021E1,1.3386893E0,1.4160638E0,0E0,8.15912E-1,1.0610743E0,0E0,5.3826386E-1,3.1348753E-1,0E0,3.5995835E-1,0E0,8.4594166E-1,0E0,7.607011E-1,0E0,0E0,0E0,0E0,0E0,3.9495832E-1,0E0,0E0],"parents":[2147483647,0,0,1,1,2,2,4,4,5,5,7,7,8,8,10,10,12,12,14,14,20,20],"right_children":[2,4,6,-1,8,10,-1,12,14,-1,16,-1,18,-1,20,-1,-1,-1,-1,-1,22,-1,-1],"split_conditions":[1E0,2E0,5E0,-4.7333334E-3,3E0,5E0,1.9333333E-3,4E0,1E0,-6.777272E-3,1E0,2.175E-3,7.38E2,2.847273E-3,5E0,-3.5499998E-3,1.9333333E-3,-5.325E-3,1.9333333E-3,2.5375E-3,3E1,-4.7333334E-3,1.4500001E-3],"split_indices":[3,12,6,0,17,13,0,8,4,0,4,0,5,0,13,0,0,0,0,0,2,0,0],"split_type":[0,0,0,0,0,0,0,0,0,0,0,0,0,0,0,0,0,0,0,0,0,0,0],"sum_hessian":[1E2,7.4E1,2.6E1,2E0,7.2E1,2.4E1,2E0,8E0,6.4E1,2.1E1,3E0,3E0,5E0,5.4E1,1E1,1E0,2E0,3E0,2E0,7E0,3E0,2E0,1E0],"tree_param":{"num_deleted":"0","num_feature":"22","num_nodes":"23","size_leaf_vector":"1"}},{"base_weights":[2.124522E-8,1.9280002E-1,-5.3555554E-1,-4.7333334E-3,2.1753427E-1,-6.016E-1,1.9333333E-3,-7.555553E-2,2.5476927E-1,-6.777272E-3,-3.2499984E-2,2.175E-3,-2.5833333E-1,2.847273E-3,8.18182E-2,-3.5499998E-3,1.9333333E-3,-5.325E-3,1.9333333E-3,2.5375E-3,-2.8249997E-1,-4.7333334E-3,1.4500001E-3],"categories":[],"categories_nodes":[],"categories_segments":[],"categories_sizes":[],"default_left":[0,0,0,0,0,0,0,0,0,0,0,0,0,0,0,0,0,0,0,0,0,0,0],"id":8,"left_children":[1,3,5,-1,7,9,-1,11,13,-1,15,-1,17,-1,19,-1,-1,-1,-1,-1,21,-1,-1],"loss_changes":[1.0532021E1,1.3386893E0,1.4160638E0,0E0,8.15912E-1,1.0610743E0,0E0,5.3826386E-1,3.1348753E-1,0E0,3.5995835E-1,0E0,8.4594166E-1,0E0,7.607011E-1,0E0,0E0,0E0,0E0,0E0,3.9495832E-1,0E0,0E0],"parents":[2147483647,0,0,1,1,2,2,4,4,5,5,7,7,8,8,10,10,12,12,14,14,20,20],"right_children":[2,4,6,-1,8,10,-1,12,14,-1,16,-1,18,-1,20,-1,-1,-1,-1,-1,22,-1,-1],"split_conditions":[1E0,2E0,5E0,-4.7333334E-3,3E0,5E0,1.9333333E-3,4E0,1E0,-6.777272E-3,1E0,2.175E-3,7.38E2,2.847273E-3,5E0,-3.5499998E-3,1.9333333E-3,-5.325E-3,1.9333333E-3,2.5375E-3,3E1,-4.7333334E-3,1.4500001E-3],"split_indices":[3,12,6,0,17,13,0,8,4,0,4,0,5,0,13,0,0,0,0,0,2,0,0],"split_type":[0,0,0,0,0,0,0,0,0,0,0,0,0,0,0,0,0,0,0,0,0,0,0],"sum_hessian":[1E2,7.4E1,2.6E1,2E0,7.2E1,2.4E1,2E0,8E0,6.4E1,2.1E1,3E0,3E0,5E0,5.4E1,1E1,1E0,2E0,3E0,2E0,7E0,3E0,2E0,1E0],"tree_param":{"num_deleted":"0","num_feature":"22","num_nodes":"23","size_leaf_vector":"1"}},{"base_weights":[2.124522E-8,1.9280002E-1,-5.3555554E-1,-4.7333334E-3,2.1753427E-1,-6.016E-1,1.9333333E-3,-7.555553E-2,2.5476927E-1,-6.777272E-3,-3.2499984E-2,2.175E-3,-2.5833333E-1,2.847273E-3,8.18182E-2,-3.5499998E-3,1.9333333E-3,-5.325E-3,1.9333333E-3,2.5375E-3,-2.8249997E-1,-4.7333334E-3,1.4500001E-3],"categories":[],"categories_nodes":[],"categories_segments":[],"categories_sizes":[],"default_left":[0,0,0,0,0,0,0,0,0,0,0,0,0,0,0,0,0,0,0,0,0,0,0],"id":9,"left_children":[1,3,5,-1,7,9,-1,11,13,-1,15,-1,17,-1,19,-1,-1,-1,-1,-1,21,-1,-1],"loss_changes":[1.0532021E1,1.3386893E0,1.4160638E0,0E0,8.15912E-1,1.0610743E0,0E0,5.3826386E-1,3.1348753E-1,0E0,3.5995835E-1,0E0,8.4594166E-1,0E0,7.607011E-1,0E0,0E0,0E0,0E0,0E0,3.9495832E-1,0E0,0E0],"parents":[2147483647,0,0,1,1,2,2,4,4,5,5,7,7,8,8,10,10,12,12,14,14,20,20],"right_children":[2,4,6,-1,8,10,-1,12,14,-1,16,-1,18,-1,20,-1,-1,-1,-1,-1,22,-1,-1],"split_conditions":[1E0,2E0,5E0,-4.7333334E-3,3E0,5E0,1.9333333E-3,4E0,1E0,-6.777272E-3,1E0,2.175E-3,7.38E2,2.847273E-3,5E0,-3.5499998E-3,1.9333333E-3,-5.325E-3,1.9333333E-3,2.5375E-3,3E1,-4.7333334E-3,1.4500001E-3],"split_indices":[3,12,6,0,17,13,0,8,4,0,4,0,5,0,13,0,0,0,0,0,2,0,0],"split_type":[0,0,0,0,0,0,0,0,0,0,0,0,0,0,0,0,0,0,0,0,0,0,0],"sum_hessian":[1E2,7.4E1,2.6E1,2E0,7.2E1,2.4E1,2E0,8E0,6.4E1,2.1E1,3E0,3E0,5E0,5.4E1,1E1,1E0,2E0,3E0,2E0,7E0,3E0,2E0,1E0],"tree_param":{"num_deleted":"0","num_feature":"22","num_nodes":"23","size_leaf_vector":"1"}}]},"name":"gbtree"},"learner_model_param":{"base_score":"7.1E-1","boost_from_average":"1","num_class":"0","num_feature":"22","num_target":"1"},"objective":{"name":"reg:squarederror","reg_loss_param":{"scale_pos_weight":"1"}}},"version":[2,1,2]}