{"learner":{"attributes":{},"feature_names":["carat","depth","table","x","y","z","cut_good","cut_ideal","cut_premium","cut_very_good","color_e","color_f","color_g","color_h","color_i","color_j","clarity_if","clarity_si1","clarity_si2","clarity_vs1","clarity_vs2","clarity_vvs1","clarity_vvs2"],"feature_types":["float","float","float","float","float","float","i","i","i","i","i","i","i","i","i","i","i","i","i","i","i","i","i"],"gradient_booster":{"model":{"gbtree_model_param":{"num_parallel_tree":"10","num_trees":"10"},"iteration_indptr":[0,10],"tree_info":[0,0,0,0,0,0,0,0,0,0],"trees":[{"base_weights":[2.9006807E-5,-1.2797418E1,1.5037003E2,-3.4041878E1,2.9427528E1,6.462402E1,2.1996002E0,-7.639513E1,1.2141964E1,3.6923358E0,1.20811455E2,1.2640014E-1,7.446002E-1,-8.66293E1,1.9460022E1,-2.8265854E1,5.712803E1,2.9087086E1,-3.9847973E1,2.6140013E-1,1.3223335E0,-1.2859985E-1,-8.872963E1,6.918668E-1,-6.4859986E-1,-5.3109066E1,1.4811454E1,3.6027718E1,1.2952001E0,-2.2266642E1,5.2340027E1,-5.0379974E1,1.5200195E0,-9.373117E-1,-4.5975974E-1,-6.990283E-1,-1.8975976E-1,5.796002E-1,-3.2039976E-1,5.0752026E-1,-9.789978E-2,-4.7998047E-3,-3.3039978E-1,6.41378E-1,1.2710021E-1,-6.3933307E-1,-6.47998E-2,-7.8599855E-2,1.01400144E-1],"categories":[],"categories_nodes":[],"categories_segments":[],"categories_sizes":[],"default_left":[0,0,0,0,0,0,0,0,0,0,0,0,0,0,0,0,0,0,0,0,0,0,0,0,0,0,0,0,0,0,0,0,0,0,0,0,0,0,0,0,0,0,0,0,0,0,0,0,0],"id":0,"left_children":[1,3,5,7,9,11,-1,13,15,17,19,-1,-1,21,23,25,27,29,31,-1,-1,-1,33,-1,-1,35,37,39,-1,41,43,45,47,-1,-1,-1,-1,-1,-1,-1,-1,-1,-1,-1,-1,-1,-1,-1,-1],"loss_changes":[1.962839E5,8.53241E4,3.3521812E4,1.24157836E5,7.481098E4,1.6153965E3,0E0,3.4058766E4,5.7966223E4,2.9907139E4,4.1127188E3,0E0,0E0,3.507125E3,2.125926E4,1.897966E4,1.8246094E4,2.1465566E4,4.433457E3,0E0,0E0,0E0,1.8918125E3,0E0,0E0,4.9789766E3,1.6008043E4,9.267102E3,0E0,1.3924314E3,4.7953594E3,4.3456426E3,3.2226718E2,0E0,0E0,0E0,0E0,0E0,0E0,0E0,0E0,0E0,0E0,0E0,0E0,0E0,0E0,0E0,0E0],"parents":[2147483647,0,0,1,1,2,2,3,3,4,4,5,5,7,7,8,8,9,9,10,10,13,13,14,14,15,15,16,16,17,17,18,18,22,22,25,25,26,26,27,27,29,29,30,30,31,31,32,32],"right_children":[2,4,6,8,10,12,-1,14,16,18,20,-1,-1,22,24,26,28,30,32,-1,-1,-1,34,-1,-1,36,38,40,-1,42,44,46,48,-1,-1,-1,-1,-1,-1,-1,-1,-1,-1,-1,-1,-1,-1,-1,-1],"split_conditions":[1E0,1E0,4.15E0,1E0,2.56E0,2.5E-1,2.1996002E0,4.25E0,2.5E-1,5.9E1,5.6E1,1.2640014E-1,7.446002E-1,5.4E1,6.06E1,1E0,2.64E0,4.01E0,6.03E1,2.6140013E-1,1.3223335E0,-1.2859985E-1,1E0,6.918668E-1,-6.4859986E-1,5.8E1,5.8E1,4.21E0,1.2952001E0,2.4E-1,1E0,2.6E-1,2.4E-1,-9.373117E-1,-4.5975974E-1,-6.990283E-1,-1.8975976E-1,5.796002E-1,-3.2039976E-1,5.0752026E-1,-9.789978E-2,-4.7998047E-3,-3.3039978E-1,6.41378E-1,1.2710021E-1,-6.3933307E-1,-6.47998E-2,-7.8599855E-2,1.01400144E-1],"split_indices":[16,21,3,22,5,0,0,3,0,2,2,0,0,2,1,11,5,4,1,0,0,0,8,0,0,2,2,4,0,0,9,0,0,0,0,0,0,0,0,0,0,0,0,0,0,0,0,0,0],"split_type":[0,0,0,0,0,0,0,0,0,0,0,0,0,0,0,0,0,0,0,0,0,0,0,0,0,0,0,0,0,0,0,0,0,0,0,0,0,0,0,0,0,0,0,0,0,0,0,0,0],"sum_hessian":[1E2,9.3E1,7E0,6.2E1,3.1E1,4E0,3E0,3.2E1,3E1,2.5E1,6E0,1E0,3E0,2.9E1,3E0,1.6E1,1.4E1,1.6E1,9E0,1E0,5E0,1E0,2.8E1,2E0,1E0,1E1,6E0,1.2E1,2E0,5E0,1.1E1,7E0,2E0,2.4E1,4E0,6E0,4E0,3E0,3E0,9E0,3E0,2E0,3E0,8E0,3E0,5E0,2E0,1E0,1E0],"tree_param":{"num_deleted":"0","num_feature":"23","num_nodes":"49","size_leaf_vector":"1"}},{"base_weights":[2.9006807E-5,-1.2797418E1,1.5037003E2,-3.4041878E1,2.9427528E1,6.462402E1,2.1996002E0,-7.639513E1,1.2141964E1,3.6923358E0,1.20811455E2,1.2640014E-1,7.446002E-1,-8.66293E1,1.9460022E1,-2.8265854E1,5.712803E1,2.9087086E1,-3.9847973E1,2.6140013E-1,1.3223335E0,-1.2859985E-1,-8.872963E1,6.918668E-1,-6.4859986E-1,-5.3109066E1,1.4811454E1,3.6027718E1,1.2952001E0,-2.2266642E1,5.2340027E1,-5.0379974E1,1.5200195E0,-9.373117E-1,-4.5975974E-1,-6.990283E-1,-1.8975976E-1,5.796002E-1,-3.2039976E-1,5.0752026E-1,-9.789978E-2,-4.7998047E-3,-3.3039978E-1,6.41378E-1,1.2710021E-1,-6.3933307E-1,-6.47998E-2,-7.8599855E-2,1.01400144E-1],"categories":[],"categories_nodes":[],"categories_segments":[],"categories_sizes":[],"default_left":[0,0,0,0,0,0,0,0,0,0,0,0,0,0,0,0,0,0,0,0,0,0,0,0,0,0,0,0,0,0,0,0,0,0,0,0,0,0,0,0,0,0,0,0,0,0,0,0,0],"id":1,"left_children":[1,3,5,7,9,11,-1,13,15,17,19,-1,-1,21,23,25,27,29,31,-1,-1,-1,33,-1,-1,35,37,39,-1,41,43,45,47,-1,-1,-1,-1,-1,-1,-1,-1,-1,-1,-1,-1,-1,-1,-1,-1],"loss_changes":[1.962839E5,8.53241E4,3.3521812E4,1.24157836E5,7.481098E4,1.6153965E3,0E0,3.4058766E4,5.7966223E4,2.9907139E4,4.1127188E3,0E0,0E0,3.507125E3,2.125926E4,1.897966E4,1.8246094E4,2.1465566E4,4.433457E3,0E0,0E0,0E0,1.8918125E3,0E0,0E0,4.9789766E3,1.6008043E4,9.267102E3,0E0,1.3924314E3,4.7953594E3,4.3456426E3,3.2226718E2,0E0,0E0,0E0,0E0,0E0,0E0,0E0,0E0,0E0,0E0,0E0,0E0,0E0,0E0,0E0,0E0],"parents":[2147483647,0,0,1,1,2,2,3,3,4,4,5,5,7,7,8,8,9,9,10,10,13,13,14,14,15,15,16,16,17,17,18,18,22,22,25,25,26,26,27,27,29,29,30,30,31,31,32,32],"right_children":[2,4,6,8,10,12,-1,14,16,18,20,-1,-1,22,24,26,28,30,32,-1,-1,-1,34,-1,-1,36,38,40,-1,42,44,46,48,-1,-1,-1,-1,-1,-1,-1,-1,-1,-1,-1,-1,-1,-1,-1,-1],"split_conditions":[1E0,1E0,4.15E0,1E0,2.56E0,2.5E-1,2.1996002E0,4.25E0,2.5E-1,5.9E1,5.6E1,1.2640014E-1,7.446002E-1,5.4E1,6.06E1,1E0,2.64E0,4.01E0,6.03E1,2.6140013E-1,1.3223335E0,-1.2859985E-1,1E0,6.918668E-1,-6.4859986E-1,5.8E1,5.8E1,4.21E0,1.2952001E0,2.4E-1,1E0,2.6E-1,2.4E-1,-9.373117E-1,-4.5975974E-1,-6.990283E-1,-1.8975976E-1,5.796002E-1,-3.2039976E-1,5.0752026E-1,-9.789978E-2,-4.7998047E-3,-3.3039978E-1,6.41378E-1,1.2710021E-1,-6.3933307E-1,-6.47998E-2,-7.8599855E-2,1.01400144E-1],"split_indices":[16,21,3,22,5,0,0,3,0,2,2,0,0,2,1,11,5,4,1,0,0,0,8,0,0,2,2,4,0,0,9,0,0,0,0,0,0,0,0,0,0,0,0,0,0,0,0,0,0],"split_type":[0,0,0,0,0,0,0,0,0,0,0,0,0,0,0,0,0,0,0,0,0,0,0,0,0,0,0,0,0,0,0,0,0,0,0,0,0,0,0,0,0,0,0,0,0,0,0,0,0],"sum_hessian":[1E2,9.3E1,7E0,6.2E1,3.1E1,4E0,3E0,3.2E1,3E1,2.5E1,6E0,1E0,3E0,2.9E1,3E0,1.6E1,1.4E1,1.6E1,9E0,1E0,5E0,1E0,2.8E1,2E0,1E0,1E1,6E0,1.2E1,2E0,5E0,1.1E1,7E0,2E0,2.4E1,4E0,6E0,4E0,3E0,3E0,9E0,3E0,2E0,3E0,8E0,3E0,5E0,2E0,1E0,1E0],"tree_param":{"num_deleted":"0","num_feature":"23","num_nodes":"49","size_leaf_vector":"1"}},{"base_weights":[2.9006807E-5,-1.2797418E1,1.5037003E2,-3.4041878E1,2.9427528E1,6.462402E1,2.1996002E0,-7.639513E1,1.2141964E1,3.6923358E0,1.20811455E2,1.2640014E-1,7.446002E-1,-8.66293E1,1.9460022E1,-2.8265854E1,5.712803E1,2.9087086E1,-3.9847973E1,2.6140013E-1,1.3223335E0,-1.2859985E-1,-8.872963E1,6.918668E-1,-6.4859986E-1,-5.3109066E1,1.4811454E1,3.6027718E1,1.2952001E0,-2.2266642E1,5.2340027E1,-5.0379974E1,1.5200195E0,-9.373117E-1,-4.5975974E-1,-6.990283E-1,-1.8975976E-1,5.796002E-1,-3.2039976E-1,5.0752026E-1,-9.789978E-2,-4.7998047E-3,-3.3039978E-1,6.41378E-1,1.2710021E-1,-6.3933307E-1,-6.47998E-2,-7.8599855E-2,1.01400144E-1],"categories":[],"categories_nodes":[],"categories_segments":[],"categories_sizes":[],"default_left":[0,0,0,0,0,0,0,0,0,0,0,0,0,0,0,0,0,0,0,0,0,0,0,0,0,0,0,0,0,0,0,0,0,0,0,0,0,0,0,0,0,0,0,0,0,0,0,0,0],"id":2,"left_children":[1,3,5,7,9,11,-1,13,15,17,19,-1,-1,21,23,25,27,29,31,-1,-1,-1,33,-1,-1,35,37,39,-1,41,43,45,47,-1,-1,-1,-1,-1,-1,-1,-1,-1,-1,-1,-1,-1,-1,-1,-1],"loss_changes":[1.962839E5,8.53241E4,3.3521812E4,1.24157836E5,7.481098E4,1.6153965E3,0E0,3.4058766E4,5.7966223E4,2.9907139E4,4.1127188E3,0E0,0E0,3.507125E3,2.125926E4,1.897966E4,1.8246094E4,2.1465566E4,4.433457E3,0E0,0E0,0E0,1.8918125E3,0E0,0E0,4.9789766E3,1.6008043E4,9.267102E3,0E0,1.3924314E3,4.7953594E3,4.3456426E3,3.2226718E2,0E0,0E0,0E0,0E0,0E0,0E0,0E0,0E0,0E0,0E0,0E0,0E0,0E0,0E0,0E0,0E0],"parents":[2147483647,0,0,1,1,2,2,3,3,4,4,5,5,7,7,8,8,9,9,10,10,13,13,14,14,15,15,16,16,17,17,18,18,22,22,25,25,26,26,27,27,29,29,30,30,31,31,32,32],"right_children":[2,4,6,8,10,12,-1,14,16,18,20,-1,-1,22,24,26,28,30,32,-1,-1,-1,34,-1,-1,36,38,40,-1,42,44,46,48,-1,-1,-1,-1,-1,-1,-1,-1,-1,-1,-1,-1,-1,-1,-1,-1],"split_conditions":[1E0,1E0,4.15E0,1E0,2.56E0,2.5E-1,2.1996002E0,4.25E0,2.5E-1,5.9E1,5.6E1,1.2640014E-1,7.446002E-1,5.4E1,6.06E1,1E0,2.64E0,4.01E0,6.03E1,2.6140013E-1,1.3223335E0,-1.2859985E-1,1E0,6.918668E-1,-6.4859986E-1,5.8E1,5.8E1,4.21E0,1.2952001E0,2.4E-1,1E0,2.6E-1,2.4E-1,-9.373117E-1,-4.5975974E-1,-6.990283E-1,-1.8975976E-1,5.796002E-1,-3.2039976E-1,5.0752026E-1,-9.789978E-2,-4.7998047E-3,-3.3039978E-1,6.41378E-1,1.2710021E-1,-6.3933307E-1,-6.47998E-2,-7.8599855E-2,1.01400144E-1],"split_indices":[16,21,3,22,5,0,0,3,0,2,2,0,0,2,1,11,5,4,1,0,0,0,8,0,0,2,2,4,0,0,9,0,0,0,0,0,0,0,0,0,0,0,0,0,0,0,0,0,0],"split_type":[0,0,0,0,0,0,0,0,0,0,0,0,0,0,0,0,0,0,0,0,0,0,0,0,0,0,0,0,0,0,0,0,0,0,0,0,0,0,0,0,0,0,0,0,0,0,0,0,0],"sum_hessian":[1E2,9.3E1,7E0,6.2E1,3.1E1,4E0,3E0,3.2E1,3E1,2.5E1,6E0,1E0,3E0,2.9E1,3E0,1.6E1,1.4E1,1.6E1,9E0,1E0,5E0,1E0,2.8E1,2E0,1E0,1E1,6E0,1.2E1,2E0,5E0,1.1E1,7E0,2E0,2.4E1,4E0,6E0,4E0,3E0,3E0,9E0,3E0,2E0,3E0,8E0,3E0,5E0,2E0,1E0,1E0],"tree_param":{"num_deleted":"0","num_feature":"23","num_nodes":"49","size_leaf_vector":"1"}},{"base_weights":[2.9006807E-5,-1.2797418E1,1.5037003E2,-3.4041878E1,2.9427528E1,6.462402E1,2.1996002E0,-7.639513E1,1.2141964E1,3.6923358E0,1.20811455E2,1.2640014E-1,7.446002E-1,-8.66293E1,1.9460022E1,-2.8265854E1,5.712803E1,2.9087086E1,-3.9847973E1,2.6140013E-1,1.3223335E0,-1.2859985E-1,-8.872963E1,6.918668E-1,-6.4859986E-1,-5.3109066E1,1.4811454E1,3.6027718E1,1.2952001E0,-2.2266642E1,5.2340027E1,-5.0379974E1,1.5200195E0,-9.373117E-1,-4.5975974E-1,-6.990283E-1,-1.8975976E-1,5.796002E-1,-3.2039976E-1,5.0752026E-1,-9.789978E-2,-4.7998047E-3,-3.3039978E-1,6.41378E-1,1.2710021E-1,-6.3933307E-1,-6.47998E-2,-7.8599855E-2,1.01400144E-1],"categories":[],"categories_nodes":[],"categories_segments":[],"categories_sizes":[],"default_left":[0,0,0,0,0,0,0,0,0,0,0,0,0,0,0,0,0,0,0,0,0,0,0,0,0,0,0,0,0,0,0,0,0,0,0,0,0,0,0,0,0,0,0,0,0,0,0,0,0],"id":3,"left_children":[1,3,5,7,9,11,-1,13,15,17,19,-1,-1,21,23,25,27,29,31,-1,-1,-1,33,-1,-1,35,37,39,-1,41,43,45,47,-1,-1,-1,-1,-1,-1,-1,-1,-1,-1,-1,-1,-1,-1,-1,-1],"loss_changes":[1.962839E5,8.53241E4,3.3521812E4,1.24157836E5,7.481098E4,1.6153965E3,0E0,3.4058766E4,5.7966223E4,2.9907139E4,4.1127188E3,0E0,0E0,3.507125E3,2.125926E4,1.897966E4,1.8246094E4,2.1465566E4,4.433457E3,0E0,0E0,0E0,1.8918125E3,0E0,0E0,4.9789766E3,1.6008043E4,9.267102E3,0E0,1.3924314E3,4.7953594E3,4.3456426E3,3.2226718E2,0E0,0E0,0E0,0E0,0E0,0E0,0E0,0E0,0E0,0E0,0E0,0E0,0E0,0E0,0E0,0E0],"parents":[2147483647,0,0,1,1,2,2,3,3,4,4,5,5,7,7,8,8,9,9,10,10,13,13,14,14,15,15,16,16,17,17,18,18,22,22,25,25,26,26,27,27,29,29,30,30,31,31,32,32],"right_children":[2,4,6,8,10,12,-1,14,16,18,20,-1,-1,22,24,26,28,30,32,-1,-1,-1,34,-1,-1,36,38,40,-1,42,44,46,48,-1,-1,-1,-1,-1,-1,-1,-1,-1,-1,-1,-1,-1,-1,-1,-1],"split_conditions":[1E0,1E0,4.15E0,1E0,2.56E0,2.5E-1,2.1996002E0,4.25E0,2.5E-1,5.9E1,5.6E1,1.2640014E-1,7.446002E-1,5.4E1,6.06E1,1E0,2.64E0,4.01E0,6.03E1,2.6140013E-1,1.3223335E0,-1.2859985E-1,1E0,6.918668E-1,-6.4859986E-1,5.8E1,5.8E1,4.21E0,1.2952001E0,2.4E-1,1E0,2.6E-1,2.4E-1,-9.373117E-1,-4.5975974E-1,-6.990283E-1,-1.8975976E-1,5.796002E-1,-3.2039976E-1,5.0752026E-1,-9.789978E-2,-4.7998047E-3,-3.3039978E-1,6.41378E-1,1.2710021E-1,-6.3933307E-1,-6.47998E-2,-7.8599855E-2,1.01400144E-1],"split_indices":[16,21,3,22,5,0,0,3,0,2,2,0,0,2,1,11,5,4,1,0,0,0,8,0,0,2,2,4,0,0,9,0,0,0,0,0,0,0,0,0,0,0,0,0,0,0,0,0,0],"split_type":[0,0,0,0,0,0,0,0,0,0,0,0,0,0,0,0,0,0,0,0,0,0,0,0,0,0,0,0,0,0,0,0,0,0,0,0,0,0,0,0,0,0,0,0,0,0,0,0,0],"sum_hessian":[1E2,9.3E1,7E0,6.2E1,3.1E1,4E0,3E0,3.2E1,3E1,2.5E1,6E0,1E0,3E0,2.9E1,3E0,1.6E1,1.4E1,1.6E1,9E0,1E0,5E0,1E0,2.8E1,2E0,1E0,1E1,6E0,1.2E1,2E0,5E0,1.1E1,7E0,2E0,2.4E1,4E0,6E0,4E0,3E0,3E0,9E0,3E0,2E0,3E0,8E0,3E0,5E0,2E0,1E0,1E0],"tree_param":{"num_deleted":"0","num_feature":"23","num_nodes":"49","size_leaf_vector":"1"}},{"base_weights":[2.9006807E-5,-1.2797418E1,1.5037003E2,-3.4041878E1,2.9427528E1,6.462402E1,2.1996002E0,-7.639513E1,1.2141964E1,3.6923358E0,1.20811455E2,1.2640014E-1,7.446002E-1,-8.66293E1,1.9460022E1,-2.8265854E1,5.712803E1,2.9087086E1,-3.9847973E1,2.6140013E-1,1.3223335E0,-1.2859985E-1,-8.872963E1,6.918668E-1,-6.4859986E-1,-5.3109066E1,1.4811454E1,3.6027718E1,1.2952001E0,-2.2266642E1,5.2340027E1,-5.0379974E1,1.5200195E0,-9.373117E-1,-4.5975974E-1,-6.990283E-1,-1.8975976E-1,5.796002E-1,-3.2039976E-1,5.0752026E-1,-9.789978E-2,-4.7998047E-3,-3.3039978E-1,6.41378E-1,1.2710021E-1,-6.3933307E-1,-6.47998E-2,-7.8599855E-2,1.01400144E-1],"categories":[],"categories_nodes":[],"categories_segments":[],"categories_sizes":[],"default_left":[0,0,0,0,0,0,0,0,0,0,0,0,0,0,0,0,0,0,0,0,0,0,0,0,0,0,0,0,0,0,0,0,0,0,0,0,0,0,0,0,0,0,0,0,0,0,0,0,0],"id":4,"left_children":[1,3,5,7,9,11,-1,13,15,17,19,-1,-1,21,23,25,27,29,31,-1,-1,-1,33,-1,-1,35,37,39,-1,41,43,45,47,-1,-1,-1,-1,-1,-1,-1,-1,-1,-1,-1,-1,-1,-1,-1,-1],"loss_changes":[1.962839E5,8.53241E4,3.3521812E4,1.24157836E5,7.481098E4,1.6153965E3,0E0,3.4058766E4,5.7966223E4,2.9907139E4,4.1127188E3,0E0,0E0,3.507125E3,2.125926E4,1.897966E4,1.8246094E4,2.1465566E4,4.433457E3,0E0,0E0,0E0,1.8918125E3,0E0,0E0,4.9789766E3,1.6008043E4,9.267102E3,0E0,1.3924314E3,4.7953594E3,4.3456426E3,3.2226718E2,0E0,0E0,0E0,0E0,0E0,0E0,0E0,0E0,0E0,0E0,0E0,0E0,0E0,0E0,0E0,0E0],"parents":[2147483647,0,0,1,1,2,2,3,3,4,4,5,5,7,7,8,8,9,9,10,10,13,13,14,14,15,15,16,16,17,17,18,18,22,22,25,25,26,26,27,27,29,29,30,30,31,31,32,32],"right_children":[2,4,6,8,10,12,-1,14,16,18,20,-1,-1,22,24,26,28,30,32,-1,-1,-1,34,-1,-1,36,38,40,-1,42,44,46,48,-1,-1,-1,-1,-1,-1,-1,-1,-1,-1,-1,-1,-1,-1,-1,-1],"split_conditions":[1E0,1E0,4.15E0,1E0,2.56E0,2.5E-1,2.1996002E0,4.25E0,2.5E-1,5.9E1,5.6E1,1.2640014E-1,7.446002E-1,5.4E1,6.06E1,1E0,2.64E0,4.01E0,6.03E1,2.6140013E-1,1.3223335E0,-1.2859985E-1,1E0,6.918668E-1,-6.4859986E-1,5.8E1,5.8E1,4.21E0,1.2952001E0,2.4E-1,1E0,2.6E-1,2.4E-1,-9.373117E-1,-4.5975974E-1,-6.990283E-1,-1.8975976E-1,5.796002E-1,-3.2039976E-1,5.0752026E-1,-9.789978E-2,-4.7998047E-3,-3.3039978E-1,6.41378E-1,1.2710021E-1,-6.3933307E-1,-6.47998E-2,-7.8599855E-2,1.01400144E-1],"split_indices":[16,21,3,22,5,0,0,3,0,2,2,0,0,2,1,11,5,4,1,0,0,0,8,0,0,2,2,4,0,0,9,0,0,0,0,0,0,0,0,0,0,0,0,0,0,0,0,0,0],"split_type":[0,0,0,0,0,0,0,0,0,0,0,0,0,0,0,0,0,0,0,0,0,0,0,0,0,0,0,0,0,0,0,0,0,0,0,0,0,0,0,0,0,0,0,0,0,0,0,0,0],"sum_hessian":[1E2,9.3E1,7E0,6.2E1,3.1E1,4E0,3E0,3.2E1,3E1,2.5E1,6E0,1E0,3E0,2.9E1,3E0,1.6E1,1.4E1,1.6E1,9E0,1E0,5E0,1E0,2.8E1,2E0,1E0,1E1,6E0,1.2E1,2E0,5E0,1.1E1,7E0,2E0,2.4E1,4E0,6E0,4E0,3E0,3E0,9E0,3E0,2E0,3E0,8E0,3E0,5E0,2E0,1E0,1E0],"tree_param":{"num_deleted":"0","num_feature":"23","num_nodes":"49","size_leaf_vector":"1"}},{"base_weights":[2.9006807E-5,-1.2797418E1,1.5037003E2,-3.4041878E1,2.9427528E1,6.462402E1,2.1996002E0,-7.639513E1,1.2141964E1,3.6923358E0,1.20811455E2,1.2640014E-1,7.446002E-1,-8.66293E1,1.9460022E1,-2.8265854E1,5.712803E1,2.9087086E1,-3.9847973E1,2.6140013E-1,1.3223335E0,-1.2859985E-1,-8.872963E1,6.918668E-1,-6.4859986E-1,-5.3109066E1,1.4811454E1,3.6027718E1,1.2952001E0,-2.2266642E1,5.2340027E1,-5.0379974E1,1.5200195E0,-9.373117E-1,-4.5975974E-1,-6.990283E-1,-1.8975976E-1,5.796002E-1,-3.2039976E-1,5.0752026E-1,-9.789978E-2,-4.7998047E-3,-3.3039978E-1,6.41378E-1,1.2710021E-1,-6.3933307E-1,-6.47998E-2,-7.8599855E-2,1.01400144E-1],"categories":[],"categories_nodes":[],"categories_segments":[],"categories_sizes":[],"default_left":[0,0,0,0,0,0,0,0,0,0,0,0,0,0,0,0,0,0,0,0,0,0,0,0,0,0,0,0,0,0,0,0,0,0,0,0,0,0,0,0,0,0,0,0,0,0,0,0,0],"id":5,"left_children":[1,3,5,7,9,11,-1,13,15,17,19,-1,-1,21,23,25,27,29,31,-1,-1,-1,33,-1,-1,35,37,39,-1,41,43,45,47,-1,-1,-1,-1,-1,-1,-1,-1,-1,-1,-1,-1,-1,-1,-1,-1],"loss_changes":[1.962839E5,8.53241E4,3.3521812E4,1.24157836E5,7.481098E4,1.6153965E3,0E0,3.4058766E4,5.7966223E4,2.9907139E4,4.1127188E3,0E0,0E0,3.507125E3,2.125926E4,1.897966E4,1.8246094E4,2.1465566E4,4.433457E3,0E0,0E0,0E0,1.8918125E3,0E0,0E0,4.9789766E3,1.6008043E4,9.267102E3,0E0,1.3924314E3,4.7953594E3,4.3456426E3,3.2226718E2,0E0,0E0,0E0,0E0,0E0,0E0,0E0,0E0,0E0,0E0,0E0,0E0,0E0,0E0,0E0,0E0],"parents":[2147483647,0,0,1,1,2,2,3,3,4,4,5,5,7,7,8,8,9,9,10,10,13,13,14,14,15,15,16,16,17,17,18,18,22,22,25,25,26,26,27,27,29,29,30,30,31,31,32,32],"right_children":[2,4,6,8,10,12,-1,14,16,18,20,-1,-1,22,24,26,28,30,32,-1,-1,-1,34,-1,-1,36,38,40,-1,42,44,46,48,-1,-1,-1,-1,-1,-1,-1,-1,-1,-1,-1,-1,-1,-1,-1,-1],"split_conditions":[1E0,1E0,4.15E0,1E0,2.56E0,2.5E-1,2.1996002E0,4.25E0,2.5E-1,5.9E1,5.6E1,1.2640014E-1,7.446002E-1,5.4E1,6.06E1,1E0,2.64E0,4.01E0,6.03E1,2.6140013E-1,1.3223335E0,-1.2859985E-1,1E0,6.918668E-1,-6.4859986E-1,5.8E1,5.8E1,4.21E0,1.2952001E0,2.4E-1,1E0,2.6E-1,2.4E-1,-9.373117E-1,-4.5975974E-1,-6.990283E-1,-1.8975976E-1,5.796002E-1,-3.2039976E-1,5.0752026E-1,-9.789978E-2,-4.7998047E-3,-3.3039978E-1,6.41378E-1,1.2710021E-1,-6.3933307E-1,-6.47998E-2,-7.8599855E-2,1.01400144E-1],"split_indices":[16,21,3,22,5,0,0,3,0,2,2,0,0,2,1,11,5,4,1,0,0,0,8,0,0,2,2,4,0,0,9,0,0,0,0,0,0,0,0,0,0,0,0,0,0,0,0,0,0],"split_type":[0,0,0,0,0,0,0,0,0,0,0,0,0,0,0,0,0,0,0,0,0,0,0,0,0,0,0,0,0,0,0,0,0,0,0,0,0,0,0,0,0,0,0,0,0,0,0,0,0],"sum_hessian":[1E2,9.3E1,7E0,6.2E1,3.1E1,4E0,3E0,3.2E1,3E1,2.5E1,6E0,1E0,3E0,2.9E1,3E0,1.6E1,1.4E1,1.6E1,9E0,1E0,5E0,1E0,2.8E1,2E0,1E0,1E1,6E0,1.2E1,2E0,5E0,1.1E1,7E0,2E0,2.4E1,4E0,6E0,4E0,3E0,3E0,9E0,3E0,2E0,3E0,8E0,3E0,5E0,2E0,1E0,1E0],"tree_param":{"num_deleted":"0","num_feature":"23","num_nodes":"49","size_leaf_vector":"1"}},{"base_weights":[2.9006807E-5,-1.2797418E1,1.5037003E2,-3.4041878E1,2.9427528E1,6.462402E1,2.1996002E0,-7.639513E1,1.2141964E1,3.6923358E0,1.20811455E2,1.2640014E-1,7.446002E-1,-8.66293E1,1.9460022E1,-2.8265854E1,5.712803E1,2.9087086E1,-3.9847973E1,2.6140013E-1,1.3223335E0,-1.2859985E-1,-8.872963E1,6.918668E-1,-6.4859986E-1,-5.3109066E1,1.4811454E1,3.6027718E1,1.2952001E0,-2.2266642E1,5.2340027E1,-5.0379974E1,1.5200195E0,-9.373117E-1,-4.5975974E-1,-6.990283E-1,-1.8975976E-1,5.796002E-1,-3.2039976E-1,5.0752026E-1,-9.789978E-2,-4.7998047E-3,-3.3039978E-1,6.41378E-1,1.2710021E-1,-6.3933307E-1,-6.47998E-2,-7.8599855E-2,1.01400144E-1],"categories":[],"categories_nodes":[],"categories_segments":[],"categories_sizes":[],"default_left":[0,0,0,0,0,0,0,0,0,0,0,0,0,0,0,0,0,0,0,0,0,0,0,0,0,0,0,0,0,0,0,0,0,0,0,0,0,0,0,0,0,0,0,0,0,0,0,0,0],"id":6,"left_children":[1,3,5,7,9,11,-1,13,15,17,19,-1,-1,21,23,25,27,29,31,-1,-1,-1,33,-1,-1,35,37,39,-1,41,43,45,47,-1,-1,-1,-1,-1,-1,-1,-1,-1,-1,-1,-1,-1,-1,-1,-1],"loss_changes":[1.962839E5,8.53241E4,3.3521812E4,1.24157836E5,7.481098E4,1.6153965E3,0E0,3.4058766E4,5.7966223E4,2.9907139E4,4.1127188E3,0E0,0E0,3.507125E3,2.125926E4,1.897966E4,1.8246094E4,2.1465566E4,4.433457E3,0E0,0E0,0E0,1.8918125E3,0E0,0E0,4.9789766E3,1.6008043E4,9.267102E3,0E0,1.3924314E3,4.7953594E3,4.3456426E3,3.2226718E2,0E0,0E0,0E0,0E0,0E0,0E0,0E0,0E0,0E0,0E0,0E0,0E0,0E0,0E0,0E0,0E0],"parents":[2147483647,0,0,1,1,2,2,3,3,4,4,5,5,7,7,8,8,9,9,10,10,13,13,14,14,15,15,16,16,17,17,18,18,22,22,25,25,26,26,27,27,29,29,30,30,31,31,32,32],"right_children":[2,4,6,8,10,12,-1,14,16,18,20,-1,-1,22,24,26,28,30,32,-1,-1,-1,34,-1,-1,36,38,40,-1,42,44,46,48,-1,-1,-1,-1,-1,-1,-1,-1,-1,-1,-1,-1,-1,-1,-1,-1],"split_conditions":[1E0,1E0,4.15E0,1E0,2.56E0,2.5E-1,2.1996002E0,4.25E0,2.5E-1,5.9E1,5.6E1,1.2640014E-1,7.446002E-1,5.4E1,6.06E1,1E0,2.64E0,4.01E0,6.03E1,2.6140013E-1,1.3223335E0,-1.2859985E-1,1E0,6.918668E-1,-6.4859986E-1,5.8E1,5.8E1,4.21E0,1.2952001E0,2.4E-1,1E0,2.6E-1,2.4E-1,-9.373117E-1,-4.5975974E-1,-6.990283E-1,-1.8975976E-1,5.796002E-1,-3.2039976E-1,5.0752026E-1,-9.789978E-2,-4.7998047E-3,-3.3039978E-1,6.41378E-1,1.2710021E-1,-6.3933307E-1,-6.47998E-2,-7.8599855E-2,1.01400144E-1],"split_indices":[16,21,3,22,5,0,0,3,0,2,2,0,0,2,1,11,5,4,1,0,0,0,8,0,0,2,2,4,0,0,9,0,0,0,0,0,0,0,0,0,0,0,0,0,0,0,0,0,0],"split_type":[0,0,0,0,0,0,0,0,0,0,0,0,0,0,0,0,0,0,0,0,0,0,0,0,0,0,0,0,0,0,0,0,0,0,0,0,0,0,0,0,0,0,0,0,0,0,0,0,0],"sum_hessian":[1E2,9.3E1,7E0,6.2E1,3.1E1,4E0,3E0,3.2E1,3E1,2.5E1,6E0,1E0,3E0,2.9E1,3E0,1.6E1,1.4E1,1.6E1,9E0,1E0,5E0,1E0,2.8E1,2E0,1E0,1E1,6E0,1.2E1,2E0,5E0,1.1E1,7E0,2E0,2.4E1,4E0,6E0,4E0,3E0,3E0,9E0,3E0,2E0,3E0,8E0,3E0,5E0,2E0,1E0,1E0],"tree_param":{"num_deleted":"0","num_feature":"23","num_nodes":"49","size_leaf_vector":"1"}},{"base_weights":[2.9006807E-5,-1.2797418E1,1.5037003E2,-3.4041878E1,2.9427528E1,6.462402E1,2.1996002E0,-7.639513E1,1.2141964E1,3.6923358E0,1.20811455E2,1.2640014E-1,7.446002E-1,-8.66293E1,1.9460022E1,-2.8265854E1,5.712803E1,2.9087086E1,-3.9847973E1,2.6140013E-1,1.3223335E0,-1.2859985E-1,-8.872963E1,6.918668E-1,-6.4859986E-1,-5.3109066E1,1.4811454E1,3.6027718E1,1.2952001E0,-2.2266642E1,5.2340027E1,-5.0379974E1,1.5200195E0,-9.373117E-1,-4.5975974E-1,-6.990283E-1,-1.8975976E-1,5.796002E-1,-3.2039976E-1,5.0752026E-1,-9.789978E-2,-4.7998047E-3,-3.3039978E-1,6.41378E-1,1.2710021E-1,-6.3933307E-1,-6.47998E-2,-7.8599855E-2,1.01400144E-1],"categories":[],"categories_nodes":[],"categories_segments":[],"categories_sizes":[],"default_left":[0,0,0,0,0,0,0,0,0,0,0,0,0,0,0,0,0,0,0,0,0,0,0,0,0,0,0,0,0,0,0,0,0,0,0,0,0,0,0,0,0,0,0,0,0,0,0,0,0],"id":7,"left_children":[1,3,5,7,9,11,-1,13,15,17,19,-1,-1,21,23,25,27,29,31,-1,-1,-1,33,-1,-1,35,37,39,-1,41,43,45,47,-1,-1,-1,-1,-1,-1,-1,-1,-1,-1,-1,-1,-1,-1,-1,-1],"loss_changes":[1.962839E5,8.53241E4,3.3521812E4,1.24157836E5,7.481098E4,1.6153965E3,0E0,3.4058766E4,5.7966223E4,2.9907139E4,4.1127188E3,0E0,0E0,3.507125E3,2.125926E4,1.897966E4,1.8246094E4,2.1465566E4,4.433457E3,0E0,0E0,0E0,1.8918125E3,0E0,0E0,4.9789766E3,1.6008043E4,9.267102E3,0E0,1.3924314E3,4.7953594E3,4.3456426E3,3.2226718E2,0E0,0E0,0E0,0E0,0E0,0E0,0E0,0E0,0E0,0E0,0E0,0E0,0E0,0E0,0E0,0E0],"parents":[2147483647,0,0,1,1,2,2,3,3,4,4,5,5,7,7,8,8,9,9,10,10,13,13,14,14,15,15,16,16,17,17,18,18,22,22,25,25,26,26,27,27,29,29,30,30,31,31,32,32],"right_children":[2,4,6,8,10,12,-1,14,16,18,20,-1,-1,22,24,26,28,30,32,-1,-1,-1,34,-1,-1,36,38,40,-1,42,44,46,48,-1,-1,-1,-1,-1,-1,-1,-1,-1,-1,-1,-1,-1,-1,-1,-1],"split_conditions":[1E0,1E0,4.15E0,1E0,2.56E0,2.5E-1,2.1996002E0,4.25E0,2.5E-1,5.9E1,5.6E1,1.2640014E-1,7.446002E-1,5.4E1,6.06E1,1E0,2.64E0,4.01E0,6.03E1,2.6140013E-1,1.3223335E0,-1.2859985E-1,1E0,6.918668E-1,-6.4859986E-1,5.8E1,5.8E1,4.21E0,1.2952001E0,2.4E-1,1E0,2.6E-1,2.4E-1,-9.373117E-1,-4.5975974E-1,-6.990283E-1,-1.8975976E-1,5.796002E-1,-3.2039976E-1,5.0752026E-1,-9.789978E-2,-4.7998047E-3,-3.3039978E-1,6.41378E-1,1.2710021E-1,-6.3933307E-1,-6.47998E-2,-7.8599855E-2,1.01400144E-1],"split_indices":[16,21,3,22,5,0,0,3,0,2,2,0,0,2,1,11,5,4,1,0,0,0,8,0,0,2,2,4,0,0,9,0,0,0,0,0,0,0,0,0,0,0,0,0,0,0,0,0,0],"split_type":[0,0,0,0,0,0,0,0,0,0,0,0,0,0,0,0,0,0,0,0,0,0,0,0,0,0,0,0,0,0,0,0,0,0,0,0,0,0,0,0,0,0,0,0,0,0,0,0,0],"sum_hessian":[1E2,9.3E1,7E0,6.2E1,3.1E1,4E0,3E0,3.2E1,3E1,2.5E1,6E0,1E0,3E0,2.9E1,3E0,1.6E1,1.4E1,1.6E1,9E0,1E0,5E0,1E0,2.8E1,2E0,1E0,1E1,6E0,1.2E1,2E0,5E0,1.1E1,7E0,2E0,2.4E1,4E0,6E0,4E0,3E0,3E0,9E0,3E0,2E0,3E0,8E0,3E0,5E0,2E0,1E0,1E0],"tree_param":{"num_deleted":"0","num_feature":"23","num_nodes":"49","size_leaf_vector":"1"}},{"base_weights":[2.9006807E-5,-1.2797418E1,1.5037003E2,-3.4041878E1,2.9427528E1,6.462402E1,2.1996002E0,-7.639513E1,1.2141964E1,3.6923358E0,1.20811455E2,1.2640014E-1,7.446002E-1,-8.66293E1,1.9460022E1,-2.8265854E1,5.712803E1,2.9087086E1,-3.9847973E1,2.6140013E-1,1.3223335E0,-1.2859985E-1,-8.872963E1,6.918668E-1,-6.4859986E-1,-5.3109066E1,1.4811454E1,3.6027718E1,1.2952001E0,-2.2266642E1,5.2340027E1,-5.0379974E1,1.5200195E0,-9.373117E-1,-4.5975974E-1,-6.990283E-1,-1.8975976E-1,5.796002E-1,-3.2039976E-1,5.0752026E-1,-9.789978E-2,-4.7998047E-3,-3.3039978E-1,6.41378E-1,1.2710021E-1,-6.3933307E-1,-6.47998E-2,-7.8599855E-2,1.01400144E-1],"categories":[],"categories_nodes":[],"categories_segments":[],"categories_sizes":[],"default_left":[0,0,0,0,0,0,0,0,0,0,0,0,0,0,0,0,0,0,0,0,0,0,0,0,0,0,0,0,0,0,0,0,0,0,0,0,0,0,0,0,0,0,0,0,0,0,0,0,0],"id":8,"left_children":[1,3,5,7,9,11,-1,13,15,17,19,-1,-1,21,23,25,27,29,31,-1,-1,-1,33,-1,-1,35,37,39,-1,41,43,45,47,-1,-1,-1,-1,-1,-1,-1,-1,-1,-1,-1,-1,-1,-1,-1,-1],"loss_changes":[1.962839E5,8.53241E4,3.3521812E4,1.24157836E5,7.481098E4,1.6153965E3,0E0,3.4058766E4,5.7966223E4,2.9907139E4,4.1127188E3,0E0,0E0,3.507125E3,2.125926E4,1.897966E4,1.8246094E4,2.1465566E4,4.433457E3,0E0,0E0,0E0,1.8918125E3,0E0,0E0,4.9789766E3,1.6008043E4,9.267102E3,0E0,1.3924314E3,4.7953594E3,4.3456426E3,3.2226718E2,0E0,0E0,0E0,0E0,0E0,0E0,0E0,0E0,0E0,0E0,0E0,0E0,0E0,0E0,0E0,0E0],"parents":[2147483647,0,0,1,1,2,2,3,3,4,4,5,5,7,7,8,8,9,9,10,10,13,13,14,14,15,15,16,16,17,17,18,18,22,22,25,25,26,26,27,27,29,29,30,30,31,31,32,32],"right_children":[2,4,6,8,10,12,-1,14,16,18,20,-1,-1,22,24,26,28,30,32,-1,-1,-1,34,-1,-1,36,38,40,-1,42,44,46,48,-1,-1,-1,-1,-1,-1,-1,-1,-1,-1,-1,-1,-1,-1,-1,-1],"split_conditions":[1E0,1E0,4.15E0,1E0,2.56E0,2.5E-1,2.1996002E0,4.25E0,2.5E-1,5.9E1,5.6E1,1.2640014E-1,7.446002E-1,5.4E1,6.06E1,1E0,2.64E0,4.01E0,6.03E1,2.6140013E-1,1.3223335E0,-1.2859985E-1,1E0,6.918668E-1,-6.4859986E-1,5.8E1,5.8E1,4.21E0,1.2952001E0,2.4E-1,1E0,2.6E-1,2.4E-1,-9.373117E-1,-4.5975974E-1,-6.990283E-1,-1.8975976E-1,5.796002E-1,-3.2039976E-1,5.0752026E-1,-9.789978E-2,-4.7998047E-3,-3.3039978E-1,6.41378E-1,1.2710021E-1,-6.3933307E-1,-6.47998E-2,-7.8599855E-2,1.01400144E-1],"split_indices":[16,21,3,22,5,0,0,3,0,2,2,0,0,2,1,11,5,4,1,0,0,0,8,0,0,2,2,4,0,0,9,0,0,0,0,0,0,0,0,0,0,0,0,0,0,0,0,0,0],"split_type":[0,0,0,0,0,0,0,0,0,0,0,0,0,0,0,0,0,0,0,0,0,0,0,0,0,0,0,0,0,0,0,0,0,0,0,0,0,0,0,0,0,0,0,0,0,0,0,0,0],"sum_hessian":[1E2,9.3E1,7E0,6.2E1,3.1E1,4E0,3E0,3.2E1,3E1,2.5E1,6E0,1E0,3E0,2.9E1,3E0,1.6E1,1.4E1,1.6E1,9E0,1E0,5E0,1E0,2.8E1,2E0,1E0,1E1,6E0,1.2E1,2E0,5E0,1.1E1,7E0,2E0,2.4E1,4E0,6E0,4E0,3E0,3E0,9E0,3E0,2E0,3E0,8E0,3E0,5E0,2E0,1E0,1E0],"tree_param":{"num_deleted":"0","num_feature":"23","num_nodes":"49","size_leaf_vector":"1"}},{"base_weights":[2.9006807E-5,-1.2797418E1,1.5037003E2,-3.4041878E1,2.9427528E1,6.462402E1,2.1996002E0,-7.639513E1,1.2141964E1,3.6923358E0,1.20811455E2,1.2640014E-1,7.446002E-1,-8.66293E1,1.9460022E1,-2.8265854E1,5.712803E1,2.9087086E1,-3.9847973E1,2.6140013E-1,1.3223335E0,-1.2859985E-1,-8.872963E1,6.918668E-1,-6.4859986E-1,-5.3109066E1,1.4811454E1,3.6027718E1,1.2952001E0,-2.2266642E1,5.2340027E1,-5.0379974E1,1.5200195E0,-9.373117E-1,-4.5975974E-1,-6.990283E-1,-1.8975976E-1,5.796002E-1,-3.2039976E-1,5.0752026E-1,-9.789978E-2,-4.7998047E-3,-3.3039978E-1,6.41378E-1,1.2710021E-1,-6.3933307E-1,-6.47998E-2,-7.8599855E-2,1.01400144E-1],"categories":[],"categories_nodes":[],"categories_segments":[],"categories_sizes":[],"default_left":[0,0,0,0,0,0,0,0,0,0,0,0,0,0,0,0,0,0,0,0,0,0,0,0,0,0,0,0,0,0,0,0,0,0,0,0,0,0,0,0,0,0,0,0,0,0,0,0,0],"id":9,"left_children":[1,3,5,7,9,11,-1,13,15,17,19,-1,-1,21,23,25,27,29,31,-1,-1,-1,33,-1,-1,35,37,39,-1,41,43,45,47,-1,-1,-1,-1,-1,-1,-1,-1,-1,-1,-1,-1,-1,-1,-1,-1],"loss_changes":[1.962839E5,8.53241E4,3.3521812E4,1.24157836E5,7.481098E4,1.6153965E3,0E0,3.4058766E4,5.7966223E4,2.9907139E4,4.1127188E3,0E0,0E0,3.507125E3,2.125926E4,1.897966E4,1.8246094E4,2.1465566E4,4.433457E3,0E0,0E0,0E0,1.8918125E3,0E0,0E0,4.9789766E3,1.6008043E4,9.267102E3,0E0,1.3924314E3,4.7953594E3,4.3456426E3,3.2226718E2,0E0,0E0,0E0,0E0,0E0,0E0,0E0,0E0,0E0,0E0,0E0,0E0,0E0,0E0,0E0,0E0],"parents":[2147483647,0,0,1,1,2,2,3,3,4,4,5,5,7,7,8,8,9,9,10,10,13,13,14,14,15,15,16,16,17,17,18,18,22,22,25,25,26,26,27,27,29,29,30,30,31,31,32,32],"right_children":[2,4,6,8,10,12,-1,14,16,18,20,-1,-1,22,24,26,28,30,32,-1,-1,-1,34,-1,-1,36,38,40,-1,42,44,46,48,-1,-1,-1,-1,-1,-1,-1,-1,-1,-1,-1,-1,-1,-1,-1,-1],"split_conditions":[1E0,1E0,4.15E0,1E0,2.56E0,2.5E-1,2.1996002E0,4.25E0,2.5E-1,5.9E1,5.6E1,1.2640014E-1,7.446002E-1,5.4E1,6.06E1,1E0,2.64E0,4.01E0,6.03E1,2.6140013E-1,1.3223335E0,-1.2859985E-1,1E0,6.918668E-1,-6.4859986E-1,5.8E1,5.8E1,4.21E0,1.2952001E0,2.4E-1,1E0,2.6E-1,2.4E-1,-9.373117E-1,-4.5975974E-1,-6.990283E-1,-1.8975976E-1,5.796002E-1,-3.2039976E-1,5.0752026E-1,-9.789978E-2,-4.7998047E-3,-3.3039978E-1,6.41378E-1,1.2710021E-1,-6.3933307E-1,-6.47998E-2,-7.8599855E-2,1.01400144E-1],"split_indices":[16,21,3,22,5,0,0,3,0,2,2,0,0,2,1,11,5,4,1,0,0,0,8,0,0,2,2,4,0,0,9,0,0,0,0,0,0,0,0,0,0,0,0,0,0,0,0,0,0],"split_type":[0,0,0,0,0,0,0,0,0,0,0,0,0,0,0,0,0,0,0,0,0,0,0,0,0,0,0,0,0,0,0,0,0,0,0,0,0,0,0,0,0,0,0,0,0,0,0,0,0],"sum_hessian":[1E2,9.3E1,7E0,6.2E1,3.1E1,4E0,3E0,3.2E1,3E1,2.5E1,6E0,1E0,3E0,2.9E1,3E0,1.6E1,1.4E1,1.6E1,9E0,1E0,5E0,1E0,2.8E1,2E0,1E0,1E1,6E0,1.2E1,2E0,5E0,1.1E1,7E0,2E0,2.4E1,4E0,6E0,4E0,3E0,3E0,9E0,3E0,2E0,3E0,8E0,3E0,5E0,2E0,1E0,1E0],"tree_param":{"num_deleted":"0","num_feature":"23","num_nodes":"49","size_leaf_vector":"1"}}]},"name":"gbtree"},"learner_model_param":{"base_score":"5.3372E2","boost_from_average":"1","num_class":"0","num_feature":"23","num_target":"1"},"objective":{"name":"reg:squarederror","reg_loss_param":{"scale_pos_weight":"1"}}},"version":[2,1,2]}