{"learner":{"attributes":{},"feature_names":["carat","depth","table","x","y","z","cut_good","cut_ideal","cut_premium","cut_very_good","color_e","color_f","color_g","color_h","color_i","color_j","clarity_if","clarity_si1","clarity_si2","clarity_vs1","clarity_vs2","clarity_vvs1","clarity_vvs2"],"feature_types":["float","float","float","float","float","float","i","i","i","i","i","i","i","i","i","i","i","i","i","i","i","i","i"],"gradient_booster":{"model":{"gbtree_model_param":{"num_parallel_tree":"10","num_trees":"100"},"iteration_indptr":[0,10,20,30,40,50,60,70,80,90,100],"tree_info":[0,0,0,0,0,0,0,0,0,0,0,0,0,0,0,0,0,0,0,0,0,0,0,0,0,0,0,0,0,0,0,0,0,0,0,0,0,0,0,0,0,0,0,0,0,0,0,0,0,0,0,0,0,0,0,0,0,0,0,0,0,0,0,0,0,0,0,0,0,0,0,0,0,0,0,0,0,0,0,0,0,0,0,0,0,0,0,0,0,0,0,0,0,0,0,0,0,0,0,0],"trees":[{"base_weights":[-1.9337871E-4,-2.063778E3,7.9602856E3,-2.7787844E3,4.1565244E2,4.7101553E3,9.598045E1,-3.0832761E3,-1.4928287E1,-2.4685017E2,1.3574498E3,4.9744495E1,1.2978999E1,-3.3666E1,-2.4438211E1,-4.3798016E2,4.725332E0,1.8741665E3,-1.284668E2,-6.5845734E2,5.7349854E1,2.1522396E1,2.418999E0,2.9399902E-1,-2.221001E0,-3.8496013E0,-8.948001E0,-8.41001E-1,1.325332E0],"categories":[],"categories_nodes":[],"categories_segments":[],"categories_sizes":[],"default_left":[0,0,0,0,0,0,0,0,0,0,0,0,0,0,0,0,0,0,0,0,0,0,0,0,0,0,0,0,0],"id":0,"left_children":[1,3,5,7,9,11,-1,13,-1,15,17,-1,-1,-1,-1,19,-1,21,23,25,27,-1,-1,-1,-1,-1,-1,-1,-1],"loss_changes":[1.6756826E9,1.4475248E8,6.657331E7,2.0065696E7,1.2190008E7,1.660224E6,0E0,8.31264E5,0E0,1.856909E6,6.383152E6,0E0,0E0,0E0,0E0,1.1298519E6,0E0,2.202714E6,5.087446E4,1.0801125E5,5.368478E4,0E0,0E0,0E0,0E0,0E0,0E0,0E0,0E0],"parents":[2147483647,0,0,1,1,2,2,3,3,4,4,5,5,7,7,9,9,10,10,15,15,17,17,18,18,19,19,20,20],"right_children":[2,4,6,8,10,12,-1,14,-1,16,18,-1,-1,-1,-1,20,-1,22,24,26,28,-1,-1,-1,-1,-1,-1,-1,-1],"split_conditions":[1.35E0,3.79E0,1.6E0,3.34E0,6.58E0,4.61E0,9.598045E1,3.14E0,-1.4928287E1,1E0,1E0,4.9744495E1,1.2978999E1,-3.3666E1,-2.4438211E1,1E0,4.725332E0,1E0,1.06E0,6.46E0,9.1E-1,2.1522396E1,2.418999E0,2.9399902E-1,-2.221001E0,-3.8496013E0,-8.948001E0,-8.41001E-1,1.325332E0],"split_indices":[0,5,0,5,4,5,0,5,0,9,18,0,0,0,0,12,0,13,0,3,0,0,0,0,0,0,0,0,0],"split_type":[0,0,0,0,0,0,0,0,0,0,0,0,0,0,0,0,0,0,0,0,0,0,0,0,0,0,0,0,0],"sum_hessian":[1E2,8E1,2E1,6.2E1,1.8E1,8E0,1.2E1,4.9E1,1.3E1,1.1E1,7E0,7E0,1E0,3.1E1,1.8E1,9E0,2E0,5E0,2E0,6E0,3E0,4E0,1E0,1E0,1E0,4E0,2E0,1E0,2E0],"tree_param":{"num_deleted":"0","num_feature":"23","num_nodes":"29","size_leaf_vector":"1"}},{"base_weights":[-1.9337871E-4,-2.063778E3,7.9602856E3,-2.7787844E3,4.1565244E2,4.7101553E3,9.598045E1,-3.0832761E3,-1.4928287E1,-2.4685017E2,1.3574498E3,4.9744495E1,1.2978999E1,-3.3666E1,-2.4438211E1,-4.3798016E2,4.725332E0,1.8741665E3,-1.284668E2,-6.5845734E2,5.7349854E1,2.1522396E1,2.418999E0,2.9399902E-1,-2.221001E0,-3.8496013E0,-8.948001E0,-8.41001E-1,1.325332E0],"categories":[],"categories_nodes":[],"categories_segments":[],"categories_sizes":[],"default_left":[0,0,0,0,0,0,0,0,0,0,0,0,0,0,0,0,0,0,0,0,0,0,0,0,0,0,0,0,0],"id":1,"left_children":[1,3,5,7,9,11,-1,13,-1,15,17,-1,-1,-1,-1,19,-1,21,23,25,27,-1,-1,-1,-1,-1,-1,-1,-1],"loss_changes":[1.6756826E9,1.4475248E8,6.657331E7,2.0065696E7,1.2190008E7,1.660224E6,0E0,8.31264E5,0E0,1.856909E6,6.383152E6,0E0,0E0,0E0,0E0,1.1298519E6,0E0,2.202714E6,5.087446E4,1.0801125E5,5.368478E4,0E0,0E0,0E0,0E0,0E0,0E0,0E0,0E0],"parents":[2147483647,0,0,1,1,2,2,3,3,4,4,5,5,7,7,9,9,10,10,15,15,17,17,18,18,19,19,20,20],"right_children":[2,4,6,8,10,12,-1,14,-1,16,18,-1,-1,-1,-1,20,-1,22,24,26,28,-1,-1,-1,-1,-1,-1,-1,-1],"split_conditions":[1.35E0,3.79E0,1.6E0,3.34E0,6.58E0,4.61E0,9.598045E1,3.14E0,-1.4928287E1,1E0,1E0,4.9744495E1,1.2978999E1,-3.3666E1,-2.4438211E1,1E0,4.725332E0,1E0,1.06E0,6.46E0,9.1E-1,2.1522396E1,2.418999E0,2.9399902E-1,-2.221001E0,-3.8496013E0,-8.948001E0,-8.41001E-1,1.325332E0],"split_indices":[0,5,0,5,4,5,0,5,0,9,18,0,0,0,0,12,0,13,0,3,0,0,0,0,0,0,0,0,0],"split_type":[0,0,0,0,0,0,0,0,0,0,0,0,0,0,0,0,0,0,0,0,0,0,0,0,0,0,0,0,0],"sum_hessian":[1E2,8E1,2E1,6.2E1,1.8E1,8E0,1.2E1,4.9E1,1.3E1,1.1E1,7E0,7E0,1E0,3.1E1,1.8E1,9E0,2E0,5E0,2E0,6E0,3E0,4E0,1E0,1E0,1E0,4E0,2E0,1E0,2E0],"tree_param":{"num_deleted":"0","num_feature":"23","num_nodes":"29","size_leaf_vector":"1"}},{"base_weights":[-1.9337871E-4,-2.063778E3,7.9602856E3,-2.7787844E3,4.1565244E2,4.7101553E3,9.598045E1,-3.0832761E3,-1.4928287E1,-2.4685017E2,1.3574498E3,4.9744495E1,1.2978999E1,-3.3666E1,-2.4438211E1,-4.3798016E2,4.725332E0,1.8741665E3,-1.284668E2,-6.5845734E2,5.7349854E1,2.1522396E1,2.418999E0,2.9399902E-1,-2.221001E0,-3.8496013E0,-8.948001E0,-8.41001E-1,1.325332E0],"categories":[],"categories_nodes":[],"categories_segments":[],"categories_sizes":[],"default_left":[0,0,0,0,0,0,0,0,0,0,0,0,0,0,0,0,0,0,0,0,0,0,0,0,0,0,0,0,0],"id":2,"left_children":[1,3,5,7,9,11,-1,13,-1,15,17,-1,-1,-1,-1,19,-1,21,23,25,27,-1,-1,-1,-1,-1,-1,-1,-1],"loss_changes":[1.6756826E9,1.4475248E8,6.657331E7,2.0065696E7,1.2190008E7,1.660224E6,0E0,8.31264E5,0E0,1.856909E6,6.383152E6,0E0,0E0,0E0,0E0,1.1298519E6,0E0,2.202714E6,5.087446E4,1.0801125E5,5.368478E4,0E0,0E0,0E0,0E0,0E0,0E0,0E0,0E0],"parents":[2147483647,0,0,1,1,2,2,3,3,4,4,5,5,7,7,9,9,10,10,15,15,17,17,18,18,19,19,20,20],"right_children":[2,4,6,8,10,12,-1,14,-1,16,18,-1,-1,-1,-1,20,-1,22,24,26,28,-1,-1,-1,-1,-1,-1,-1,-1],"split_conditions":[1.35E0,3.79E0,1.6E0,3.34E0,6.58E0,4.61E0,9.598045E1,3.14E0,-1.4928287E1,1E0,1E0,4.9744495E1,1.2978999E1,-3.3666E1,-2.4438211E1,1E0,4.725332E0,1E0,1.06E0,6.46E0,9.1E-1,2.1522396E1,2.418999E0,2.9399902E-1,-2.221001E0,-3.8496013E0,-8.948001E0,-8.41001E-1,1.325332E0],"split_indices":[0,5,0,5,4,5,0,5,0,9,18,0,0,0,0,12,0,13,0,3,0,0,0,0,0,0,0,0,0],"split_type":[0,0,0,0,0,0,0,0,0,0,0,0,0,0,0,0,0,0,0,0,0,0,0,0,0,0,0,0,0],"sum_hessian":[1E2,8E1,2E1,6.2E1,1.8E1,8E0,1.2E1,4.9E1,1.3E1,1.1E1,7E0,7E0,1E0,3.1E1,1.8E1,9E0,2E0,5E0,2E0,6E0,3E0,4E0,1E0,1E0,1E0,4E0,2E0,1E0,2E0],"tree_param":{"num_deleted":"0","num_feature":"23","num_nodes":"29","size_leaf_vector":"1"}},{"base_weights":[-1.9337871E-4,-2.063778E3,7.9602856E3,-2.7787844E3,4.1565244E2,4.7101553E3,9.598045E1,-3.0832761E3,-1.4928287E1,-2.4685017E2,1.3574498E3,4.9744495E1,1.2978999E1,-3.3666E1,-2.4438211E1,-4.3798016E2,4.725332E0,1.8741665E3,-1.284668E2,-6.5845734E2,5.7349854E1,2.1522396E1,2.418999E0,2.9399902E-1,-2.221001E0,-3.8496013E0,-8.948001E0,-8.41001E-1,1.325332E0],"categories":[],"categories_nodes":[],"categories_segments":[],"categories_sizes":[],"default_left":[0,0,0,0,0,0,0,0,0,0,0,0,0,0,0,0,0,0,0,0,0,0,0,0,0,0,0,0,0],"id":3,"left_children":[1,3,5,7,9,11,-1,13,-1,15,17,-1,-1,-1,-1,19,-1,21,23,25,27,-1,-1,-1,-1,-1,-1,-1,-1],"loss_changes":[1.6756826E9,1.4475248E8,6.657331E7,2.0065696E7,1.2190008E7,1.660224E6,0E0,8.31264E5,0E0,1.856909E6,6.383152E6,0E0,0E0,0E0,0E0,1.1298519E6,0E0,2.202714E6,5.087446E4,1.0801125E5,5.368478E4,0E0,0E0,0E0,0E0,0E0,0E0,0E0,0E0],"parents":[2147483647,0,0,1,1,2,2,3,3,4,4,5,5,7,7,9,9,10,10,15,15,17,17,18,18,19,19,20,20],"right_children":[2,4,6,8,10,12,-1,14,-1,16,18,-1,-1,-1,-1,20,-1,22,24,26,28,-1,-1,-1,-1,-1,-1,-1,-1],"split_conditions":[1.35E0,3.79E0,1.6E0,3.34E0,6.58E0,4.61E0,9.598045E1,3.14E0,-1.4928287E1,1E0,1E0,4.9744495E1,1.2978999E1,-3.3666E1,-2.4438211E1,1E0,4.725332E0,1E0,1.06E0,6.46E0,9.1E-1,2.1522396E1,2.418999E0,2.9399902E-1,-2.221001E0,-3.8496013E0,-8.948001E0,-8.41001E-1,1.325332E0],"split_indices":[0,5,0,5,4,5,0,5,0,9,18,0,0,0,0,12,0,13,0,3,0,0,0,0,0,0,0,0,0],"split_type":[0,0,0,0,0,0,0,0,0,0,0,0,0,0,0,0,0,0,0,0,0,0,0,0,0,0,0,0,0],"sum_hessian":[1E2,8E1,2E1,6.2E1,1.8E1,8E0,1.2E1,4.9E1,1.3E1,1.1E1,7E0,7E0,1E0,3.1E1,1.8E1,9E0,2E0,5E0,2E0,6E0,3E0,4E0,1E0,1E0,1E0,4E0,2E0,1E0,2E0],"tree_param":{"num_deleted":"0","num_feature":"23","num_nodes":"29","size_leaf_vector":"1"}},{"base_weights":[-1.9337871E-4,-2.063778E3,7.9602856E3,-2.7787844E3,4.1565244E2,4.7101553E3,9.598045E1,-3.0832761E3,-1.4928287E1,-2.4685017E2,1.3574498E3,4.9744495E1,1.2978999E1,-3.3666E1,-2.4438211E1,-4.3798016E2,4.725332E0,1.8741665E3,-1.284668E2,-6.5845734E2,5.7349854E1,2.1522396E1,2.418999E0,2.9399902E-1,-2.221001E0,-3.8496013E0,-8.948001E0,-8.41001E-1,1.325332E0],"categories":[],"categories_nodes":[],"categories_segments":[],"categories_sizes":[],"default_left":[0,0,0,0,0,0,0,0,0,0,0,0,0,0,0,0,0,0,0,0,0,0,0,0,0,0,0,0,0],"id":4,"left_children":[1,3,5,7,9,11,-1,13,-1,15,17,-1,-1,-1,-1,19,-1,21,23,25,27,-1,-1,-1,-1,-1,-1,-1,-1],"loss_changes":[1.6756826E9,1.4475248E8,6.657331E7,2.0065696E7,1.2190008E7,1.660224E6,0E0,8.31264E5,0E0,1.856909E6,6.383152E6,0E0,0E0,0E0,0E0,1.1298519E6,0E0,2.202714E6,5.087446E4,1.0801125E5,5.368478E4,0E0,0E0,0E0,0E0,0E0,0E0,0E0,0E0],"parents":[2147483647,0,0,1,1,2,2,3,3,4,4,5,5,7,7,9,9,10,10,15,15,17,17,18,18,19,19,20,20],"right_children":[2,4,6,8,10,12,-1,14,-1,16,18,-1,-1,-1,-1,20,-1,22,24,26,28,-1,-1,-1,-1,-1,-1,-1,-1],"split_conditions":[1.35E0,3.79E0,1.6E0,3.34E0,6.58E0,4.61E0,9.598045E1,3.14E0,-1.4928287E1,1E0,1E0,4.9744495E1,1.2978999E1,-3.3666E1,-2.4438211E1,1E0,4.725332E0,1E0,1.06E0,6.46E0,9.1E-1,2.1522396E1,2.418999E0,2.9399902E-1,-2.221001E0,-3.8496013E0,-8.948001E0,-8.41001E-1,1.325332E0],"split_indices":[0,5,0,5,4,5,0,5,0,9,18,0,0,0,0,12,0,13,0,3,0,0,0,0,0,0,0,0,0],"split_type":[0,0,0,0,0,0,0,0,0,0,0,0,0,0,0,0,0,0,0,0,0,0,0,0,0,0,0,0,0],"sum_hessian":[1E2,8E1,2E1,6.2E1,1.8E1,8E0,1.2E1,4.9E1,1.3E1,1.1E1,7E0,7E0,1E0,3.1E1,1.8E1,9E0,2E0,5E0,2E0,6E0,3E0,4E0,1E0,1E0,1E0,4E0,2E0,1E0,2E0],"tree_param":{"num_deleted":"0","num_feature":"23","num_nodes":"29","size_leaf_vector":"1"}},{"base_weights":[-1.9337871E-4,-2.063778E3,7.9602856E3,-2.7787844E3,4.1565244E2,4.7101553E3,9.598045E1,-3.0832761E3,-1.4928287E1,-2.4685017E2,1.3574498E3,4.9744495E1,1.2978999E1,-3.3666E1,-2.4438211E1,-4.3798016E2,4.725332E0,1.8741665E3,-1.284668E2,-6.5845734E2,5.7349854E1,2.1522396E1,2.418999E0,2.9399902E-1,-2.221001E0,-3.8496013E0,-8.948001E0,-8.41001E-1,1.325332E0],"categories":[],"categories_nodes":[],"categories_segments":[],"categories_sizes":[],"default_left":[0,0,0,0,0,0,0,0,0,0,0,0,0,0,0,0,0,0,0,0,0,0,0,0,0,0,0,0,0],"id":5,"left_children":[1,3,5,7,9,11,-1,13,-1,15,17,-1,-1,-1,-1,19,-1,21,23,25,27,-1,-1,-1,-1,-1,-1,-1,-1],"loss_changes":[1.6756826E9,1.4475248E8,6.657331E7,2.0065696E7,1.2190008E7,1.660224E6,0E0,8.31264E5,0E0,1.856909E6,6.383152E6,0E0,0E0,0E0,0E0,1.1298519E6,0E0,2.202714E6,5.087446E4,1.0801125E5,5.368478E4,0E0,0E0,0E0,0E0,0E0,0E0,0E0,0E0],"parents":[2147483647,0,0,1,1,2,2,3,3,4,4,5,5,7,7,9,9,10,10,15,15,17,17,18,18,19,19,20,20],"right_children":[2,4,6,8,10,12,-1,14,-1,16,18,-1,-1,-1,-1,20,-1,22,24,26,28,-1,-1,-1,-1,-1,-1,-1,-1],"split_conditions":[1.35E0,3.79E0,1.6E0,3.34E0,6.58E0,4.61E0,9.598045E1,3.14E0,-1.4928287E1,1E0,1E0,4.9744495E1,1.2978999E1,-3.3666E1,-2.4438211E1,1E0,4.725332E0,1E0,1.06E0,6.46E0,9.1E-1,2.1522396E1,2.418999E0,2.9399902E-1,-2.221001E0,-3.8496013E0,-8.948001E0,-8.41001E-1,1.325332E0],"split_indices":[0,5,0,5,4,5,0,5,0,9,18,0,0,0,0,12,0,13,0,3,0,0,0,0,0,0,0,0,0],"split_type":[0,0,0,0,0,0,0,0,0,0,0,0,0,0,0,0,0,0,0,0,0,0,0,0,0,0,0,0,0],"sum_hessian":[1E2,8E1,2E1,6.2E1,1.8E1,8E0,1.2E1,4.9E1,1.3E1,1.1E1,7E0,7E0,1E0,3.1E1,1.8E1,9E0,2E0,5E0,2E0,6E0,3E0,4E0,1E0,1E0,1E0,4E0,2E0,1E0,2E0],"tree_param":{"num_deleted":"0","num_feature":"23","num_nodes":"29","size_leaf_vector":"1"}},{"base_weights":[-1.9337871E-4,-2.063778E3,7.9602856E3,-2.7787844E3,4.1565244E2,4.7101553E3,9.598045E1,-3.0832761E3,-1.4928287E1,-2.4685017E2,1.3574498E3,4.9744495E1,1.2978999E1,-3.3666E1,-2.4438211E1,-4.3798016E2,4.725332E0,1.8741665E3,-1.284668E2,-6.5845734E2,5.7349854E1,2.1522396E1,2.418999E0,2.9399902E-1,-2.221001E0,-3.8496013E0,-8.948001E0,-8.41001E-1,1.325332E0],"categories":[],"categories_nodes":[],"categories_segments":[],"categories_sizes":[],"default_left":[0,0,0,0,0,0,0,0,0,0,0,0,0,0,0,0,0,0,0,0,0,0,0,0,0,0,0,0,0],"id":6,"left_children":[1,3,5,7,9,11,-1,13,-1,15,17,-1,-1,-1,-1,19,-1,21,23,25,27,-1,-1,-1,-1,-1,-1,-1,-1],"loss_changes":[1.6756826E9,1.4475248E8,6.657331E7,2.0065696E7,1.2190008E7,1.660224E6,0E0,8.31264E5,0E0,1.856909E6,6.383152E6,0E0,0E0,0E0,0E0,1.1298519E6,0E0,2.202714E6,5.087446E4,1.0801125E5,5.368478E4,0E0,0E0,0E0,0E0,0E0,0E0,0E0,0E0],"parents":[2147483647,0,0,1,1,2,2,3,3,4,4,5,5,7,7,9,9,10,10,15,15,17,17,18,18,19,19,20,20],"right_children":[2,4,6,8,10,12,-1,14,-1,16,18,-1,-1,-1,-1,20,-1,22,24,26,28,-1,-1,-1,-1,-1,-1,-1,-1],"split_conditions":[1.35E0,3.79E0,1.6E0,3.34E0,6.58E0,4.61E0,9.598045E1,3.14E0,-1.4928287E1,1E0,1E0,4.9744495E1,1.2978999E1,-3.3666E1,-2.4438211E1,1E0,4.725332E0,1E0,1.06E0,6.46E0,9.1E-1,2.1522396E1,2.418999E0,2.9399902E-1,-2.221001E0,-3.8496013E0,-8.948001E0,-8.41001E-1,1.325332E0],"split_indices":[0,5,0,5,4,5,0,5,0,9,18,0,0,0,0,12,0,13,0,3,0,0,0,0,0,0,0,0,0],"split_type":[0,0,0,0,0,0,0,0,0,0,0,0,0,0,0,0,0,0,0,0,0,0,0,0,0,0,0,0,0],"sum_hessian":[1E2,8E1,2E1,6.2E1,1.8E1,8E0,1.2E1,4.9E1,1.3E1,1.1E1,7E0,7E0,1E0,3.1E1,1.8E1,9E0,2E0,5E0,2E0,6E0,3E0,4E0,1E0,1E0,1E0,4E0,2E0,1E0,2E0],"tree_param":{"num_deleted":"0","num_feature":"23","num_nodes":"29","size_leaf_vector":"1"}},{"base_weights":[-1.9337871E-4,-2.063778E3,7.9602856E3,-2.7787844E3,4.1565244E2,4.7101553E3,9.598045E1,-3.0832761E3,-1.4928287E1,-2.4685017E2,1.3574498E3,4.9744495E1,1.2978999E1,-3.3666E1,-2.4438211E1,-4.3798016E2,4.725332E0,1.8741665E3,-1.284668E2,-6.5845734E2,5.7349854E1,2.1522396E1,2.418999E0,2.9399902E-1,-2.221001E0,-3.8496013E0,-8.948001E0,-8.41001E-1,1.325332E0],"categories":[],"categories_nodes":[],"categories_segments":[],"categories_sizes":[],"default_left":[0,0,0,0,0,0,0,0,0,0,0,0,0,0,0,0,0,0,0,0,0,0,0,0,0,0,0,0,0],"id":7,"left_children":[1,3,5,7,9,11,-1,13,-1,15,17,-1,-1,-1,-1,19,-1,21,23,25,27,-1,-1,-1,-1,-1,-1,-1,-1],"loss_changes":[1.6756826E9,1.4475248E8,6.657331E7,2.0065696E7,1.2190008E7,1.660224E6,0E0,8.31264E5,0E0,1.856909E6,6.383152E6,0E0,0E0,0E0,0E0,1.1298519E6,0E0,2.202714E6,5.087446E4,1.0801125E5,5.368478E4,0E0,0E0,0E0,0E0,0E0,0E0,0E0,0E0],"parents":[2147483647,0,0,1,1,2,2,3,3,4,4,5,5,7,7,9,9,10,10,15,15,17,17,18,18,19,19,20,20],"right_children":[2,4,6,8,10,12,-1,14,-1,16,18,-1,-1,-1,-1,20,-1,22,24,26,28,-1,-1,-1,-1,-1,-1,-1,-1],"split_conditions":[1.35E0,3.79E0,1.6E0,3.34E0,6.58E0,4.61E0,9.598045E1,3.14E0,-1.4928287E1,1E0,1E0,4.9744495E1,1.2978999E1,-3.3666E1,-2.4438211E1,1E0,4.725332E0,1E0,1.06E0,6.46E0,9.1E-1,2.1522396E1,2.418999E0,2.9399902E-1,-2.221001E0,-3.8496013E0,-8.948001E0,-8.41001E-1,1.325332E0],"split_indices":[0,5,0,5,4,5,0,5,0,9,18,0,0,0,0,12,0,13,0,3,0,0,0,0,0,0,0,0,0],"split_type":[0,0,0,0,0,0,0,0,0,0,0,0,0,0,0,0,0,0,0,0,0,0,0,0,0,0,0,0,0],"sum_hessian":[1E2,8E1,2E1,6.2E1,1.8E1,8E0,1.2E1,4.9E1,1.3E1,1.1E1,7E0,7E0,1E0,3.1E1,1.8E1,9E0,2E0,5E0,2E0,6E0,3E0,4E0,1E0,1E0,1E0,4E0,2E0,1E0,2E0],"tree_param":{"num_deleted":"0","num_feature":"23","num_nodes":"29","size_leaf_vector":"1"}},{"base_weights":[-1.9337871E-4,-2.063778E3,7.9602856E3,-2.7787844E3,4.1565244E2,4.7101553E3,9.598045E1,-3.0832761E3,-1.4928287E1,-2.4685017E2,1.3574498E3,4.9744495E1,1.2978999E1,-3.3666E1,-2.4438211E1,-4.3798016E2,4.725332E0,1.8741665E3,-1.284668E2,-6.5845734E2,5.7349854E1,2.1522396E1,2.418999E0,2.9399902E-1,-2.221001E0,-3.8496013E0,-8.948001E0,-8.41001E-1,1.325332E0],"categories":[],"categories_nodes":[],"categories_segments":[],"categories_sizes":[],"default_left":[0,0,0,0,0,0,0,0,0,0,0,0,0,0,0,0,0,0,0,0,0,0,0,0,0,0,0,0,0],"id":8,"left_children":[1,3,5,7,9,11,-1,13,-1,15,17,-1,-1,-1,-1,19,-1,21,23,25,27,-1,-1,-1,-1,-1,-1,-1,-1],"loss_changes":[1.6756826E9,1.4475248E8,6.657331E7,2.0065696E7,1.2190008E7,1.660224E6,0E0,8.31264E5,0E0,1.856909E6,6.383152E6,0E0,0E0,0E0,0E0,1.1298519E6,0E0,2.202714E6,5.087446E4,1.0801125E5,5.368478E4,0E0,0E0,0E0,0E0,0E0,0E0,0E0,0E0],"parents":[2147483647,0,0,1,1,2,2,3,3,4,4,5,5,7,7,9,9,10,10,15,15,17,17,18,18,19,19,20,20],"right_children":[2,4,6,8,10,12,-1,14,-1,16,18,-1,-1,-1,-1,20,-1,22,24,26,28,-1,-1,-1,-1,-1,-1,-1,-1],"split_conditions":[1.35E0,3.79E0,1.6E0,3.34E0,6.58E0,4.61E0,9.598045E1,3.14E0,-1.4928287E1,1E0,1E0,4.9744495E1,1.2978999E1,-3.3666E1,-2.4438211E1,1E0,4.725332E0,1E0,1.06E0,6.46E0,9.1E-1,2.1522396E1,2.418999E0,2.9399902E-1,-2.221001E0,-3.8496013E0,-8.948001E0,-8.41001E-1,1.325332E0],"split_indices":[0,5,0,5,4,5,0,5,0,9,18,0,0,0,0,12,0,13,0,3,0,0,0,0,0,0,0,0,0],"split_type":[0,0,0,0,0,0,0,0,0,0,0,0,0,0,0,0,0,0,0,0,0,0,0,0,0,0,0,0,0],"sum_hessian":[1E2,8E1,2E1,6.2E1,1.8E1,8E0,1.2E1,4.9E1,1.3E1,1.1E1,7E0,7E0,1E0,3.1E1,1.8E1,9E0,2E0,5E0,2E0,6E0,3E0,4E0,1E0,1E0,1E0,4E0,2E0,1E0,2E0],"tree_param":{"num_deleted":"0","num_feature":"23","num_nodes":"29","size_leaf_vector":"1"}},{"base_weights":[-1.9337871E-4,-2.063778E3,7.9602856E3,-2.7787844E3,4.1565244E2,4.7101553E3,9.598045E1,-3.0832761E3,-1.4928287E1,-2.4685017E2,1.3574498E3,4.9744495E1,1.2978999E1,-3.3666E1,-2.4438211E1,-4.3798016E2,4.725332E0,1.8741665E3,-1.284668E2,-6.5845734E2,5.7349854E1,2.1522396E1,2.418999E0,2.9399902E-1,-2.221001E0,-3.8496013E0,-8.948001E0,-8.41001E-1,1.325332E0],"categories":[],"categories_nodes":[],"categories_segments":[],"categories_sizes":[],"default_left":[0,0,0,0,0,0,0,0,0,0,0,0,0,0,0,0,0,0,0,0,0,0,0,0,0,0,0,0,0],"id":9,"left_children":[1,3,5,7,9,11,-1,13,-1,15,17,-1,-1,-1,-1,19,-1,21,23,25,27,-1,-1,-1,-1,-1,-1,-1,-1],"loss_changes":[1.6756826E9,1.4475248E8,6.657331E7,2.0065696E7,1.2190008E7,1.660224E6,0E0,8.31264E5,0E0,1.856909E6,6.383152E6,0E0,0E0,0E0,0E0,1.1298519E6,0E0,2.202714E6,5.087446E4,1.0801125E5,5.368478E4,0E0,0E0,0E0,0E0,0E0,0E0,0E0,0E0],"parents":[2147483647,0,0,1,1,2,2,3,3,4,4,5,5,7,7,9,9,10,10,15,15,17,17,18,18,19,19,20,20],"right_children":[2,4,6,8,10,12,-1,14,-1,16,18,-1,-1,-1,-1,20,-1,22,24,26,28,-1,-1,-1,-1,-1,-1,-1,-1],"split_conditions":[1.35E0,3.79E0,1.6E0,3.34E0,6.58E0,4.61E0,9.598045E1,3.14E0,-1.4928287E1,1E0,1E0,4.9744495E1,1.2978999E1,-3.3666E1,-2.4438211E1,1E0,4.725332E0,1E0,1.06E0,6.46E0,9.1E-1,2.1522396E1,2.418999E0,2.9399902E-1,-2.221001E0,-3.8496013E0,-8.948001E0,-8.41001E-1,1.325332E0],"split_indices":[0,5,0,5,4,5,0,5,0,9,18,0,0,0,0,12,0,13,0,3,0,0,0,0,0,0,0,0,0],"split_type":[0,0,0,0,0,0,0,0,0,0,0,0,0,0,0,0,0,0,0,0,0,0,0,0,0,0,0,0,0],"sum_hessian":[1E2,8E1,2E1,6.2E1,1.8E1,8E0,1.2E1,4.9E1,1.3E1,1.1E1,7E0,7E0,1E0,3.1E1,1.8E1,9E0,2E0,5E0,2E0,6E0,3E0,4E0,1E0,1E0,1E0,4E0,2E0,1E0,2E0],"tree_param":{"num_deleted":"0","num_feature":"23","num_nodes":"29","size_leaf_vector":"1"}},{"base_weights":[9.910166E0,-1.8084042E3,7.4645034E3,-2.512499E3,4.999143E2,4.5041416E3,8.712072E1,-2.7722043E3,-1.3003859E1,-2.2848755E2,1.4155708E3,4.795303E1,1.2330049E1,-3.0546194E1,-2.2232958E1,-4.064948E2,4.4103256E2,1.8723234E1,-1.2204264E2,-6.108931E2,5.2825928E1,1.3227441E0,5.292744E0,2.7930176E-1,-2.1099412E0,-3.5416327E0,-8.351452E0,-7.9896E-1,1.2369857E0],"categories":[],"categories_nodes":[],"categories_segments":[],"categories_sizes":[],"default_left":[0,0,0,0,0,0,0,0,0,0,0,0,0,0,0,0,0,0,0,0,0,0,0,0,0,0,0,0,0],"id":10,"left_children":[1,3,5,7,9,11,-1,13,-1,15,17,-1,-1,-1,-1,19,21,-1,23,25,27,-1,-1,-1,-1,-1,-1,-1,-1],"loss_changes":[1.3825332E9,1.3452854E8,3.462477E7,1.6226976E7,1.3662758E7,1.7068E6,0E0,1.114688E6,0E0,1.6094308E6,6.549286E6,0E0,0E0,0E0,0E0,9.711146E5,1.172675E4,0E0,4.5914023E4,1.0722775E5,4.750843E4,0E0,0E0,0E0,0E0,0E0,0E0,0E0,0E0],"parents":[2147483647,0,0,1,1,2,2,3,3,4,4,5,5,7,7,9,9,10,10,15,15,16,16,18,18,19,19,20,20],"right_children":[2,4,6,8,10,12,-1,14,-1,16,18,-1,-1,-1,-1,20,22,-1,24,26,28,-1,-1,-1,-1,-1,-1,-1,-1],"split_conditions":[1.41E0,3.79E0,1.6E0,3.36E0,6.58E0,4.61E0,8.712072E1,5E-1,-1.3003859E1,1E0,1E0,4.795303E1,1.2330049E1,-3.0546194E1,-2.2232958E1,1E0,9.1E-1,1.8723234E1,1.06E0,6.46E0,9.1E-1,1.3227441E0,5.292744E0,2.7930176E-1,-2.1099412E0,-3.5416327E0,-8.351452E0,-7.9896E-1,1.2369857E0],"split_indices":[0,5,0,5,4,5,0,0,0,9,18,0,0,0,0,12,0,0,0,3,0,0,0,0,0,0,0,0,0],"split_type":[0,0,0,0,0,0,0,0,0,0,0,0,0,0,0,0,0,0,0,0,0,0,0,0,0,0,0,0,0],"sum_hessian":[1E2,8.1E1,1.9E1,6.2E1,1.9E1,7E0,1.2E1,5E1,1.2E1,1.1E1,8E0,6E0,1E0,3E1,2E1,9E0,2E0,6E0,2E0,6E0,3E0,1E0,1E0,1E0,1E0,4E0,2E0,1E0,2E0],"tree_param":{"num_deleted":"0","num_feature":"23","num_nodes":"29","size_leaf_vector":"1"}},{"base_weights":[9.910166E0,-1.8084042E3,7.4645034E3,-2.512499E3,4.999143E2,4.5041416E3,8.712072E1,-2.7722043E3,-1.3003859E1,-2.2848755E2,1.4155708E3,4.795303E1,1.2330049E1,-3.0546194E1,-2.2232958E1,-4.064948E2,4.4103256E2,1.8723234E1,-1.2204264E2,-6.108931E2,5.2825928E1,1.3227441E0,5.292744E0,2.7930176E-1,-2.1099412E0,-3.5416327E0,-8.351452E0,-7.9896E-1,1.2369857E0],"categories":[],"categories_nodes":[],"categories_segments":[],"categories_sizes":[],"default_left":[0,0,0,0,0,0,0,0,0,0,0,0,0,0,0,0,0,0,0,0,0,0,0,0,0,0,0,0,0],"id":11,"left_children":[1,3,5,7,9,11,-1,13,-1,15,17,-1,-1,-1,-1,19,21,-1,23,25,27,-1,-1,-1,-1,-1,-1,-1,-1],"loss_changes":[1.3825332E9,1.3452854E8,3.462477E7,1.6226976E7,1.3662758E7,1.7068E6,0E0,1.114688E6,0E0,1.6094308E6,6.549286E6,0E0,0E0,0E0,0E0,9.711146E5,1.172675E4,0E0,4.5914023E4,1.0722775E5,4.750843E4,0E0,0E0,0E0,0E0,0E0,0E0,0E0,0E0],"parents":[2147483647,0,0,1,1,2,2,3,3,4,4,5,5,7,7,9,9,10,10,15,15,16,16,18,18,19,19,20,20],"right_children":[2,4,6,8,10,12,-1,14,-1,16,18,-1,-1,-1,-1,20,22,-1,24,26,28,-1,-1,-1,-1,-1,-1,-1,-1],"split_conditions":[1.41E0,3.79E0,1.6E0,3.36E0,6.58E0,4.61E0,8.712072E1,5E-1,-1.3003859E1,1E0,1E0,4.795303E1,1.2330049E1,-3.0546194E1,-2.2232958E1,1E0,9.1E-1,1.8723234E1,1.06E0,6.46E0,9.1E-1,1.3227441E0,5.292744E0,2.7930176E-1,-2.1099412E0,-3.5416327E0,-8.351452E0,-7.9896E-1,1.2369857E0],"split_indices":[0,5,0,5,4,5,0,0,0,9,18,0,0,0,0,12,0,0,0,3,0,0,0,0,0,0,0,0,0],"split_type":[0,0,0,0,0,0,0,0,0,0,0,0,0,0,0,0,0,0,0,0,0,0,0,0,0,0,0,0,0],"sum_hessian":[1E2,8.1E1,1.9E1,6.2E1,1.9E1,7E0,1.2E1,5E1,1.2E1,1.1E1,8E0,6E0,1E0,3E1,2E1,9E0,2E0,6E0,2E0,6E0,3E0,1E0,1E0,1E0,1E0,4E0,2E0,1E0,2E0],"tree_param":{"num_deleted":"0","num_feature":"23","num_nodes":"29","size_leaf_vector":"1"}},{"base_weights":[9.910166E0,-1.8084042E3,7.4645034E3,-2.512499E3,4.999143E2,4.5041416E3,8.712072E1,-2.7722043E3,-1.3003859E1,-2.2848755E2,1.4155708E3,4.795303E1,1.2330049E1,-3.0546194E1,-2.2232958E1,-4.064948E2,4.4103256E2,1.8723234E1,-1.2204264E2,-6.108931E2,5.2825928E1,1.3227441E0,5.292744E0,2.7930176E-1,-2.1099412E0,-3.5416327E0,-8.351452E0,-7.9896E-1,1.2369857E0],"categories":[],"categories_nodes":[],"categories_segments":[],"categories_sizes":[],"default_left":[0,0,0,0,0,0,0,0,0,0,0,0,0,0,0,0,0,0,0,0,0,0,0,0,0,0,0,0,0],"id":12,"left_children":[1,3,5,7,9,11,-1,13,-1,15,17,-1,-1,-1,-1,19,21,-1,23,25,27,-1,-1,-1,-1,-1,-1,-1,-1],"loss_changes":[1.3825332E9,1.3452854E8,3.462477E7,1.6226976E7,1.3662758E7,1.7068E6,0E0,1.114688E6,0E0,1.6094308E6,6.549286E6,0E0,0E0,0E0,0E0,9.711146E5,1.172675E4,0E0,4.5914023E4,1.0722775E5,4.750843E4,0E0,0E0,0E0,0E0,0E0,0E0,0E0,0E0],"parents":[2147483647,0,0,1,1,2,2,3,3,4,4,5,5,7,7,9,9,10,10,15,15,16,16,18,18,19,19,20,20],"right_children":[2,4,6,8,10,12,-1,14,-1,16,18,-1,-1,-1,-1,20,22,-1,24,26,28,-1,-1,-1,-1,-1,-1,-1,-1],"split_conditions":[1.41E0,3.79E0,1.6E0,3.36E0,6.58E0,4.61E0,8.712072E1,5E-1,-1.3003859E1,1E0,1E0,4.795303E1,1.2330049E1,-3.0546194E1,-2.2232958E1,1E0,9.1E-1,1.8723234E1,1.06E0,6.46E0,9.1E-1,1.3227441E0,5.292744E0,2.7930176E-1,-2.1099412E0,-3.5416327E0,-8.351452E0,-7.9896E-1,1.2369857E0],"split_indices":[0,5,0,5,4,5,0,0,0,9,18,0,0,0,0,12,0,0,0,3,0,0,0,0,0,0,0,0,0],"split_type":[0,0,0,0,0,0,0,0,0,0,0,0,0,0,0,0,0,0,0,0,0,0,0,0,0,0,0,0,0],"sum_hessian":[1E2,8.1E1,1.9E1,6.2E1,1.9E1,7E0,1.2E1,5E1,1.2E1,1.1E1,8E0,6E0,1E0,3E1,2E1,9E0,2E0,6E0,2E0,6E0,3E0,1E0,1E0,1E0,1E0,4E0,2E0,1E0,2E0],"tree_param":{"num_deleted":"0","num_feature":"23","num_nodes":"29","size_leaf_vector":"1"}},{"base_weights":[9.910166E0,-1.8084042E3,7.4645034E3,-2.512499E3,4.999143E2,4.5041416E3,8.712072E1,-2.7722043E3,-1.3003859E1,-2.2848755E2,1.4155708E3,4.795303E1,1.2330049E1,-3.0546194E1,-2.2232958E1,-4.064948E2,4.4103256E2,1.8723234E1,-1.2204264E2,-6.108931E2,5.2825928E1,1.3227441E0,5.292744E0,2.7930176E-1,-2.1099412E0,-3.5416327E0,-8.351452E0,-7.9896E-1,1.2369857E0],"categories":[],"categories_nodes":[],"categories_segments":[],"categories_sizes":[],"default_left":[0,0,0,0,0,0,0,0,0,0,0,0,0,0,0,0,0,0,0,0,0,0,0,0,0,0,0,0,0],"id":13,"left_children":[1,3,5,7,9,11,-1,13,-1,15,17,-1,-1,-1,-1,19,21,-1,23,25,27,-1,-1,-1,-1,-1,-1,-1,-1],"loss_changes":[1.3825332E9,1.3452854E8,3.462477E7,1.6226976E7,1.3662758E7,1.7068E6,0E0,1.114688E6,0E0,1.6094308E6,6.549286E6,0E0,0E0,0E0,0E0,9.711146E5,1.172675E4,0E0,4.5914023E4,1.0722775E5,4.750843E4,0E0,0E0,0E0,0E0,0E0,0E0,0E0,0E0],"parents":[2147483647,0,0,1,1,2,2,3,3,4,4,5,5,7,7,9,9,10,10,15,15,16,16,18,18,19,19,20,20],"right_children":[2,4,6,8,10,12,-1,14,-1,16,18,-1,-1,-1,-1,20,22,-1,24,26,28,-1,-1,-1,-1,-1,-1,-1,-1],"split_conditions":[1.41E0,3.79E0,1.6E0,3.36E0,6.58E0,4.61E0,8.712072E1,5E-1,-1.3003859E1,1E0,1E0,4.795303E1,1.2330049E1,-3.0546194E1,-2.2232958E1,1E0,9.1E-1,1.8723234E1,1.06E0,6.46E0,9.1E-1,1.3227441E0,5.292744E0,2.7930176E-1,-2.1099412E0,-3.5416327E0,-8.351452E0,-7.9896E-1,1.2369857E0],"split_indices":[0,5,0,5,4,5,0,0,0,9,18,0,0,0,0,12,0,0,0,3,0,0,0,0,0,0,0,0,0],"split_type":[0,0,0,0,0,0,0,0,0,0,0,0,0,0,0,0,0,0,0,0,0,0,0,0,0,0,0,0,0],"sum_hessian":[1E2,8.1E1,1.9E1,6.2E1,1.9E1,7E0,1.2E1,5E1,1.2E1,1.1E1,8E0,6E0,1E0,3E1,2E1,9E0,2E0,6E0,2E0,6E0,3E0,1E0,1E0,1E0,1E0,4E0,2E0,1E0,2E0],"tree_param":{"num_deleted":"0","num_feature":"23","num_nodes":"29","size_leaf_vector":"1"}},{"base_weights":[9.910166E0,-1.8084042E3,7.4645034E3,-2.512499E3,4.999143E2,4.5041416E3,8.712072E1,-2.7722043E3,-1.3003859E1,-2.2848755E2,1.4155708E3,4.795303E1,1.2330049E1,-3.0546194E1,-2.2232958E1,-4.064948E2,4.4103256E2,1.8723234E1,-1.2204264E2,-6.108931E2,5.2825928E1,1.3227441E0,5.292744E0,2.7930176E-1,-2.1099412E0,-3.5416327E0,-8.351452E0,-7.9896E-1,1.2369857E0],"categories":[],"categories_nodes":[],"categories_segments":[],"categories_sizes":[],"default_left":[0,0,0,0,0,0,0,0,0,0,0,0,0,0,0,0,0,0,0,0,0,0,0,0,0,0,0,0,0],"id":14,"left_children":[1,3,5,7,9,11,-1,13,-1,15,17,-1,-1,-1,-1,19,21,-1,23,25,27,-1,-1,-1,-1,-1,-1,-1,-1],"loss_changes":[1.3825332E9,1.3452854E8,3.462477E7,1.6226976E7,1.3662758E7,1.7068E6,0E0,1.114688E6,0E0,1.6094308E6,6.549286E6,0E0,0E0,0E0,0E0,9.711146E5,1.172675E4,0E0,4.5914023E4,1.0722775E5,4.750843E4,0E0,0E0,0E0,0E0,0E0,0E0,0E0,0E0],"parents":[2147483647,0,0,1,1,2,2,3,3,4,4,5,5,7,7,9,9,10,10,15,15,16,16,18,18,19,19,20,20],"right_children":[2,4,6,8,10,12,-1,14,-1,16,18,-1,-1,-1,-1,20,22,-1,24,26,28,-1,-1,-1,-1,-1,-1,-1,-1],"split_conditions":[1.41E0,3.79E0,1.6E0,3.36E0,6.58E0,4.61E0,8.712072E1,5E-1,-1.3003859E1,1E0,1E0,4.795303E1,1.2330049E1,-3.0546194E1,-2.2232958E1,1E0,9.1E-1,1.8723234E1,1.06E0,6.46E0,9.1E-1,1.3227441E0,5.292744E0,2.7930176E-1,-2.1099412E0,-3.5416327E0,-8.351452E0,-7.9896E-1,1.2369857E0],"split_indices":[0,5,0,5,4,5,0,0,0,9,18,0,0,0,0,12,0,0,0,3,0,0,0,0,0,0,0,0,0],"split_type":[0,0,0,0,0,0,0,0,0,0,0,0,0,0,0,0,0,0,0,0,0,0,0,0,0,0,0,0,0],"sum_hessian":[1E2,8.1E1,1.9E1,6.2E1,1.9E1,7E0,1.2E1,5E1,1.2E1,1.1E1,8E0,6E0,1E0,3E1,2E1,9E0,2E0,6E0,2E0,6E0,3E0,1E0,1E0,1E0,1E0,4E0,2E0,1E0,2E0],"tree_param":{"num_deleted":"0","num_feature":"23","num_nodes":"29","size_leaf_vector":"1"}},{"base_weights":[9.910166E0,-1.8084042E3,7.4645034E3,-2.512499E3,4.999143E2,4.5041416E3,8.712072E1,-2.7722043E3,-1.3003859E1,-2.2848755E2,1.4155708E3,4.795303E1,1.2330049E1,-3.0546194E1,-2.2232958E1,-4.064948E2,4.4103256E2,1.8723234E1,-1.2204264E2,-6.108931E2,5.2825928E1,1.3227441E0,5.292744E0,2.7930176E-1,-2.1099412E0,-3.5416327E0,-8.351452E0,-7.9896E-1,1.2369857E0],"categories":[],"categories_nodes":[],"categories_segments":[],"categories_sizes":[],"default_left":[0,0,0,0,0,0,0,0,0,0,0,0,0,0,0,0,0,0,0,0,0,0,0,0,0,0,0,0,0],"id":15,"left_children":[1,3,5,7,9,11,-1,13,-1,15,17,-1,-1,-1,-1,19,21,-1,23,25,27,-1,-1,-1,-1,-1,-1,-1,-1],"loss_changes":[1.3825332E9,1.3452854E8,3.462477E7,1.6226976E7,1.3662758E7,1.7068E6,0E0,1.114688E6,0E0,1.6094308E6,6.549286E6,0E0,0E0,0E0,0E0,9.711146E5,1.172675E4,0E0,4.5914023E4,1.0722775E5,4.750843E4,0E0,0E0,0E0,0E0,0E0,0E0,0E0,0E0],"parents":[2147483647,0,0,1,1,2,2,3,3,4,4,5,5,7,7,9,9,10,10,15,15,16,16,18,18,19,19,20,20],"right_children":[2,4,6,8,10,12,-1,14,-1,16,18,-1,-1,-1,-1,20,22,-1,24,26,28,-1,-1,-1,-1,-1,-1,-1,-1],"split_conditions":[1.41E0,3.79E0,1.6E0,3.36E0,6.58E0,4.61E0,8.712072E1,5E-1,-1.3003859E1,1E0,1E0,4.795303E1,1.2330049E1,-3.0546194E1,-2.2232958E1,1E0,9.1E-1,1.8723234E1,1.06E0,6.46E0,9.1E-1,1.3227441E0,5.292744E0,2.7930176E-1,-2.1099412E0,-3.5416327E0,-8.351452E0,-7.9896E-1,1.2369857E0],"split_indices":[0,5,0,5,4,5,0,0,0,9,18,0,0,0,0,12,0,0,0,3,0,0,0,0,0,0,0,0,0],"split_type":[0,0,0,0,0,0,0,0,0,0,0,0,0,0,0,0,0,0,0,0,0,0,0,0,0,0,0,0,0],"sum_hessian":[1E2,8.1E1,1.9E1,6.2E1,1.9E1,7E0,1.2E1,5E1,1.2E1,1.1E1,8E0,6E0,1E0,3E1,2E1,9E0,2E0,6E0,2E0,6E0,3E0,1E0,1E0,1E0,1E0,4E0,2E0,1E0,2E0],"tree_param":{"num_deleted":"0","num_feature":"23","num_nodes":"29","size_leaf_vector":"1"}},{"base_weights":[9.910166E0,-1.8084042E3,7.4645034E3,-2.512499E3,4.999143E2,4.5041416E3,8.712072E1,-2.7722043E3,-1.3003859E1,-2.2848755E2,1.4155708E3,4.795303E1,1.2330049E1,-3.0546194E1,-2.2232958E1,-4.064948E2,4.4103256E2,1.8723234E1,-1.2204264E2,-6.108931E2,5.2825928E1,1.3227441E0,5.292744E0,2.7930176E-1,-2.1099412E0,-3.5416327E0,-8.351452E0,-7.9896E-1,1.2369857E0],"categories":[],"categories_nodes":[],"categories_segments":[],"categories_sizes":[],"default_left":[0,0,0,0,0,0,0,0,0,0,0,0,0,0,0,0,0,0,0,0,0,0,0,0,0,0,0,0,0],"id":16,"left_children":[1,3,5,7,9,11,-1,13,-1,15,17,-1,-1,-1,-1,19,21,-1,23,25,27,-1,-1,-1,-1,-1,-1,-1,-1],"loss_changes":[1.3825332E9,1.3452854E8,3.462477E7,1.6226976E7,1.3662758E7,1.7068E6,0E0,1.114688E6,0E0,1.6094308E6,6.549286E6,0E0,0E0,0E0,0E0,9.711146E5,1.172675E4,0E0,4.5914023E4,1.0722775E5,4.750843E4,0E0,0E0,0E0,0E0,0E0,0E0,0E0,0E0],"parents":[2147483647,0,0,1,1,2,2,3,3,4,4,5,5,7,7,9,9,10,10,15,15,16,16,18,18,19,19,20,20],"right_children":[2,4,6,8,10,12,-1,14,-1,16,18,-1,-1,-1,-1,20,22,-1,24,26,28,-1,-1,-1,-1,-1,-1,-1,-1],"split_conditions":[1.41E0,3.79E0,1.6E0,3.36E0,6.58E0,4.61E0,8.712072E1,5E-1,-1.3003859E1,1E0,1E0,4.795303E1,1.2330049E1,-3.0546194E1,-2.2232958E1,1E0,9.1E-1,1.8723234E1,1.06E0,6.46E0,9.1E-1,1.3227441E0,5.292744E0,2.7930176E-1,-2.1099412E0,-3.5416327E0,-8.351452E0,-7.9896E-1,1.2369857E0],"split_indices":[0,5,0,5,4,5,0,0,0,9,18,0,0,0,0,12,0,0,0,3,0,0,0,0,0,0,0,0,0],"split_type":[0,0,0,0,0,0,0,0,0,0,0,0,0,0,0,0,0,0,0,0,0,0,0,0,0,0,0,0,0],"sum_hessian":[1E2,8.1E1,1.9E1,6.2E1,1.9E1,7E0,1.2E1,5E1,1.2E1,1.1E1,8E0,6E0,1E0,3E1,2E1,9E0,2E0,6E0,2E0,6E0,3E0,1E0,1E0,1E0,1E0,4E0,2E0,1E0,2E0],"tree_param":{"num_deleted":"0","num_feature":"23","num_nodes":"29","size_leaf_vector":"1"}},{"base_weights":[9.910166E0,-1.8084042E3,7.4645034E3,-2.512499E3,4.999143E2,4.5041416E3,8.712072E1,-2.7722043E3,-1.3003859E1,-2.2848755E2,1.4155708E3,4.795303E1,1.2330049E1,-3.0546194E1,-2.2232958E1,-4.064948E2,4.4103256E2,1.8723234E1,-1.2204264E2,-6.108931E2,5.2825928E1,1.3227441E0,5.292744E0,2.7930176E-1,-2.1099412E0,-3.5416327E0,-8.351452E0,-7.9896E-1,1.2369857E0],"categories":[],"categories_nodes":[],"categories_segments":[],"categories_sizes":[],"default_left":[0,0,0,0,0,0,0,0,0,0,0,0,0,0,0,0,0,0,0,0,0,0,0,0,0,0,0,0,0],"id":17,"left_children":[1,3,5,7,9,11,-1,13,-1,15,17,-1,-1,-1,-1,19,21,-1,23,25,27,-1,-1,-1,-1,-1,-1,-1,-1],"loss_changes":[1.3825332E9,1.3452854E8,3.462477E7,1.6226976E7,1.3662758E7,1.7068E6,0E0,1.114688E6,0E0,1.6094308E6,6.549286E6,0E0,0E0,0E0,0E0,9.711146E5,1.172675E4,0E0,4.5914023E4,1.0722775E5,4.750843E4,0E0,0E0,0E0,0E0,0E0,0E0,0E0,0E0],"parents":[2147483647,0,0,1,1,2,2,3,3,4,4,5,5,7,7,9,9,10,10,15,15,16,16,18,18,19,19,20,20],"right_children":[2,4,6,8,10,12,-1,14,-1,16,18,-1,-1,-1,-1,20,22,-1,24,26,28,-1,-1,-1,-1,-1,-1,-1,-1],"split_conditions":[1.41E0,3.79E0,1.6E0,3.36E0,6.58E0,4.61E0,8.712072E1,5E-1,-1.3003859E1,1E0,1E0,4.795303E1,1.2330049E1,-3.0546194E1,-2.2232958E1,1E0,9.1E-1,1.8723234E1,1.06E0,6.46E0,9.1E-1,1.3227441E0,5.292744E0,2.7930176E-1,-2.1099412E0,-3.5416327E0,-8.351452E0,-7.9896E-1,1.2369857E0],"split_indices":[0,5,0,5,4,5,0,0,0,9,18,0,0,0,0,12,0,0,0,3,0,0,0,0,0,0,0,0,0],"split_type":[0,0,0,0,0,0,0,0,0,0,0,0,0,0,0,0,0,0,0,0,0,0,0,0,0,0,0,0,0],"sum_hessian":[1E2,8.1E1,1.9E1,6.2E1,1.9E1,7E0,1.2E1,5E1,1.2E1,1.1E1,8E0,6E0,1E0,3E1,2E1,9E0,2E0,6E0,2E0,6E0,3E0,1E0,1E0,1E0,1E0,4E0,2E0,1E0,2E0],"tree_param":{"num_deleted":"0","num_feature":"23","num_nodes":"29","size_leaf_vector":"1"}},{"base_weights":[9.910166E0,-1.8084042E3,7.4645034E3,-2.512499E3,4.999143E2,4.5041416E3,8.712072E1,-2.7722043E3,-1.3003859E1,-2.2848755E2,1.4155708E3,4.795303E1,1.2330049E1,-3.0546194E1,-2.2232958E1,-4.064948E2,4.4103256E2,1.8723234E1,-1.2204264E2,-6.108931E2,5.2825928E1,1.3227441E0,5.292744E0,2.7930176E-1,-2.1099412E0,-3.5416327E0,-8.351452E0,-7.9896E-1,1.2369857E0],"categories":[],"categories_nodes":[],"categories_segments":[],"categories_sizes":[],"default_left":[0,0,0,0,0,0,0,0,0,0,0,0,0,0,0,0,0,0,0,0,0,0,0,0,0,0,0,0,0],"id":18,"left_children":[1,3,5,7,9,11,-1,13,-1,15,17,-1,-1,-1,-1,19,21,-1,23,25,27,-1,-1,-1,-1,-1,-1,-1,-1],"loss_changes":[1.3825332E9,1.3452854E8,3.462477E7,1.6226976E7,1.3662758E7,1.7068E6,0E0,1.114688E6,0E0,1.6094308E6,6.549286E6,0E0,0E0,0E0,0E0,9.711146E5,1.172675E4,0E0,4.5914023E4,1.0722775E5,4.750843E4,0E0,0E0,0E0,0E0,0E0,0E0,0E0,0E0],"parents":[2147483647,0,0,1,1,2,2,3,3,4,4,5,5,7,7,9,9,10,10,15,15,16,16,18,18,19,19,20,20],"right_children":[2,4,6,8,10,12,-1,14,-1,16,18,-1,-1,-1,-1,20,22,-1,24,26,28,-1,-1,-1,-1,-1,-1,-1,-1],"split_conditions":[1.41E0,3.79E0,1.6E0,3.36E0,6.58E0,4.61E0,8.712072E1,5E-1,-1.3003859E1,1E0,1E0,4.795303E1,1.2330049E1,-3.0546194E1,-2.2232958E1,1E0,9.1E-1,1.8723234E1,1.06E0,6.46E0,9.1E-1,1.3227441E0,5.292744E0,2.7930176E-1,-2.1099412E0,-3.5416327E0,-8.351452E0,-7.9896E-1,1.2369857E0],"split_indices":[0,5,0,5,4,5,0,0,0,9,18,0,0,0,0,12,0,0,0,3,0,0,0,0,0,0,0,0,0],"split_type":[0,0,0,0,0,0,0,0,0,0,0,0,0,0,0,0,0,0,0,0,0,0,0,0,0,0,0,0,0],"sum_hessian":[1E2,8.1E1,1.9E1,6.2E1,1.9E1,7E0,1.2E1,5E1,1.2E1,1.1E1,8E0,6E0,1E0,3E1,2E1,9E0,2E0,6E0,2E0,6E0,3E0,1E0,1E0,1E0,1E0,4E0,2E0,1E0,2E0],"tree_param":{"num_deleted":"0","num_feature":"23","num_nodes":"29","size_leaf_vector":"1"}},{"base_weights":[9.910166E0,-1.8084042E3,7.4645034E3,-2.512499E3,4.999143E2,4.5041416E3,8.712072E1,-2.7722043E3,-1.3003859E1,-2.2848755E2,1.4155708E3,4.795303E1,1.2330049E1,-3.0546194E1,-2.2232958E1,-4.064948E2,4.4103256E2,1.8723234E1,-1.2204264E2,-6.108931E2,5.2825928E1,1.3227441E0,5.292744E0,2.7930176E-1,-2.1099412E0,-3.5416327E0,-8.351452E0,-7.9896E-1,1.2369857E0],"categories":[],"categories_nodes":[],"categories_segments":[],"categories_sizes":[],"default_left":[0,0,0,0,0,0,0,0,0,0,0,0,0,0,0,0,0,0,0,0,0,0,0,0,0,0,0,0,0],"id":19,"left_children":[1,3,5,7,9,11,-1,13,-1,15,17,-1,-1,-1,-1,19,21,-1,23,25,27,-1,-1,-1,-1,-1,-1,-1,-1],"loss_changes":[1.3825332E9,1.3452854E8,3.462477E7,1.6226976E7,1.3662758E7,1.7068E6,0E0,1.114688E6,0E0,1.6094308E6,6.549286E6,0E0,0E0,0E0,0E0,9.711146E5,1.172675E4,0E0,4.5914023E4,1.0722775E5,4.750843E4,0E0,0E0,0E0,0E0,0E0,0E0,0E0,0E0],"parents":[2147483647,0,0,1,1,2,2,3,3,4,4,5,5,7,7,9,9,10,10,15,15,16,16,18,18,19,19,20,20],"right_children":[2,4,6,8,10,12,-1,14,-1,16,18,-1,-1,-1,-1,20,22,-1,24,26,28,-1,-1,-1,-1,-1,-1,-1,-1],"split_conditions":[1.41E0,3.79E0,1.6E0,3.36E0,6.58E0,4.61E0,8.712072E1,5E-1,-1.3003859E1,1E0,1E0,4.795303E1,1.2330049E1,-3.0546194E1,-2.2232958E1,1E0,9.1E-1,1.8723234E1,1.06E0,6.46E0,9.1E-1,1.3227441E0,5.292744E0,2.7930176E-1,-2.1099412E0,-3.5416327E0,-8.351452E0,-7.9896E-1,1.2369857E0],"split_indices":[0,5,0,5,4,5,0,0,0,9,18,0,0,0,0,12,0,0,0,3,0,0,0,0,0,0,0,0,0],"split_type":[0,0,0,0,0,0,0,0,0,0,0,0,0,0,0,0,0,0,0,0,0,0,0,0,0,0,0,0,0],"sum_hessian":[1E2,8.1E1,1.9E1,6.2E1,1.9E1,7E0,1.2E1,5E1,1.2E1,1.1E1,8E0,6E0,1E0,3E1,2E1,9E0,2E0,6E0,2E0,6E0,3E0,1E0,1E0,1E0,1E0,4E0,2E0,1E0,2E0],"tree_param":{"num_deleted":"0","num_feature":"23","num_nodes":"29","size_leaf_vector":"1"}},{"base_weights":[1.8193687E1,-1.6858848E3,6.5902017E3,-2.2716912E3,3.4525616E2,4.654302E3,8.6542564E1,-2.518808E3,-1.2268668E1,1.9008959E1,5.0422333E1,1.279561E1,4.8288998E1,-2.7723427E1,-2.0366724E1,-1.526522E2,1.0489877E1,-4.2978256E2,2.2546568E2,-5.194287E-1,-6.100452E0,4.5152667E-1,6.5367184E0],"categories":[],"categories_nodes":[],"categories_segments":[],"categories_sizes":[],"default_left":[0,0,0,0,0,0,0,0,0,0,0,0,0,0,0,0,0,0,0,0,0,0,0],"id":20,"left_children":[1,3,5,7,9,11,-1,13,-1,-1,15,-1,-1,-1,-1,17,-1,19,21,-1,-1,-1,-1],"loss_changes":[1.1422313E9,9.716256E7,4.3632384E7,1.3176E7,8.618602E6,1.481056E6,0E0,4.65536E5,0E0,0E0,3.6074445E6,0E0,0E0,0E0,0E0,1.6687202E6,0E0,5.813061E5,5.1096294E5,0E0,0E0,0E0,0E0],"parents":[2147483647,0,0,1,1,2,2,3,3,4,4,5,5,7,7,10,10,15,15,17,17,18,18],"right_children":[2,4,6,8,10,12,-1,14,-1,-1,16,-1,-1,-1,-1,18,-1,20,22,-1,-1,-1,-1],"split_conditions":[1.35E0,3.79E0,7.93E0,3.34E0,5.96E1,1.41E0,8.6542564E1,4.3E-1,-1.2268668E1,1.9008959E1,1E0,1.279561E1,4.8288998E1,-2.7723427E1,-2.0366724E1,4.03E0,1.0489877E1,6.23E0,1.23E0,-5.194287E-1,-6.100452E0,4.5152667E-1,6.5367184E0],"split_indices":[0,5,4,5,1,0,0,0,0,0,10,0,0,0,0,5,0,4,0,0,0,0,0],"split_type":[0,0,0,0,0,0,0,0,0,0,0,0,0,0,0,0,0,0,0,0,0,0,0],"sum_hessian":[1E2,8E1,2E1,6.2E1,1.8E1,1.2E1,8E0,4.9E1,1.3E1,2E0,1.6E1,1E0,1.1E1,2.9E1,2E1,1.4E1,2E0,8E0,6E0,3E0,5E0,5E0,1E0],"tree_param":{"num_deleted":"0","num_feature":"23","num_nodes":"23","size_leaf_vector":"1"}},{"base_weights":[1.8193687E1,-1.6858848E3,6.5902017E3,-2.2716912E3,3.4525616E2,4.654302E3,8.6542564E1,-2.518808E3,-1.2268668E1,1.9008959E1,5.0422333E1,1.279561E1,4.8288998E1,-2.7723427E1,-2.0366724E1,-1.526522E2,1.0489877E1,-4.2978256E2,2.2546568E2,-5.194287E-1,-6.100452E0,4.5152667E-1,6.5367184E0],"categories":[],"categories_nodes":[],"categories_segments":[],"categories_sizes":[],"default_left":[0,0,0,0,0,0,0,0,0,0,0,0,0,0,0,0,0,0,0,0,0,0,0],"id":21,"left_children":[1,3,5,7,9,11,-1,13,-1,-1,15,-1,-1,-1,-1,17,-1,19,21,-1,-1,-1,-1],"loss_changes":[1.1422313E9,9.716256E7,4.3632384E7,1.3176E7,8.618602E6,1.481056E6,0E0,4.65536E5,0E0,0E0,3.6074445E6,0E0,0E0,0E0,0E0,1.6687202E6,0E0,5.813061E5,5.1096294E5,0E0,0E0,0E0,0E0],"parents":[2147483647,0,0,1,1,2,2,3,3,4,4,5,5,7,7,10,10,15,15,17,17,18,18],"right_children":[2,4,6,8,10,12,-1,14,-1,-1,16,-1,-1,-1,-1,18,-1,20,22,-1,-1,-1,-1],"split_conditions":[1.35E0,3.79E0,7.93E0,3.34E0,5.96E1,1.41E0,8.6542564E1,4.3E-1,-1.2268668E1,1.9008959E1,1E0,1.279561E1,4.8288998E1,-2.7723427E1,-2.0366724E1,4.03E0,1.0489877E1,6.23E0,1.23E0,-5.194287E-1,-6.100452E0,4.5152667E-1,6.5367184E0],"split_indices":[0,5,4,5,1,0,0,0,0,0,10,0,0,0,0,5,0,4,0,0,0,0,0],"split_type":[0,0,0,0,0,0,0,0,0,0,0,0,0,0,0,0,0,0,0,0,0,0,0],"sum_hessian":[1E2,8E1,2E1,6.2E1,1.8E1,1.2E1,8E0,4.9E1,1.3E1,2E0,1.6E1,1E0,1.1E1,2.9E1,2E1,1.4E1,2E0,8E0,6E0,3E0,5E0,5E0,1E0],"tree_param":{"num_deleted":"0","num_feature":"23","num_nodes":"23","size_leaf_vector":"1"}},{"base_weights":[1.8193687E1,-1.6858848E3,6.5902017E3,-2.2716912E3,3.4525616E2,4.654302E3,8.6542564E1,-2.518808E3,-1.2268668E1,1.9008959E1,5.0422333E1,1.279561E1,4.8288998E1,-2.7723427E1,-2.0366724E1,-1.526522E2,1.0489877E1,-4.2978256E2,2.2546568E2,-5.194287E-1,-6.100452E0,4.5152667E-1,6.5367184E0],"categories":[],"categories_nodes":[],"categories_segments":[],"categories_sizes":[],"default_left":[0,0,0,0,0,0,0,0,0,0,0,0,0,0,0,0,0,0,0,0,0,0,0],"id":22,"left_children":[1,3,5,7,9,11,-1,13,-1,-1,15,-1,-1,-1,-1,17,-1,19,21,-1,-1,-1,-1],"loss_changes":[1.1422313E9,9.716256E7,4.3632384E7,1.3176E7,8.618602E6,1.481056E6,0E0,4.65536E5,0E0,0E0,3.6074445E6,0E0,0E0,0E0,0E0,1.6687202E6,0E0,5.813061E5,5.1096294E5,0E0,0E0,0E0,0E0],"parents":[2147483647,0,0,1,1,2,2,3,3,4,4,5,5,7,7,10,10,15,15,17,17,18,18],"right_children":[2,4,6,8,10,12,-1,14,-1,-1,16,-1,-1,-1,-1,18,-1,20,22,-1,-1,-1,-1],"split_conditions":[1.35E0,3.79E0,7.93E0,3.34E0,5.96E1,1.41E0,8.6542564E1,4.3E-1,-1.2268668E1,1.9008959E1,1E0,1.279561E1,4.8288998E1,-2.7723427E1,-2.0366724E1,4.03E0,1.0489877E1,6.23E0,1.23E0,-5.194287E-1,-6.100452E0,4.5152667E-1,6.5367184E0],"split_indices":[0,5,4,5,1,0,0,0,0,0,10,0,0,0,0,5,0,4,0,0,0,0,0],"split_type":[0,0,0,0,0,0,0,0,0,0,0,0,0,0,0,0,0,0,0,0,0,0,0],"sum_hessian":[1E2,8E1,2E1,6.2E1,1.8E1,1.2E1,8E0,4.9E1,1.3E1,2E0,1.6E1,1E0,1.1E1,2.9E1,2E1,1.4E1,2E0,8E0,6E0,3E0,5E0,5E0,1E0],"tree_param":{"num_deleted":"0","num_feature":"23","num_nodes":"23","size_leaf_vector":"1"}},{"base_weights":[1.8193687E1,-1.6858848E3,6.5902017E3,-2.2716912E3,3.4525616E2,4.654302E3,8.6542564E1,-2.518808E3,-1.2268668E1,1.9008959E1,5.0422333E1,1.279561E1,4.8288998E1,-2.7723427E1,-2.0366724E1,-1.526522E2,1.0489877E1,-4.2978256E2,2.2546568E2,-5.194287E-1,-6.100452E0,4.5152667E-1,6.5367184E0],"categories":[],"categories_nodes":[],"categories_segments":[],"categories_sizes":[],"default_left":[0,0,0,0,0,0,0,0,0,0,0,0,0,0,0,0,0,0,0,0,0,0,0],"id":23,"left_children":[1,3,5,7,9,11,-1,13,-1,-1,15,-1,-1,-1,-1,17,-1,19,21,-1,-1,-1,-1],"loss_changes":[1.1422313E9,9.716256E7,4.3632384E7,1.3176E7,8.618602E6,1.481056E6,0E0,4.65536E5,0E0,0E0,3.6074445E6,0E0,0E0,0E0,0E0,1.6687202E6,0E0,5.813061E5,5.1096294E5,0E0,0E0,0E0,0E0],"parents":[2147483647,0,0,1,1,2,2,3,3,4,4,5,5,7,7,10,10,15,15,17,17,18,18],"right_children":[2,4,6,8,10,12,-1,14,-1,-1,16,-1,-1,-1,-1,18,-1,20,22,-1,-1,-1,-1],"split_conditions":[1.35E0,3.79E0,7.93E0,3.34E0,5.96E1,1.41E0,8.6542564E1,4.3E-1,-1.2268668E1,1.9008959E1,1E0,1.279561E1,4.8288998E1,-2.7723427E1,-2.0366724E1,4.03E0,1.0489877E1,6.23E0,1.23E0,-5.194287E-1,-6.100452E0,4.5152667E-1,6.5367184E0],"split_indices":[0,5,4,5,1,0,0,0,0,0,10,0,0,0,0,5,0,4,0,0,0,0,0],"split_type":[0,0,0,0,0,0,0,0,0,0,0,0,0,0,0,0,0,0,0,0,0,0,0],"sum_hessian":[1E2,8E1,2E1,6.2E1,1.8E1,1.2E1,8E0,4.9E1,1.3E1,2E0,1.6E1,1E0,1.1E1,2.9E1,2E1,1.4E1,2E0,8E0,6E0,3E0,5E0,5E0,1E0],"tree_param":{"num_deleted":"0","num_feature":"23","num_nodes":"23","size_leaf_vector":"1"}},{"base_weights":[1.8193687E1,-1.6858848E3,6.5902017E3,-2.2716912E3,3.4525616E2,4.654302E3,8.6542564E1,-2.518808E3,-1.2268668E1,1.9008959E1,5.0422333E1,1.279561E1,4.8288998E1,-2.7723427E1,-2.0366724E1,-1.526522E2,1.0489877E1,-4.2978256E2,2.2546568E2,-5.194287E-1,-6.100452E0,4.5152667E-1,6.5367184E0],"categories":[],"categories_nodes":[],"categories_segments":[],"categories_sizes":[],"default_left":[0,0,0,0,0,0,0,0,0,0,0,0,0,0,0,0,0,0,0,0,0,0,0],"id":24,"left_children":[1,3,5,7,9,11,-1,13,-1,-1,15,-1,-1,-1,-1,17,-1,19,21,-1,-1,-1,-1],"loss_changes":[1.1422313E9,9.716256E7,4.3632384E7,1.3176E7,8.618602E6,1.481056E6,0E0,4.65536E5,0E0,0E0,3.6074445E6,0E0,0E0,0E0,0E0,1.6687202E6,0E0,5.813061E5,5.1096294E5,0E0,0E0,0E0,0E0],"parents":[2147483647,0,0,1,1,2,2,3,3,4,4,5,5,7,7,10,10,15,15,17,17,18,18],"right_children":[2,4,6,8,10,12,-1,14,-1,-1,16,-1,-1,-1,-1,18,-1,20,22,-1,-1,-1,-1],"split_conditions":[1.35E0,3.79E0,7.93E0,3.34E0,5.96E1,1.41E0,8.6542564E1,4.3E-1,-1.2268668E1,1.9008959E1,1E0,1.279561E1,4.8288998E1,-2.7723427E1,-2.0366724E1,4.03E0,1.0489877E1,6.23E0,1.23E0,-5.194287E-1,-6.100452E0,4.5152667E-1,6.5367184E0],"split_indices":[0,5,4,5,1,0,0,0,0,0,10,0,0,0,0,5,0,4,0,0,0,0,0],"split_type":[0,0,0,0,0,0,0,0,0,0,0,0,0,0,0,0,0,0,0,0,0,0,0],"sum_hessian":[1E2,8E1,2E1,6.2E1,1.8E1,1.2E1,8E0,4.9E1,1.3E1,2E0,1.6E1,1E0,1.1E1,2.9E1,2E1,1.4E1,2E0,8E0,6E0,3E0,5E0,5E0,1E0],"tree_param":{"num_deleted":"0","num_feature":"23","num_nodes":"23","size_leaf_vector":"1"}},{"base_weights":[1.8193687E1,-1.6858848E3,6.5902017E3,-2.2716912E3,3.4525616E2,4.654302E3,8.6542564E1,-2.518808E3,-1.2268668E1,1.9008959E1,5.0422333E1,1.279561E1,4.8288998E1,-2.7723427E1,-2.0366724E1,-1.526522E2,1.0489877E1,-4.2978256E2,2.2546568E2,-5.194287E-1,-6.100452E0,4.5152667E-1,6.5367184E0],"categories":[],"categories_nodes":[],"categories_segments":[],"categories_sizes":[],"default_left":[0,0,0,0,0,0,0,0,0,0,0,0,0,0,0,0,0,0,0,0,0,0,0],"id":25,"left_children":[1,3,5,7,9,11,-1,13,-1,-1,15,-1,-1,-1,-1,17,-1,19,21,-1,-1,-1,-1],"loss_changes":[1.1422313E9,9.716256E7,4.3632384E7,1.3176E7,8.618602E6,1.481056E6,0E0,4.65536E5,0E0,0E0,3.6074445E6,0E0,0E0,0E0,0E0,1.6687202E6,0E0,5.813061E5,5.1096294E5,0E0,0E0,0E0,0E0],"parents":[2147483647,0,0,1,1,2,2,3,3,4,4,5,5,7,7,10,10,15,15,17,17,18,18],"right_children":[2,4,6,8,10,12,-1,14,-1,-1,16,-1,-1,-1,-1,18,-1,20,22,-1,-1,-1,-1],"split_conditions":[1.35E0,3.79E0,7.93E0,3.34E0,5.96E1,1.41E0,8.6542564E1,4.3E-1,-1.2268668E1,1.9008959E1,1E0,1.279561E1,4.8288998E1,-2.7723427E1,-2.0366724E1,4.03E0,1.0489877E1,6.23E0,1.23E0,-5.194287E-1,-6.100452E0,4.5152667E-1,6.5367184E0],"split_indices":[0,5,4,5,1,0,0,0,0,0,10,0,0,0,0,5,0,4,0,0,0,0,0],"split_type":[0,0,0,0,0,0,0,0,0,0,0,0,0,0,0,0,0,0,0,0,0,0,0],"sum_hessian":[1E2,8E1,2E1,6.2E1,1.8E1,1.2E1,8E0,4.9E1,1.3E1,2E0,1.6E1,1E0,1.1E1,2.9E1,2E1,1.4E1,2E0,8E0,6E0,3E0,5E0,5E0,1E0],"tree_param":{"num_deleted":"0","num_feature":"23","num_nodes":"23","size_leaf_vector":"1"}},{"base_weights":[1.8193687E1,-1.6858848E3,6.5902017E3,-2.2716912E3,3.4525616E2,4.654302E3,8.6542564E1,-2.518808E3,-1.2268668E1,1.9008959E1,5.0422333E1,1.279561E1,4.8288998E1,-2.7723427E1,-2.0366724E1,-1.526522E2,1.0489877E1,-4.2978256E2,2.2546568E2,-5.194287E-1,-6.100452E0,4.5152667E-1,6.5367184E0],"categories":[],"categories_nodes":[],"categories_segments":[],"categories_sizes":[],"default_left":[0,0,0,0,0,0,0,0,0,0,0,0,0,0,0,0,0,0,0,0,0,0,0],"id":26,"left_children":[1,3,5,7,9,11,-1,13,-1,-1,15,-1,-1,-1,-1,17,-1,19,21,-1,-1,-1,-1],"loss_changes":[1.1422313E9,9.716256E7,4.3632384E7,1.3176E7,8.618602E6,1.481056E6,0E0,4.65536E5,0E0,0E0,3.6074445E6,0E0,0E0,0E0,0E0,1.6687202E6,0E0,5.813061E5,5.1096294E5,0E0,0E0,0E0,0E0],"parents":[2147483647,0,0,1,1,2,2,3,3,4,4,5,5,7,7,10,10,15,15,17,17,18,18],"right_children":[2,4,6,8,10,12,-1,14,-1,-1,16,-1,-1,-1,-1,18,-1,20,22,-1,-1,-1,-1],"split_conditions":[1.35E0,3.79E0,7.93E0,3.34E0,5.96E1,1.41E0,8.6542564E1,4.3E-1,-1.2268668E1,1.9008959E1,1E0,1.279561E1,4.8288998E1,-2.7723427E1,-2.0366724E1,4.03E0,1.0489877E1,6.23E0,1.23E0,-5.194287E-1,-6.100452E0,4.5152667E-1,6.5367184E0],"split_indices":[0,5,4,5,1,0,0,0,0,0,10,0,0,0,0,5,0,4,0,0,0,0,0],"split_type":[0,0,0,0,0,0,0,0,0,0,0,0,0,0,0,0,0,0,0,0,0,0,0],"sum_hessian":[1E2,8E1,2E1,6.2E1,1.8E1,1.2E1,8E0,4.9E1,1.3E1,2E0,1.6E1,1E0,1.1E1,2.9E1,2E1,1.4E1,2E0,8E0,6E0,3E0,5E0,5E0,1E0],"tree_param":{"num_deleted":"0","num_feature":"23","num_nodes":"23","size_leaf_vector":"1"}},{"base_weights":[1.8193687E1,-1.6858848E3,6.5902017E3,-2.2716912E3,3.4525616E2,4.654302E3,8.6542564E1,-2.518808E3,-1.2268668E1,1.9008959E1,5.0422333E1,1.279561E1,4.8288998E1,-2.7723427E1,-2.0366724E1,-1.526522E2,1.0489877E1,-4.2978256E2,2.2546568E2,-5.194287E-1,-6.100452E0,4.5152667E-1,6.5367184E0],"categories":[],"categories_nodes":[],"categories_segments":[],"categories_sizes":[],"default_left":[0,0,0,0,0,0,0,0,0,0,0,0,0,0,0,0,0,0,0,0,0,0,0],"id":27,"left_children":[1,3,5,7,9,11,-1,13,-1,-1,15,-1,-1,-1,-1,17,-1,19,21,-1,-1,-1,-1],"loss_changes":[1.1422313E9,9.716256E7,4.3632384E7,1.3176E7,8.618602E6,1.481056E6,0E0,4.65536E5,0E0,0E0,3.6074445E6,0E0,0E0,0E0,0E0,1.6687202E6,0E0,5.813061E5,5.1096294E5,0E0,0E0,0E0,0E0],"parents":[2147483647,0,0,1,1,2,2,3,3,4,4,5,5,7,7,10,10,15,15,17,17,18,18],"right_children":[2,4,6,8,10,12,-1,14,-1,-1,16,-1,-1,-1,-1,18,-1,20,22,-1,-1,-1,-1],"split_conditions":[1.35E0,3.79E0,7.93E0,3.34E0,5.96E1,1.41E0,8.6542564E1,4.3E-1,-1.2268668E1,1.9008959E1,1E0,1.279561E1,4.8288998E1,-2.7723427E1,-2.0366724E1,4.03E0,1.0489877E1,6.23E0,1.23E0,-5.194287E-1,-6.100452E0,4.5152667E-1,6.5367184E0],"split_indices":[0,5,4,5,1,0,0,0,0,0,10,0,0,0,0,5,0,4,0,0,0,0,0],"split_type":[0,0,0,0,0,0,0,0,0,0,0,0,0,0,0,0,0,0,0,0,0,0,0],"sum_hessian":[1E2,8E1,2E1,6.2E1,1.8E1,1.2E1,8E0,4.9E1,1.3E1,2E0,1.6E1,1E0,1.1E1,2.9E1,2E1,1.4E1,2E0,8E0,6E0,3E0,5E0,5E0,1E0],"tree_param":{"num_deleted":"0","num_feature":"23","num_nodes":"23","size_leaf_vector":"1"}},{"base_weights":[1.8193687E1,-1.6858848E3,6.5902017E3,-2.2716912E3,3.4525616E2,4.654302E3,8.6542564E1,-2.518808E3,-1.2268668E1,1.9008959E1,5.0422333E1,1.279561E1,4.8288998E1,-2.7723427E1,-2.0366724E1,-1.526522E2,1.0489877E1,-4.2978256E2,2.2546568E2,-5.194287E-1,-6.100452E0,4.5152667E-1,6.5367184E0],"categories":[],"categories_nodes":[],"categories_segments":[],"categories_sizes":[],"default_left":[0,0,0,0,0,0,0,0,0,0,0,0,0,0,0,0,0,0,0,0,0,0,0],"id":28,"left_children":[1,3,5,7,9,11,-1,13,-1,-1,15,-1,-1,-1,-1,17,-1,19,21,-1,-1,-1,-1],"loss_changes":[1.1422313E9,9.716256E7,4.3632384E7,1.3176E7,8.618602E6,1.481056E6,0E0,4.65536E5,0E0,0E0,3.6074445E6,0E0,0E0,0E0,0E0,1.6687202E6,0E0,5.813061E5,5.1096294E5,0E0,0E0,0E0,0E0],"parents":[2147483647,0,0,1,1,2,2,3,3,4,4,5,5,7,7,10,10,15,15,17,17,18,18],"right_children":[2,4,6,8,10,12,-1,14,-1,-1,16,-1,-1,-1,-1,18,-1,20,22,-1,-1,-1,-1],"split_conditions":[1.35E0,3.79E0,7.93E0,3.34E0,5.96E1,1.41E0,8.6542564E1,4.3E-1,-1.2268668E1,1.9008959E1,1E0,1.279561E1,4.8288998E1,-2.7723427E1,-2.0366724E1,4.03E0,1.0489877E1,6.23E0,1.23E0,-5.194287E-1,-6.100452E0,4.5152667E-1,6.5367184E0],"split_indices":[0,5,4,5,1,0,0,0,0,0,10,0,0,0,0,5,0,4,0,0,0,0,0],"split_type":[0,0,0,0,0,0,0,0,0,0,0,0,0,0,0,0,0,0,0,0,0,0,0],"sum_hessian":[1E2,8E1,2E1,6.2E1,1.8E1,1.2E1,8E0,4.9E1,1.3E1,2E0,1.6E1,1E0,1.1E1,2.9E1,2E1,1.4E1,2E0,8E0,6E0,3E0,5E0,5E0,1E0],"tree_param":{"num_deleted":"0","num_feature":"23","num_nodes":"23","size_leaf_vector":"1"}},{"base_weights":[1.8193687E1,-1.6858848E3,6.5902017E3,-2.2716912E3,3.4525616E2,4.654302E3,8.6542564E1,-2.518808E3,-1.2268668E1,1.9008959E1,5.0422333E1,1.279561E1,4.8288998E1,-2.7723427E1,-2.0366724E1,-1.526522E2,1.0489877E1,-4.2978256E2,2.2546568E2,-5.194287E-1,-6.100452E0,4.5152667E-1,6.5367184E0],"categories":[],"categories_nodes":[],"categories_segments":[],"categories_sizes":[],"default_left":[0,0,0,0,0,0,0,0,0,0,0,0,0,0,0,0,0,0,0,0,0,0,0],"id":29,"left_children":[1,3,5,7,9,11,-1,13,-1,-1,15,-1,-1,-1,-1,17,-1,19,21,-1,-1,-1,-1],"loss_changes":[1.1422313E9,9.716256E7,4.3632384E7,1.3176E7,8.618602E6,1.481056E6,0E0,4.65536E5,0E0,0E0,3.6074445E6,0E0,0E0,0E0,0E0,1.6687202E6,0E0,5.813061E5,5.1096294E5,0E0,0E0,0E0,0E0],"parents":[2147483647,0,0,1,1,2,2,3,3,4,4,5,5,7,7,10,10,15,15,17,17,18,18],"right_children":[2,4,6,8,10,12,-1,14,-1,-1,16,-1,-1,-1,-1,18,-1,20,22,-1,-1,-1,-1],"split_conditions":[1.35E0,3.79E0,7.93E0,3.34E0,5.96E1,1.41E0,8.6542564E1,4.3E-1,-1.2268668E1,1.9008959E1,1E0,1.279561E1,4.8288998E1,-2.7723427E1,-2.0366724E1,4.03E0,1.0489877E1,6.23E0,1.23E0,-5.194287E-1,-6.100452E0,4.5152667E-1,6.5367184E0],"split_indices":[0,5,4,5,1,0,0,0,0,0,10,0,0,0,0,5,0,4,0,0,0,0,0],"split_type":[0,0,0,0,0,0,0,0,0,0,0,0,0,0,0,0,0,0,0,0,0,0,0],"sum_hessian":[1E2,8E1,2E1,6.2E1,1.8E1,1.2E1,8E0,4.9E1,1.3E1,2E0,1.6E1,1E0,1.1E1,2.9E1,2E1,1.4E1,2E0,8E0,6E0,3E0,5E0,5E0,1E0],"tree_param":{"num_deleted":"0","num_feature":"23","num_nodes":"23","size_leaf_vector":"1"}},{"base_weights":[2.797169E1,-1.521061E3,6.00148E3,-2.0541033E3,3.2645053E2,3.5648418E3,7.226731E1,-2.2654153E3,-1.0671016E1,-1.9244853E2,1.0639928E3,3.7779697E1,9.299091E0,-2.4831703E1,-1.8037365E1,-3.4666205E2,3.8574607E0,1.4781329E3,-1.1895182E2,-5.224769E2,4.7679443E1,1.7201872E1,1.3393115E0,2.4275391E-1,-2.0270312E0,-2.8818865E0,-7.3879833E0,-7.33042E-1,1.1244205E0],"categories":[],"categories_nodes":[],"categories_segments":[],"categories_sizes":[],"default_left":[0,0,0,0,0,0,0,0,0,0,0,0,0,0,0,0,0,0,0,0,0,0,0,0,0,0,0,0,0],"id":30,"left_children":[1,3,5,7,9,11,-1,13,-1,15,17,-1,-1,-1,-1,19,-1,21,23,25,27,-1,-1,-1,-1,-1,-1,-1,-1],"loss_changes":[9.436978E8,8.043949E7,3.693325E7,1.0722224E7,7.476253E6,1.541032E6,0E0,6.48176E5,0E0,1.2037086E6,4.095067E6,0E0,0E0,0E0,0E0,7.182225E5,0E0,1.721831E6,4.0907094E4,1.4185762E5,3.9583344E4,0E0,0E0,0E0,0E0,0E0,0E0,0E0,0E0],"parents":[2147483647,0,0,1,1,2,2,3,3,4,4,5,5,7,7,9,9,10,10,15,15,17,17,18,18,19,19,20,20],"right_children":[2,4,6,8,10,12,-1,14,-1,16,18,-1,-1,-1,-1,20,-1,22,24,26,28,-1,-1,-1,-1,-1,-1,-1,-1],"split_conditions":[1.35E0,3.79E0,1.6E0,3.36E0,6.58E0,4.61E0,7.226731E1,3.14E0,-1.0671016E1,1E0,1E0,3.7779697E1,9.299091E0,-2.4831703E1,-1.8037365E1,1E0,3.8574607E0,1E0,1.06E0,6.46E0,9.1E-1,1.7201872E1,1.3393115E0,2.4275391E-1,-2.0270312E0,-2.8818865E0,-7.3879833E0,-7.33042E-1,1.1244205E0],"split_indices":[0,5,0,5,4,5,0,5,0,9,18,0,0,0,0,12,0,13,0,3,0,0,0,0,0,0,0,0,0],"split_type":[0,0,0,0,0,0,0,0,0,0,0,0,0,0,0,0,0,0,0,0,0,0,0,0,0,0,0,0,0],"sum_hessian":[1E2,8E1,2E1,6.2E1,1.8E1,8E0,1.2E1,5E1,1.2E1,1.1E1,7E0,7E0,1E0,3.1E1,1.9E1,9E0,2E0,5E0,2E0,6E0,3E0,4E0,1E0,1E0,1E0,4E0,2E0,1E0,2E0],"tree_param":{"num_deleted":"0","num_feature":"23","num_nodes":"29","size_leaf_vector":"1"}},{"base_weights":[2.797169E1,-1.521061E3,6.00148E3,-2.0541033E3,3.2645053E2,3.5648418E3,7.226731E1,-2.2654153E3,-1.0671016E1,-1.9244853E2,1.0639928E3,3.7779697E1,9.299091E0,-2.4831703E1,-1.8037365E1,-3.4666205E2,3.8574607E0,1.4781329E3,-1.1895182E2,-5.224769E2,4.7679443E1,1.7201872E1,1.3393115E0,2.4275391E-1,-2.0270312E0,-2.8818865E0,-7.3879833E0,-7.33042E-1,1.1244205E0],"categories":[],"categories_nodes":[],"categories_segments":[],"categories_sizes":[],"default_left":[0,0,0,0,0,0,0,0,0,0,0,0,0,0,0,0,0,0,0,0,0,0,0,0,0,0,0,0,0],"id":31,"left_children":[1,3,5,7,9,11,-1,13,-1,15,17,-1,-1,-1,-1,19,-1,21,23,25,27,-1,-1,-1,-1,-1,-1,-1,-1],"loss_changes":[9.436978E8,8.043949E7,3.693325E7,1.0722224E7,7.476253E6,1.541032E6,0E0,6.48176E5,0E0,1.2037086E6,4.095067E6,0E0,0E0,0E0,0E0,7.182225E5,0E0,1.721831E6,4.0907094E4,1.4185762E5,3.9583344E4,0E0,0E0,0E0,0E0,0E0,0E0,0E0,0E0],"parents":[2147483647,0,0,1,1,2,2,3,3,4,4,5,5,7,7,9,9,10,10,15,15,17,17,18,18,19,19,20,20],"right_children":[2,4,6,8,10,12,-1,14,-1,16,18,-1,-1,-1,-1,20,-1,22,24,26,28,-1,-1,-1,-1,-1,-1,-1,-1],"split_conditions":[1.35E0,3.79E0,1.6E0,3.36E0,6.58E0,4.61E0,7.226731E1,3.14E0,-1.0671016E1,1E0,1E0,3.7779697E1,9.299091E0,-2.4831703E1,-1.8037365E1,1E0,3.8574607E0,1E0,1.06E0,6.46E0,9.1E-1,1.7201872E1,1.3393115E0,2.4275391E-1,-2.0270312E0,-2.8818865E0,-7.3879833E0,-7.33042E-1,1.1244205E0],"split_indices":[0,5,0,5,4,5,0,5,0,9,18,0,0,0,0,12,0,13,0,3,0,0,0,0,0,0,0,0,0],"split_type":[0,0,0,0,0,0,0,0,0,0,0,0,0,0,0,0,0,0,0,0,0,0,0,0,0,0,0,0,0],"sum_hessian":[1E2,8E1,2E1,6.2E1,1.8E1,8E0,1.2E1,5E1,1.2E1,1.1E1,7E0,7E0,1E0,3.1E1,1.9E1,9E0,2E0,5E0,2E0,6E0,3E0,4E0,1E0,1E0,1E0,4E0,2E0,1E0,2E0],"tree_param":{"num_deleted":"0","num_feature":"23","num_nodes":"29","size_leaf_vector":"1"}},{"base_weights":[2.797169E1,-1.521061E3,6.00148E3,-2.0541033E3,3.2645053E2,3.5648418E3,7.226731E1,-2.2654153E3,-1.0671016E1,-1.9244853E2,1.0639928E3,3.7779697E1,9.299091E0,-2.4831703E1,-1.8037365E1,-3.4666205E2,3.8574607E0,1.4781329E3,-1.1895182E2,-5.224769E2,4.7679443E1,1.7201872E1,1.3393115E0,2.4275391E-1,-2.0270312E0,-2.8818865E0,-7.3879833E0,-7.33042E-1,1.1244205E0],"categories":[],"categories_nodes":[],"categories_segments":[],"categories_sizes":[],"default_left":[0,0,0,0,0,0,0,0,0,0,0,0,0,0,0,0,0,0,0,0,0,0,0,0,0,0,0,0,0],"id":32,"left_children":[1,3,5,7,9,11,-1,13,-1,15,17,-1,-1,-1,-1,19,-1,21,23,25,27,-1,-1,-1,-1,-1,-1,-1,-1],"loss_changes":[9.436978E8,8.043949E7,3.693325E7,1.0722224E7,7.476253E6,1.541032E6,0E0,6.48176E5,0E0,1.2037086E6,4.095067E6,0E0,0E0,0E0,0E0,7.182225E5,0E0,1.721831E6,4.0907094E4,1.4185762E5,3.9583344E4,0E0,0E0,0E0,0E0,0E0,0E0,0E0,0E0],"parents":[2147483647,0,0,1,1,2,2,3,3,4,4,5,5,7,7,9,9,10,10,15,15,17,17,18,18,19,19,20,20],"right_children":[2,4,6,8,10,12,-1,14,-1,16,18,-1,-1,-1,-1,20,-1,22,24,26,28,-1,-1,-1,-1,-1,-1,-1,-1],"split_conditions":[1.35E0,3.79E0,1.6E0,3.36E0,6.58E0,4.61E0,7.226731E1,3.14E0,-1.0671016E1,1E0,1E0,3.7779697E1,9.299091E0,-2.4831703E1,-1.8037365E1,1E0,3.8574607E0,1E0,1.06E0,6.46E0,9.1E-1,1.7201872E1,1.3393115E0,2.4275391E-1,-2.0270312E0,-2.8818865E0,-7.3879833E0,-7.33042E-1,1.1244205E0],"split_indices":[0,5,0,5,4,5,0,5,0,9,18,0,0,0,0,12,0,13,0,3,0,0,0,0,0,0,0,0,0],"split_type":[0,0,0,0,0,0,0,0,0,0,0,0,0,0,0,0,0,0,0,0,0,0,0,0,0,0,0,0,0],"sum_hessian":[1E2,8E1,2E1,6.2E1,1.8E1,8E0,1.2E1,5E1,1.2E1,1.1E1,7E0,7E0,1E0,3.1E1,1.9E1,9E0,2E0,5E0,2E0,6E0,3E0,4E0,1E0,1E0,1E0,4E0,2E0,1E0,2E0],"tree_param":{"num_deleted":"0","num_feature":"23","num_nodes":"29","size_leaf_vector":"1"}},{"base_weights":[2.797169E1,-1.521061E3,6.00148E3,-2.0541033E3,3.2645053E2,3.5648418E3,7.226731E1,-2.2654153E3,-1.0671016E1,-1.9244853E2,1.0639928E3,3.7779697E1,9.299091E0,-2.4831703E1,-1.8037365E1,-3.4666205E2,3.8574607E0,1.4781329E3,-1.1895182E2,-5.224769E2,4.7679443E1,1.7201872E1,1.3393115E0,2.4275391E-1,-2.0270312E0,-2.8818865E0,-7.3879833E0,-7.33042E-1,1.1244205E0],"categories":[],"categories_nodes":[],"categories_segments":[],"categories_sizes":[],"default_left":[0,0,0,0,0,0,0,0,0,0,0,0,0,0,0,0,0,0,0,0,0,0,0,0,0,0,0,0,0],"id":33,"left_children":[1,3,5,7,9,11,-1,13,-1,15,17,-1,-1,-1,-1,19,-1,21,23,25,27,-1,-1,-1,-1,-1,-1,-1,-1],"loss_changes":[9.436978E8,8.043949E7,3.693325E7,1.0722224E7,7.476253E6,1.541032E6,0E0,6.48176E5,0E0,1.2037086E6,4.095067E6,0E0,0E0,0E0,0E0,7.182225E5,0E0,1.721831E6,4.0907094E4,1.4185762E5,3.9583344E4,0E0,0E0,0E0,0E0,0E0,0E0,0E0,0E0],"parents":[2147483647,0,0,1,1,2,2,3,3,4,4,5,5,7,7,9,9,10,10,15,15,17,17,18,18,19,19,20,20],"right_children":[2,4,6,8,10,12,-1,14,-1,16,18,-1,-1,-1,-1,20,-1,22,24,26,28,-1,-1,-1,-1,-1,-1,-1,-1],"split_conditions":[1.35E0,3.79E0,1.6E0,3.36E0,6.58E0,4.61E0,7.226731E1,3.14E0,-1.0671016E1,1E0,1E0,3.7779697E1,9.299091E0,-2.4831703E1,-1.8037365E1,1E0,3.8574607E0,1E0,1.06E0,6.46E0,9.1E-1,1.7201872E1,1.3393115E0,2.4275391E-1,-2.0270312E0,-2.8818865E0,-7.3879833E0,-7.33042E-1,1.1244205E0],"split_indices":[0,5,0,5,4,5,0,5,0,9,18,0,0,0,0,12,0,13,0,3,0,0,0,0,0,0,0,0,0],"split_type":[0,0,0,0,0,0,0,0,0,0,0,0,0,0,0,0,0,0,0,0,0,0,0,0,0,0,0,0,0],"sum_hessian":[1E2,8E1,2E1,6.2E1,1.8E1,8E0,1.2E1,5E1,1.2E1,1.1E1,7E0,7E0,1E0,3.1E1,1.9E1,9E0,2E0,5E0,2E0,6E0,3E0,4E0,1E0,1E0,1E0,4E0,2E0,1E0,2E0],"tree_param":{"num_deleted":"0","num_feature":"23","num_nodes":"29","size_leaf_vector":"1"}},{"base_weights":[2.797169E1,-1.521061E3,6.00148E3,-2.0541033E3,3.2645053E2,3.5648418E3,7.226731E1,-2.2654153E3,-1.0671016E1,-1.9244853E2,1.0639928E3,3.7779697E1,9.299091E0,-2.4831703E1,-1.8037365E1,-3.4666205E2,3.8574607E0,1.4781329E3,-1.1895182E2,-5.224769E2,4.7679443E1,1.7201872E1,1.3393115E0,2.4275391E-1,-2.0270312E0,-2.8818865E0,-7.3879833E0,-7.33042E-1,1.1244205E0],"categories":[],"categories_nodes":[],"categories_segments":[],"categories_sizes":[],"default_left":[0,0,0,0,0,0,0,0,0,0,0,0,0,0,0,0,0,0,0,0,0,0,0,0,0,0,0,0,0],"id":34,"left_children":[1,3,5,7,9,11,-1,13,-1,15,17,-1,-1,-1,-1,19,-1,21,23,25,27,-1,-1,-1,-1,-1,-1,-1,-1],"loss_changes":[9.436978E8,8.043949E7,3.693325E7,1.0722224E7,7.476253E6,1.541032E6,0E0,6.48176E5,0E0,1.2037086E6,4.095067E6,0E0,0E0,0E0,0E0,7.182225E5,0E0,1.721831E6,4.0907094E4,1.4185762E5,3.9583344E4,0E0,0E0,0E0,0E0,0E0,0E0,0E0,0E0],"parents":[2147483647,0,0,1,1,2,2,3,3,4,4,5,5,7,7,9,9,10,10,15,15,17,17,18,18,19,19,20,20],"right_children":[2,4,6,8,10,12,-1,14,-1,16,18,-1,-1,-1,-1,20,-1,22,24,26,28,-1,-1,-1,-1,-1,-1,-1,-1],"split_conditions":[1.35E0,3.79E0,1.6E0,3.36E0,6.58E0,4.61E0,7.226731E1,3.14E0,-1.0671016E1,1E0,1E0,3.7779697E1,9.299091E0,-2.4831703E1,-1.8037365E1,1E0,3.8574607E0,1E0,1.06E0,6.46E0,9.1E-1,1.7201872E1,1.3393115E0,2.4275391E-1,-2.0270312E0,-2.8818865E0,-7.3879833E0,-7.33042E-1,1.1244205E0],"split_indices":[0,5,0,5,4,5,0,5,0,9,18,0,0,0,0,12,0,13,0,3,0,0,0,0,0,0,0,0,0],"split_type":[0,0,0,0,0,0,0,0,0,0,0,0,0,0,0,0,0,0,0,0,0,0,0,0,0,0,0,0,0],"sum_hessian":[1E2,8E1,2E1,6.2E1,1.8E1,8E0,1.2E1,5E1,1.2E1,1.1E1,7E0,7E0,1E0,3.1E1,1.9E1,9E0,2E0,5E0,2E0,6E0,3E0,4E0,1E0,1E0,1E0,4E0,2E0,1E0,2E0],"tree_param":{"num_deleted":"0","num_feature":"23","num_nodes":"29","size_leaf_vector":"1"}},{"base_weights":[2.797169E1,-1.521061E3,6.00148E3,-2.0541033E3,3.2645053E2,3.5648418E3,7.226731E1,-2.2654153E3,-1.0671016E1,-1.9244853E2,1.0639928E3,3.7779697E1,9.299091E0,-2.4831703E1,-1.8037365E1,-3.4666205E2,3.8574607E0,1.4781329E3,-1.1895182E2,-5.224769E2,4.7679443E1,1.7201872E1,1.3393115E0,2.4275391E-1,-2.0270312E0,-2.8818865E0,-7.3879833E0,-7.33042E-1,1.1244205E0],"categories":[],"categories_nodes":[],"categories_segments":[],"categories_sizes":[],"default_left":[0,0,0,0,0,0,0,0,0,0,0,0,0,0,0,0,0,0,0,0,0,0,0,0,0,0,0,0,0],"id":35,"left_children":[1,3,5,7,9,11,-1,13,-1,15,17,-1,-1,-1,-1,19,-1,21,23,25,27,-1,-1,-1,-1,-1,-1,-1,-1],"loss_changes":[9.436978E8,8.043949E7,3.693325E7,1.0722224E7,7.476253E6,1.541032E6,0E0,6.48176E5,0E0,1.2037086E6,4.095067E6,0E0,0E0,0E0,0E0,7.182225E5,0E0,1.721831E6,4.0907094E4,1.4185762E5,3.9583344E4,0E0,0E0,0E0,0E0,0E0,0E0,0E0,0E0],"parents":[2147483647,0,0,1,1,2,2,3,3,4,4,5,5,7,7,9,9,10,10,15,15,17,17,18,18,19,19,20,20],"right_children":[2,4,6,8,10,12,-1,14,-1,16,18,-1,-1,-1,-1,20,-1,22,24,26,28,-1,-1,-1,-1,-1,-1,-1,-1],"split_conditions":[1.35E0,3.79E0,1.6E0,3.36E0,6.58E0,4.61E0,7.226731E1,3.14E0,-1.0671016E1,1E0,1E0,3.7779697E1,9.299091E0,-2.4831703E1,-1.8037365E1,1E0,3.8574607E0,1E0,1.06E0,6.46E0,9.1E-1,1.7201872E1,1.3393115E0,2.4275391E-1,-2.0270312E0,-2.8818865E0,-7.3879833E0,-7.33042E-1,1.1244205E0],"split_indices":[0,5,0,5,4,5,0,5,0,9,18,0,0,0,0,12,0,13,0,3,0,0,0,0,0,0,0,0,0],"split_type":[0,0,0,0,0,0,0,0,0,0,0,0,0,0,0,0,0,0,0,0,0,0,0,0,0,0,0,0,0],"sum_hessian":[1E2,8E1,2E1,6.2E1,1.8E1,8E0,1.2E1,5E1,1.2E1,1.1E1,7E0,7E0,1E0,3.1E1,1.9E1,9E0,2E0,5E0,2E0,6E0,3E0,4E0,1E0,1E0,1E0,4E0,2E0,1E0,2E0],"tree_param":{"num_deleted":"0","num_feature":"23","num_nodes":"29","size_leaf_vector":"1"}},{"base_weights":[2.797169E1,-1.521061E3,6.00148E3,-2.0541033E3,3.2645053E2,3.5648418E3,7.226731E1,-2.2654153E3,-1.0671016E1,-1.9244853E2,1.0639928E3,3.7779697E1,9.299091E0,-2.4831703E1,-1.8037365E1,-3.4666205E2,3.8574607E0,1.4781329E3,-1.1895182E2,-5.224769E2,4.7679443E1,1.7201872E1,1.3393115E0,2.4275391E-1,-2.0270312E0,-2.8818865E0,-7.3879833E0,-7.33042E-1,1.1244205E0],"categories":[],"categories_nodes":[],"categories_segments":[],"categories_sizes":[],"default_left":[0,0,0,0,0,0,0,0,0,0,0,0,0,0,0,0,0,0,0,0,0,0,0,0,0,0,0,0,0],"id":36,"left_children":[1,3,5,7,9,11,-1,13,-1,15,17,-1,-1,-1,-1,19,-1,21,23,25,27,-1,-1,-1,-1,-1,-1,-1,-1],"loss_changes":[9.436978E8,8.043949E7,3.693325E7,1.0722224E7,7.476253E6,1.541032E6,0E0,6.48176E5,0E0,1.2037086E6,4.095067E6,0E0,0E0,0E0,0E0,7.182225E5,0E0,1.721831E6,4.0907094E4,1.4185762E5,3.9583344E4,0E0,0E0,0E0,0E0,0E0,0E0,0E0,0E0],"parents":[2147483647,0,0,1,1,2,2,3,3,4,4,5,5,7,7,9,9,10,10,15,15,17,17,18,18,19,19,20,20],"right_children":[2,4,6,8,10,12,-1,14,-1,16,18,-1,-1,-1,-1,20,-1,22,24,26,28,-1,-1,-1,-1,-1,-1,-1,-1],"split_conditions":[1.35E0,3.79E0,1.6E0,3.36E0,6.58E0,4.61E0,7.226731E1,3.14E0,-1.0671016E1,1E0,1E0,3.7779697E1,9.299091E0,-2.4831703E1,-1.8037365E1,1E0,3.8574607E0,1E0,1.06E0,6.46E0,9.1E-1,1.7201872E1,1.3393115E0,2.4275391E-1,-2.0270312E0,-2.8818865E0,-7.3879833E0,-7.33042E-1,1.1244205E0],"split_indices":[0,5,0,5,4,5,0,5,0,9,18,0,0,0,0,12,0,13,0,3,0,0,0,0,0,0,0,0,0],"split_type":[0,0,0,0,0,0,0,0,0,0,0,0,0,0,0,0,0,0,0,0,0,0,0,0,0,0,0,0,0],"sum_hessian":[1E2,8E1,2E1,6.2E1,1.8E1,8E0,1.2E1,5E1,1.2E1,1.1E1,7E0,7E0,1E0,3.1E1,1.9E1,9E0,2E0,5E0,2E0,6E0,3E0,4E0,1E0,1E0,1E0,4E0,2E0,1E0,2E0],"tree_param":{"num_deleted":"0","num_feature":"23","num_nodes":"29","size_leaf_vector":"1"}},{"base_weights":[2.797169E1,-1.521061E3,6.00148E3,-2.0541033E3,3.2645053E2,3.5648418E3,7.226731E1,-2.2654153E3,-1.0671016E1,-1.9244853E2,1.0639928E3,3.7779697E1,9.299091E0,-2.4831703E1,-1.8037365E1,-3.4666205E2,3.8574607E0,1.4781329E3,-1.1895182E2,-5.224769E2,4.7679443E1,1.7201872E1,1.3393115E0,2.4275391E-1,-2.0270312E0,-2.8818865E0,-7.3879833E0,-7.33042E-1,1.1244205E0],"categories":[],"categories_nodes":[],"categories_segments":[],"categories_sizes":[],"default_left":[0,0,0,0,0,0,0,0,0,0,0,0,0,0,0,0,0,0,0,0,0,0,0,0,0,0,0,0,0],"id":37,"left_children":[1,3,5,7,9,11,-1,13,-1,15,17,-1,-1,-1,-1,19,-1,21,23,25,27,-1,-1,-1,-1,-1,-1,-1,-1],"loss_changes":[9.436978E8,8.043949E7,3.693325E7,1.0722224E7,7.476253E6,1.541032E6,0E0,6.48176E5,0E0,1.2037086E6,4.095067E6,0E0,0E0,0E0,0E0,7.182225E5,0E0,1.721831E6,4.0907094E4,1.4185762E5,3.9583344E4,0E0,0E0,0E0,0E0,0E0,0E0,0E0,0E0],"parents":[2147483647,0,0,1,1,2,2,3,3,4,4,5,5,7,7,9,9,10,10,15,15,17,17,18,18,19,19,20,20],"right_children":[2,4,6,8,10,12,-1,14,-1,16,18,-1,-1,-1,-1,20,-1,22,24,26,28,-1,-1,-1,-1,-1,-1,-1,-1],"split_conditions":[1.35E0,3.79E0,1.6E0,3.36E0,6.58E0,4.61E0,7.226731E1,3.14E0,-1.0671016E1,1E0,1E0,3.7779697E1,9.299091E0,-2.4831703E1,-1.8037365E1,1E0,3.8574607E0,1E0,1.06E0,6.46E0,9.1E-1,1.7201872E1,1.3393115E0,2.4275391E-1,-2.0270312E0,-2.8818865E0,-7.3879833E0,-7.33042E-1,1.1244205E0],"split_indices":[0,5,0,5,4,5,0,5,0,9,18,0,0,0,0,12,0,13,0,3,0,0,0,0,0,0,0,0,0],"split_type":[0,0,0,0,0,0,0,0,0,0,0,0,0,0,0,0,0,0,0,0,0,0,0,0,0,0,0,0,0],"sum_hessian":[1E2,8E1,2E1,6.2E1,1.8E1,8E0,1.2E1,5E1,1.2E1,1.1E1,7E0,7E0,1E0,3.1E1,1.9E1,9E0,2E0,5E0,2E0,6E0,3E0,4E0,1E0,1E0,1E0,4E0,2E0,1E0,2E0],"tree_param":{"num_deleted":"0","num_feature":"23","num_nodes":"29","size_leaf_vector":"1"}},{"base_weights":[2.797169E1,-1.521061E3,6.00148E3,-2.0541033E3,3.2645053E2,3.5648418E3,7.226731E1,-2.2654153E3,-1.0671016E1,-1.9244853E2,1.0639928E3,3.7779697E1,9.299091E0,-2.4831703E1,-1.8037365E1,-3.4666205E2,3.8574607E0,1.4781329E3,-1.1895182E2,-5.224769E2,4.7679443E1,1.7201872E1,1.3393115E0,2.4275391E-1,-2.0270312E0,-2.8818865E0,-7.3879833E0,-7.33042E-1,1.1244205E0],"categories":[],"categories_nodes":[],"categories_segments":[],"categories_sizes":[],"default_left":[0,0,0,0,0,0,0,0,0,0,0,0,0,0,0,0,0,0,0,0,0,0,0,0,0,0,0,0,0],"id":38,"left_children":[1,3,5,7,9,11,-1,13,-1,15,17,-1,-1,-1,-1,19,-1,21,23,25,27,-1,-1,-1,-1,-1,-1,-1,-1],"loss_changes":[9.436978E8,8.043949E7,3.693325E7,1.0722224E7,7.476253E6,1.541032E6,0E0,6.48176E5,0E0,1.2037086E6,4.095067E6,0E0,0E0,0E0,0E0,7.182225E5,0E0,1.721831E6,4.0907094E4,1.4185762E5,3.9583344E4,0E0,0E0,0E0,0E0,0E0,0E0,0E0,0E0],"parents":[2147483647,0,0,1,1,2,2,3,3,4,4,5,5,7,7,9,9,10,10,15,15,17,17,18,18,19,19,20,20],"right_children":[2,4,6,8,10,12,-1,14,-1,16,18,-1,-1,-1,-1,20,-1,22,24,26,28,-1,-1,-1,-1,-1,-1,-1,-1],"split_conditions":[1.35E0,3.79E0,1.6E0,3.36E0,6.58E0,4.61E0,7.226731E1,3.14E0,-1.0671016E1,1E0,1E0,3.7779697E1,9.299091E0,-2.4831703E1,-1.8037365E1,1E0,3.8574607E0,1E0,1.06E0,6.46E0,9.1E-1,1.7201872E1,1.3393115E0,2.4275391E-1,-2.0270312E0,-2.8818865E0,-7.3879833E0,-7.33042E-1,1.1244205E0],"split_indices":[0,5,0,5,4,5,0,5,0,9,18,0,0,0,0,12,0,13,0,3,0,0,0,0,0,0,0,0,0],"split_type":[0,0,0,0,0,0,0,0,0,0,0,0,0,0,0,0,0,0,0,0,0,0,0,0,0,0,0,0,0],"sum_hessian":[1E2,8E1,2E1,6.2E1,1.8E1,8E0,1.2E1,5E1,1.2E1,1.1E1,7E0,7E0,1E0,3.1E1,1.9E1,9E0,2E0,5E0,2E0,6E0,3E0,4E0,1E0,1E0,1E0,4E0,2E0,1E0,2E0],"tree_param":{"num_deleted":"0","num_feature":"23","num_nodes":"29","size_leaf_vector":"1"}},{"base_weights":[2.797169E1,-1.521061E3,6.00148E3,-2.0541033E3,3.2645053E2,3.5648418E3,7.226731E1,-2.2654153E3,-1.0671016E1,-1.9244853E2,1.0639928E3,3.7779697E1,9.299091E0,-2.4831703E1,-1.8037365E1,-3.4666205E2,3.8574607E0,1.4781329E3,-1.1895182E2,-5.224769E2,4.7679443E1,1.7201872E1,1.3393115E0,2.4275391E-1,-2.0270312E0,-2.8818865E0,-7.3879833E0,-7.33042E-1,1.1244205E0],"categories":[],"categories_nodes":[],"categories_segments":[],"categories_sizes":[],"default_left":[0,0,0,0,0,0,0,0,0,0,0,0,0,0,0,0,0,0,0,0,0,0,0,0,0,0,0,0,0],"id":39,"left_children":[1,3,5,7,9,11,-1,13,-1,15,17,-1,-1,-1,-1,19,-1,21,23,25,27,-1,-1,-1,-1,-1,-1,-1,-1],"loss_changes":[9.436978E8,8.043949E7,3.693325E7,1.0722224E7,7.476253E6,1.541032E6,0E0,6.48176E5,0E0,1.2037086E6,4.095067E6,0E0,0E0,0E0,0E0,7.182225E5,0E0,1.721831E6,4.0907094E4,1.4185762E5,3.9583344E4,0E0,0E0,0E0,0E0,0E0,0E0,0E0,0E0],"parents":[2147483647,0,0,1,1,2,2,3,3,4,4,5,5,7,7,9,9,10,10,15,15,17,17,18,18,19,19,20,20],"right_children":[2,4,6,8,10,12,-1,14,-1,16,18,-1,-1,-1,-1,20,-1,22,24,26,28,-1,-1,-1,-1,-1,-1,-1,-1],"split_conditions":[1.35E0,3.79E0,1.6E0,3.36E0,6.58E0,4.61E0,7.226731E1,3.14E0,-1.0671016E1,1E0,1E0,3.7779697E1,9.299091E0,-2.4831703E1,-1.8037365E1,1E0,3.8574607E0,1E0,1.06E0,6.46E0,9.1E-1,1.7201872E1,1.3393115E0,2.4275391E-1,-2.0270312E0,-2.8818865E0,-7.3879833E0,-7.33042E-1,1.1244205E0],"split_indices":[0,5,0,5,4,5,0,5,0,9,18,0,0,0,0,12,0,13,0,3,0,0,0,0,0,0,0,0,0],"split_type":[0,0,0,0,0,0,0,0,0,0,0,0,0,0,0,0,0,0,0,0,0,0,0,0,0,0,0,0,0],"sum_hessian":[1E2,8E1,2E1,6.2E1,1.8E1,8E0,1.2E1,5E1,1.2E1,1.1E1,7E0,7E0,1E0,3.1E1,1.9E1,9E0,2E0,5E0,2E0,6E0,3E0,4E0,1E0,1E0,1E0,4E0,2E0,1E0,2E0],"tree_param":{"num_deleted":"0","num_feature":"23","num_nodes":"29","size_leaf_vector":"1"}},{"base_weights":[3.275322E1,-1.3324391E3,5.6284043E3,-1.8571912E3,3.8715173E2,3.9487114E1,7.242616E1,-2.047279E3,-9.686009E0,-1.7822163E2,1.0979661E3,-2.2643093E1,-1.6582706E1,-3.2187494E2,3.6002994E2,1.4601011E1,-1.13004555E2,-4.8490088E2,4.388916E1,1.0897119E0,4.310737E0,2.3062012E-1,-1.9256884E0,-2.6513398E0,-6.895454E0,-6.9639647E-1,1.0494531E0],"categories":[],"categories_nodes":[],"categories_segments":[],"categories_sizes":[],"default_left":[0,0,0,0,0,0,0,0,0,0,0,0,0,0,0,0,0,0,0,0,0,0,0,0,0,0,0],"id":40,"left_children":[1,3,5,7,9,-1,-1,11,-1,13,15,-1,-1,17,19,-1,21,23,25,-1,-1,-1,-1,-1,-1,-1,-1],"loss_changes":[7.790527E8,7.471243E7,2.5628608E7,8.658352E6,8.23319E6,0E0,0E0,5.50912E5,0E0,1.0437441E6,4.111813E6,0E0,0E0,6.175722E5,6.5338438E3,0E0,3.6919145E4,1.3199675E5,3.503488E4,0E0,0E0,0E0,0E0,0E0,0E0,0E0,0E0],"parents":[2147483647,0,0,1,1,2,2,3,3,4,4,7,7,9,9,10,10,13,13,14,14,16,16,17,17,18,18],"right_children":[2,4,6,8,10,-1,-1,12,-1,14,16,-1,-1,18,20,-1,22,24,26,-1,-1,-1,-1,-1,-1,-1,-1],"split_conditions":[1.41E0,3.79E0,7.93E0,3.36E0,6.58E0,3.9487114E1,7.242616E1,4.3E-1,-9.686009E0,1E0,1E0,-2.2643093E1,-1.6582706E1,1E0,9.1E-1,1.4601011E1,1.06E0,6.46E0,9.1E-1,1.0897119E0,4.310737E0,2.3062012E-1,-1.9256884E0,-2.6513398E0,-6.895454E0,-6.9639647E-1,1.0494531E0],"split_indices":[0,5,4,5,4,0,0,0,0,9,18,0,0,12,0,0,0,3,0,0,0,0,0,0,0,0,0],"split_type":[0,0,0,0,0,0,0,0,0,0,0,0,0,0,0,0,0,0,0,0,0,0,0,0,0,0,0],"sum_hessian":[1E2,8.1E1,1.9E1,6.2E1,1.9E1,1.1E1,8E0,5E1,1.2E1,1.1E1,8E0,2.9E1,2.1E1,9E0,2E0,6E0,2E0,6E0,3E0,1E0,1E0,1E0,1E0,4E0,2E0,1E0,2E0],"tree_param":{"num_deleted":"0","num_feature":"23","num_nodes":"27","size_leaf_vector":"1"}},{"base_weights":[3.275322E1,-1.3324391E3,5.6284043E3,-1.8571912E3,3.8715173E2,3.9487114E1,7.242616E1,-2.047279E3,-9.686009E0,-1.7822163E2,1.0979661E3,-2.2643093E1,-1.6582706E1,-3.2187494E2,3.6002994E2,1.4601011E1,-1.13004555E2,-4.8490088E2,4.388916E1,1.0897119E0,4.310737E0,2.3062012E-1,-1.9256884E0,-2.6513398E0,-6.895454E0,-6.9639647E-1,1.0494531E0],"categories":[],"categories_nodes":[],"categories_segments":[],"categories_sizes":[],"default_left":[0,0,0,0,0,0,0,0,0,0,0,0,0,0,0,0,0,0,0,0,0,0,0,0,0,0,0],"id":41,"left_children":[1,3,5,7,9,-1,-1,11,-1,13,15,-1,-1,17,19,-1,21,23,25,-1,-1,-1,-1,-1,-1,-1,-1],"loss_changes":[7.790527E8,7.471243E7,2.5628608E7,8.658352E6,8.23319E6,0E0,0E0,5.50912E5,0E0,1.0437441E6,4.111813E6,0E0,0E0,6.175722E5,6.5338438E3,0E0,3.6919145E4,1.3199675E5,3.503488E4,0E0,0E0,0E0,0E0,0E0,0E0,0E0,0E0],"parents":[2147483647,0,0,1,1,2,2,3,3,4,4,7,7,9,9,10,10,13,13,14,14,16,16,17,17,18,18],"right_children":[2,4,6,8,10,-1,-1,12,-1,14,16,-1,-1,18,20,-1,22,24,26,-1,-1,-1,-1,-1,-1,-1,-1],"split_conditions":[1.41E0,3.79E0,7.93E0,3.36E0,6.58E0,3.9487114E1,7.242616E1,4.3E-1,-9.686009E0,1E0,1E0,-2.2643093E1,-1.6582706E1,1E0,9.1E-1,1.4601011E1,1.06E0,6.46E0,9.1E-1,1.0897119E0,4.310737E0,2.3062012E-1,-1.9256884E0,-2.6513398E0,-6.895454E0,-6.9639647E-1,1.0494531E0],"split_indices":[0,5,4,5,4,0,0,0,0,9,18,0,0,12,0,0,0,3,0,0,0,0,0,0,0,0,0],"split_type":[0,0,0,0,0,0,0,0,0,0,0,0,0,0,0,0,0,0,0,0,0,0,0,0,0,0,0],"sum_hessian":[1E2,8.1E1,1.9E1,6.2E1,1.9E1,1.1E1,8E0,5E1,1.2E1,1.1E1,8E0,2.9E1,2.1E1,9E0,2E0,6E0,2E0,6E0,3E0,1E0,1E0,1E0,1E0,4E0,2E0,1E0,2E0],"tree_param":{"num_deleted":"0","num_feature":"23","num_nodes":"27","size_leaf_vector":"1"}},{"base_weights":[3.275322E1,-1.3324391E3,5.6284043E3,-1.8571912E3,3.8715173E2,3.9487114E1,7.242616E1,-2.047279E3,-9.686009E0,-1.7822163E2,1.0979661E3,-2.2643093E1,-1.6582706E1,-3.2187494E2,3.6002994E2,1.4601011E1,-1.13004555E2,-4.8490088E2,4.388916E1,1.0897119E0,4.310737E0,2.3062012E-1,-1.9256884E0,-2.6513398E0,-6.895454E0,-6.9639647E-1,1.0494531E0],"categories":[],"categories_nodes":[],"categories_segments":[],"categories_sizes":[],"default_left":[0,0,0,0,0,0,0,0,0,0,0,0,0,0,0,0,0,0,0,0,0,0,0,0,0,0,0],"id":42,"left_children":[1,3,5,7,9,-1,-1,11,-1,13,15,-1,-1,17,19,-1,21,23,25,-1,-1,-1,-1,-1,-1,-1,-1],"loss_changes":[7.790527E8,7.471243E7,2.5628608E7,8.658352E6,8.23319E6,0E0,0E0,5.50912E5,0E0,1.0437441E6,4.111813E6,0E0,0E0,6.175722E5,6.5338438E3,0E0,3.6919145E4,1.3199675E5,3.503488E4,0E0,0E0,0E0,0E0,0E0,0E0,0E0,0E0],"parents":[2147483647,0,0,1,1,2,2,3,3,4,4,7,7,9,9,10,10,13,13,14,14,16,16,17,17,18,18],"right_children":[2,4,6,8,10,-1,-1,12,-1,14,16,-1,-1,18,20,-1,22,24,26,-1,-1,-1,-1,-1,-1,-1,-1],"split_conditions":[1.41E0,3.79E0,7.93E0,3.36E0,6.58E0,3.9487114E1,7.242616E1,4.3E-1,-9.686009E0,1E0,1E0,-2.2643093E1,-1.6582706E1,1E0,9.1E-1,1.4601011E1,1.06E0,6.46E0,9.1E-1,1.0897119E0,4.310737E0,2.3062012E-1,-1.9256884E0,-2.6513398E0,-6.895454E0,-6.9639647E-1,1.0494531E0],"split_indices":[0,5,4,5,4,0,0,0,0,9,18,0,0,12,0,0,0,3,0,0,0,0,0,0,0,0,0],"split_type":[0,0,0,0,0,0,0,0,0,0,0,0,0,0,0,0,0,0,0,0,0,0,0,0,0,0,0],"sum_hessian":[1E2,8.1E1,1.9E1,6.2E1,1.9E1,1.1E1,8E0,5E1,1.2E1,1.1E1,8E0,2.9E1,2.1E1,9E0,2E0,6E0,2E0,6E0,3E0,1E0,1E0,1E0,1E0,4E0,2E0,1E0,2E0],"tree_param":{"num_deleted":"0","num_feature":"23","num_nodes":"27","size_leaf_vector":"1"}},{"base_weights":[3.275322E1,-1.3324391E3,5.6284043E3,-1.8571912E3,3.8715173E2,3.9487114E1,7.242616E1,-2.047279E3,-9.686009E0,-1.7822163E2,1.0979661E3,-2.2643093E1,-1.6582706E1,-3.2187494E2,3.6002994E2,1.4601011E1,-1.13004555E2,-4.8490088E2,4.388916E1,1.0897119E0,4.310737E0,2.3062012E-1,-1.9256884E0,-2.6513398E0,-6.895454E0,-6.9639647E-1,1.0494531E0],"categories":[],"categories_nodes":[],"categories_segments":[],"categories_sizes":[],"default_left":[0,0,0,0,0,0,0,0,0,0,0,0,0,0,0,0,0,0,0,0,0,0,0,0,0,0,0],"id":43,"left_children":[1,3,5,7,9,-1,-1,11,-1,13,15,-1,-1,17,19,-1,21,23,25,-1,-1,-1,-1,-1,-1,-1,-1],"loss_changes":[7.790527E8,7.471243E7,2.5628608E7,8.658352E6,8.23319E6,0E0,0E0,5.50912E5,0E0,1.0437441E6,4.111813E6,0E0,0E0,6.175722E5,6.5338438E3,0E0,3.6919145E4,1.3199675E5,3.503488E4,0E0,0E0,0E0,0E0,0E0,0E0,0E0,0E0],"parents":[2147483647,0,0,1,1,2,2,3,3,4,4,7,7,9,9,10,10,13,13,14,14,16,16,17,17,18,18],"right_children":[2,4,6,8,10,-1,-1,12,-1,14,16,-1,-1,18,20,-1,22,24,26,-1,-1,-1,-1,-1,-1,-1,-1],"split_conditions":[1.41E0,3.79E0,7.93E0,3.36E0,6.58E0,3.9487114E1,7.242616E1,4.3E-1,-9.686009E0,1E0,1E0,-2.2643093E1,-1.6582706E1,1E0,9.1E-1,1.4601011E1,1.06E0,6.46E0,9.1E-1,1.0897119E0,4.310737E0,2.3062012E-1,-1.9256884E0,-2.6513398E0,-6.895454E0,-6.9639647E-1,1.0494531E0],"split_indices":[0,5,4,5,4,0,0,0,0,9,18,0,0,12,0,0,0,3,0,0,0,0,0,0,0,0,0],"split_type":[0,0,0,0,0,0,0,0,0,0,0,0,0,0,0,0,0,0,0,0,0,0,0,0,0,0,0],"sum_hessian":[1E2,8.1E1,1.9E1,6.2E1,1.9E1,1.1E1,8E0,5E1,1.2E1,1.1E1,8E0,2.9E1,2.1E1,9E0,2E0,6E0,2E0,6E0,3E0,1E0,1E0,1E0,1E0,4E0,2E0,1E0,2E0],"tree_param":{"num_deleted":"0","num_feature":"23","num_nodes":"27","size_leaf_vector":"1"}},{"base_weights":[3.275322E1,-1.3324391E3,5.6284043E3,-1.8571912E3,3.8715173E2,3.9487114E1,7.242616E1,-2.047279E3,-9.686009E0,-1.7822163E2,1.0979661E3,-2.2643093E1,-1.6582706E1,-3.2187494E2,3.6002994E2,1.4601011E1,-1.13004555E2,-4.8490088E2,4.388916E1,1.0897119E0,4.310737E0,2.3062012E-1,-1.9256884E0,-2.6513398E0,-6.895454E0,-6.9639647E-1,1.0494531E0],"categories":[],"categories_nodes":[],"categories_segments":[],"categories_sizes":[],"default_left":[0,0,0,0,0,0,0,0,0,0,0,0,0,0,0,0,0,0,0,0,0,0,0,0,0,0,0],"id":44,"left_children":[1,3,5,7,9,-1,-1,11,-1,13,15,-1,-1,17,19,-1,21,23,25,-1,-1,-1,-1,-1,-1,-1,-1],"loss_changes":[7.790527E8,7.471243E7,2.5628608E7,8.658352E6,8.23319E6,0E0,0E0,5.50912E5,0E0,1.0437441E6,4.111813E6,0E0,0E0,6.175722E5,6.5338438E3,0E0,3.6919145E4,1.3199675E5,3.503488E4,0E0,0E0,0E0,0E0,0E0,0E0,0E0,0E0],"parents":[2147483647,0,0,1,1,2,2,3,3,4,4,7,7,9,9,10,10,13,13,14,14,16,16,17,17,18,18],"right_children":[2,4,6,8,10,-1,-1,12,-1,14,16,-1,-1,18,20,-1,22,24,26,-1,-1,-1,-1,-1,-1,-1,-1],"split_conditions":[1.41E0,3.79E0,7.93E0,3.36E0,6.58E0,3.9487114E1,7.242616E1,4.3E-1,-9.686009E0,1E0,1E0,-2.2643093E1,-1.6582706E1,1E0,9.1E-1,1.4601011E1,1.06E0,6.46E0,9.1E-1,1.0897119E0,4.310737E0,2.3062012E-1,-1.9256884E0,-2.6513398E0,-6.895454E0,-6.9639647E-1,1.0494531E0],"split_indices":[0,5,4,5,4,0,0,0,0,9,18,0,0,12,0,0,0,3,0,0,0,0,0,0,0,0,0],"split_type":[0,0,0,0,0,0,0,0,0,0,0,0,0,0,0,0,0,0,0,0,0,0,0,0,0,0,0],"sum_hessian":[1E2,8.1E1,1.9E1,6.2E1,1.9E1,1.1E1,8E0,5E1,1.2E1,1.1E1,8E0,2.9E1,2.1E1,9E0,2E0,6E0,2E0,6E0,3E0,1E0,1E0,1E0,1E0,4E0,2E0,1E0,2E0],"tree_param":{"num_deleted":"0","num_feature":"23","num_nodes":"27","size_leaf_vector":"1"}},{"base_weights":[3.275322E1,-1.3324391E3,5.6284043E3,-1.8571912E3,3.8715173E2,3.9487114E1,7.242616E1,-2.047279E3,-9.686009E0,-1.7822163E2,1.0979661E3,-2.2643093E1,-1.6582706E1,-3.2187494E2,3.6002994E2,1.4601011E1,-1.13004555E2,-4.8490088E2,4.388916E1,1.0897119E0,4.310737E0,2.3062012E-1,-1.9256884E0,-2.6513398E0,-6.895454E0,-6.9639647E-1,1.0494531E0],"categories":[],"categories_nodes":[],"categories_segments":[],"categories_sizes":[],"default_left":[0,0,0,0,0,0,0,0,0,0,0,0,0,0,0,0,0,0,0,0,0,0,0,0,0,0,0],"id":45,"left_children":[1,3,5,7,9,-1,-1,11,-1,13,15,-1,-1,17,19,-1,21,23,25,-1,-1,-1,-1,-1,-1,-1,-1],"loss_changes":[7.790527E8,7.471243E7,2.5628608E7,8.658352E6,8.23319E6,0E0,0E0,5.50912E5,0E0,1.0437441E6,4.111813E6,0E0,0E0,6.175722E5,6.5338438E3,0E0,3.6919145E4,1.3199675E5,3.503488E4,0E0,0E0,0E0,0E0,0E0,0E0,0E0,0E0],"parents":[2147483647,0,0,1,1,2,2,3,3,4,4,7,7,9,9,10,10,13,13,14,14,16,16,17,17,18,18],"right_children":[2,4,6,8,10,-1,-1,12,-1,14,16,-1,-1,18,20,-1,22,24,26,-1,-1,-1,-1,-1,-1,-1,-1],"split_conditions":[1.41E0,3.79E0,7.93E0,3.36E0,6.58E0,3.9487114E1,7.242616E1,4.3E-1,-9.686009E0,1E0,1E0,-2.2643093E1,-1.6582706E1,1E0,9.1E-1,1.4601011E1,1.06E0,6.46E0,9.1E-1,1.0897119E0,4.310737E0,2.3062012E-1,-1.9256884E0,-2.6513398E0,-6.895454E0,-6.9639647E-1,1.0494531E0],"split_indices":[0,5,4,5,4,0,0,0,0,9,18,0,0,12,0,0,0,3,0,0,0,0,0,0,0,0,0],"split_type":[0,0,0,0,0,0,0,0,0,0,0,0,0,0,0,0,0,0,0,0,0,0,0,0,0,0,0],"sum_hessian":[1E2,8.1E1,1.9E1,6.2E1,1.9E1,1.1E1,8E0,5E1,1.2E1,1.1E1,8E0,2.9E1,2.1E1,9E0,2E0,6E0,2E0,6E0,3E0,1E0,1E0,1E0,1E0,4E0,2E0,1E0,2E0],"tree_param":{"num_deleted":"0","num_feature":"23","num_nodes":"27","size_leaf_vector":"1"}},{"base_weights":[3.275322E1,-1.3324391E3,5.6284043E3,-1.8571912E3,3.8715173E2,3.9487114E1,7.242616E1,-2.047279E3,-9.686009E0,-1.7822163E2,1.0979661E3,-2.2643093E1,-1.6582706E1,-3.2187494E2,3.6002994E2,1.4601011E1,-1.13004555E2,-4.8490088E2,4.388916E1,1.0897119E0,4.310737E0,2.3062012E-1,-1.9256884E0,-2.6513398E0,-6.895454E0,-6.9639647E-1,1.0494531E0],"categories":[],"categories_nodes":[],"categories_segments":[],"categories_sizes":[],"default_left":[0,0,0,0,0,0,0,0,0,0,0,0,0,0,0,0,0,0,0,0,0,0,0,0,0,0,0],"id":46,"left_children":[1,3,5,7,9,-1,-1,11,-1,13,15,-1,-1,17,19,-1,21,23,25,-1,-1,-1,-1,-1,-1,-1,-1],"loss_changes":[7.790527E8,7.471243E7,2.5628608E7,8.658352E6,8.23319E6,0E0,0E0,5.50912E5,0E0,1.0437441E6,4.111813E6,0E0,0E0,6.175722E5,6.5338438E3,0E0,3.6919145E4,1.3199675E5,3.503488E4,0E0,0E0,0E0,0E0,0E0,0E0,0E0,0E0],"parents":[2147483647,0,0,1,1,2,2,3,3,4,4,7,7,9,9,10,10,13,13,14,14,16,16,17,17,18,18],"right_children":[2,4,6,8,10,-1,-1,12,-1,14,16,-1,-1,18,20,-1,22,24,26,-1,-1,-1,-1,-1,-1,-1,-1],"split_conditions":[1.41E0,3.79E0,7.93E0,3.36E0,6.58E0,3.9487114E1,7.242616E1,4.3E-1,-9.686009E0,1E0,1E0,-2.2643093E1,-1.6582706E1,1E0,9.1E-1,1.4601011E1,1.06E0,6.46E0,9.1E-1,1.0897119E0,4.310737E0,2.3062012E-1,-1.9256884E0,-2.6513398E0,-6.895454E0,-6.9639647E-1,1.0494531E0],"split_indices":[0,5,4,5,4,0,0,0,0,9,18,0,0,12,0,0,0,3,0,0,0,0,0,0,0,0,0],"split_type":[0,0,0,0,0,0,0,0,0,0,0,0,0,0,0,0,0,0,0,0,0,0,0,0,0,0,0],"sum_hessian":[1E2,8.1E1,1.9E1,6.2E1,1.9E1,1.1E1,8E0,5E1,1.2E1,1.1E1,8E0,2.9E1,2.1E1,9E0,2E0,6E0,2E0,6E0,3E0,1E0,1E0,1E0,1E0,4E0,2E0,1E0,2E0],"tree_param":{"num_deleted":"0","num_feature":"23","num_nodes":"27","size_leaf_vector":"1"}},{"base_weights":[3.275322E1,-1.3324391E3,5.6284043E3,-1.8571912E3,3.8715173E2,3.9487114E1,7.242616E1,-2.047279E3,-9.686009E0,-1.7822163E2,1.0979661E3,-2.2643093E1,-1.6582706E1,-3.2187494E2,3.6002994E2,1.4601011E1,-1.13004555E2,-4.8490088E2,4.388916E1,1.0897119E0,4.310737E0,2.3062012E-1,-1.9256884E0,-2.6513398E0,-6.895454E0,-6.9639647E-1,1.0494531E0],"categories":[],"categories_nodes":[],"categories_segments":[],"categories_sizes":[],"default_left":[0,0,0,0,0,0,0,0,0,0,0,0,0,0,0,0,0,0,0,0,0,0,0,0,0,0,0],"id":47,"left_children":[1,3,5,7,9,-1,-1,11,-1,13,15,-1,-1,17,19,-1,21,23,25,-1,-1,-1,-1,-1,-1,-1,-1],"loss_changes":[7.790527E8,7.471243E7,2.5628608E7,8.658352E6,8.23319E6,0E0,0E0,5.50912E5,0E0,1.0437441E6,4.111813E6,0E0,0E0,6.175722E5,6.5338438E3,0E0,3.6919145E4,1.3199675E5,3.503488E4,0E0,0E0,0E0,0E0,0E0,0E0,0E0,0E0],"parents":[2147483647,0,0,1,1,2,2,3,3,4,4,7,7,9,9,10,10,13,13,14,14,16,16,17,17,18,18],"right_children":[2,4,6,8,10,-1,-1,12,-1,14,16,-1,-1,18,20,-1,22,24,26,-1,-1,-1,-1,-1,-1,-1,-1],"split_conditions":[1.41E0,3.79E0,7.93E0,3.36E0,6.58E0,3.9487114E1,7.242616E1,4.3E-1,-9.686009E0,1E0,1E0,-2.2643093E1,-1.6582706E1,1E0,9.1E-1,1.4601011E1,1.06E0,6.46E0,9.1E-1,1.0897119E0,4.310737E0,2.3062012E-1,-1.9256884E0,-2.6513398E0,-6.895454E0,-6.9639647E-1,1.0494531E0],"split_indices":[0,5,4,5,4,0,0,0,0,9,18,0,0,12,0,0,0,3,0,0,0,0,0,0,0,0,0],"split_type":[0,0,0,0,0,0,0,0,0,0,0,0,0,0,0,0,0,0,0,0,0,0,0,0,0,0,0],"sum_hessian":[1E2,8.1E1,1.9E1,6.2E1,1.9E1,1.1E1,8E0,5E1,1.2E1,1.1E1,8E0,2.9E1,2.1E1,9E0,2E0,6E0,2E0,6E0,3E0,1E0,1E0,1E0,1E0,4E0,2E0,1E0,2E0],"tree_param":{"num_deleted":"0","num_feature":"23","num_nodes":"27","size_leaf_vector":"1"}},{"base_weights":[3.275322E1,-1.3324391E3,5.6284043E3,-1.8571912E3,3.8715173E2,3.9487114E1,7.242616E1,-2.047279E3,-9.686009E0,-1.7822163E2,1.0979661E3,-2.2643093E1,-1.6582706E1,-3.2187494E2,3.6002994E2,1.4601011E1,-1.13004555E2,-4.8490088E2,4.388916E1,1.0897119E0,4.310737E0,2.3062012E-1,-1.9256884E0,-2.6513398E0,-6.895454E0,-6.9639647E-1,1.0494531E0],"categories":[],"categories_nodes":[],"categories_segments":[],"categories_sizes":[],"default_left":[0,0,0,0,0,0,0,0,0,0,0,0,0,0,0,0,0,0,0,0,0,0,0,0,0,0,0],"id":48,"left_children":[1,3,5,7,9,-1,-1,11,-1,13,15,-1,-1,17,19,-1,21,23,25,-1,-1,-1,-1,-1,-1,-1,-1],"loss_changes":[7.790527E8,7.471243E7,2.5628608E7,8.658352E6,8.23319E6,0E0,0E0,5.50912E5,0E0,1.0437441E6,4.111813E6,0E0,0E0,6.175722E5,6.5338438E3,0E0,3.6919145E4,1.3199675E5,3.503488E4,0E0,0E0,0E0,0E0,0E0,0E0,0E0,0E0],"parents":[2147483647,0,0,1,1,2,2,3,3,4,4,7,7,9,9,10,10,13,13,14,14,16,16,17,17,18,18],"right_children":[2,4,6,8,10,-1,-1,12,-1,14,16,-1,-1,18,20,-1,22,24,26,-1,-1,-1,-1,-1,-1,-1,-1],"split_conditions":[1.41E0,3.79E0,7.93E0,3.36E0,6.58E0,3.9487114E1,7.242616E1,4.3E-1,-9.686009E0,1E0,1E0,-2.2643093E1,-1.6582706E1,1E0,9.1E-1,1.4601011E1,1.06E0,6.46E0,9.1E-1,1.0897119E0,4.310737E0,2.3062012E-1,-1.9256884E0,-2.6513398E0,-6.895454E0,-6.9639647E-1,1.0494531E0],"split_indices":[0,5,4,5,4,0,0,0,0,9,18,0,0,12,0,0,0,3,0,0,0,0,0,0,0,0,0],"split_type":[0,0,0,0,0,0,0,0,0,0,0,0,0,0,0,0,0,0,0,0,0,0,0,0,0,0,0],"sum_hessian":[1E2,8.1E1,1.9E1,6.2E1,1.9E1,1.1E1,8E0,5E1,1.2E1,1.1E1,8E0,2.9E1,2.1E1,9E0,2E0,6E0,2E0,6E0,3E0,1E0,1E0,1E0,1E0,4E0,2E0,1E0,2E0],"tree_param":{"num_deleted":"0","num_feature":"23","num_nodes":"27","size_leaf_vector":"1"}},{"base_weights":[3.275322E1,-1.3324391E3,5.6284043E3,-1.8571912E3,3.8715173E2,3.9487114E1,7.242616E1,-2.047279E3,-9.686009E0,-1.7822163E2,1.0979661E3,-2.2643093E1,-1.6582706E1,-3.2187494E2,3.6002994E2,1.4601011E1,-1.13004555E2,-4.8490088E2,4.388916E1,1.0897119E0,4.310737E0,2.3062012E-1,-1.9256884E0,-2.6513398E0,-6.895454E0,-6.9639647E-1,1.0494531E0],"categories":[],"categories_nodes":[],"categories_segments":[],"categories_sizes":[],"default_left":[0,0,0,0,0,0,0,0,0,0,0,0,0,0,0,0,0,0,0,0,0,0,0,0,0,0,0],"id":49,"left_children":[1,3,5,7,9,-1,-1,11,-1,13,15,-1,-1,17,19,-1,21,23,25,-1,-1,-1,-1,-1,-1,-1,-1],"loss_changes":[7.790527E8,7.471243E7,2.5628608E7,8.658352E6,8.23319E6,0E0,0E0,5.50912E5,0E0,1.0437441E6,4.111813E6,0E0,0E0,6.175722E5,6.5338438E3,0E0,3.6919145E4,1.3199675E5,3.503488E4,0E0,0E0,0E0,0E0,0E0,0E0,0E0,0E0],"parents":[2147483647,0,0,1,1,2,2,3,3,4,4,7,7,9,9,10,10,13,13,14,14,16,16,17,17,18,18],"right_children":[2,4,6,8,10,-1,-1,12,-1,14,16,-1,-1,18,20,-1,22,24,26,-1,-1,-1,-1,-1,-1,-1,-1],"split_conditions":[1.41E0,3.79E0,7.93E0,3.36E0,6.58E0,3.9487114E1,7.242616E1,4.3E-1,-9.686009E0,1E0,1E0,-2.2643093E1,-1.6582706E1,1E0,9.1E-1,1.4601011E1,1.06E0,6.46E0,9.1E-1,1.0897119E0,4.310737E0,2.3062012E-1,-1.9256884E0,-2.6513398E0,-6.895454E0,-6.9639647E-1,1.0494531E0],"split_indices":[0,5,4,5,4,0,0,0,0,9,18,0,0,12,0,0,0,3,0,0,0,0,0,0,0,0,0],"split_type":[0,0,0,0,0,0,0,0,0,0,0,0,0,0,0,0,0,0,0,0,0,0,0,0,0,0,0],"sum_hessian":[1E2,8.1E1,1.9E1,6.2E1,1.9E1,1.1E1,8E0,5E1,1.2E1,1.1E1,8E0,2.9E1,2.1E1,9E0,2E0,6E0,2E0,6E0,3E0,1E0,1E0,1E0,1E0,4E0,2E0,1E0,2E0],"tree_param":{"num_deleted":"0","num_feature":"23","num_nodes":"27","size_leaf_vector":"1"}},{"base_weights":[3.6617878E1,-1.2040487E3,5.1215195E3,-1.6792357E3,3.5299304E2,3.6957973E1,6.7981285E1,-1.8599932E3,-9.137279E0,-1.6356018E2,1.0025092E3,-2.0454262E1,-1.5065177E1,-2.988808E2,3.4202866E2,1.3349491E1,-1.07353516E2,-4.5004877E2,4.03833E1,1.0352197E0,4.09521E0,2.1909668E-1,-1.8293993E0,-2.4392304E0,-6.435754E0,-6.61582E-1,9.794986E-1],"categories":[],"categories_nodes":[],"categories_segments":[],"categories_sizes":[],"default_left":[0,0,0,0,0,0,0,0,0,0,0,0,0,0,0,0,0,0,0,0,0,0,0,0,0,0,0],"id":50,"left_children":[1,3,5,7,9,-1,-1,11,-1,13,15,-1,-1,17,19,-1,21,23,25,-1,-1,-1,-1,-1,-1,-1,-1],"loss_changes":[6.43342E8,6.1263416E7,2.2683072E7,7.017856E6,6.874164E6,0E0,0E0,1.95824E5,0E0,9.2322494E5,3.463974E6,0E0,0E0,5.31033E5,5.8977188E3,0E0,3.3319785E4,1.22252875E5,3.1013104E4,0E0,0E0,0E0,0E0,0E0,0E0,0E0,0E0],"parents":[2147483647,0,0,1,1,2,2,3,3,4,4,7,7,9,9,10,10,13,13,14,14,16,16,17,17,18,18],"right_children":[2,4,6,8,10,-1,-1,12,-1,14,16,-1,-1,18,20,-1,22,24,26,-1,-1,-1,-1,-1,-1,-1,-1],"split_conditions":[1.41E0,3.79E0,8.08E0,3.34E0,6.58E0,3.6957973E1,6.7981285E1,4.3E-1,-9.137279E0,1E0,1E0,-2.0454262E1,-1.5065177E1,1E0,9.1E-1,1.3349491E1,1.06E0,6.46E0,9.1E-1,1.0352197E0,4.09521E0,2.1909668E-1,-1.8293993E0,-2.4392304E0,-6.435754E0,-6.61582E-1,9.794986E-1],"split_indices":[0,5,4,5,4,0,0,0,0,9,18,0,0,12,0,0,0,3,0,0,0,0,0,0,0,0,0],"split_type":[0,0,0,0,0,0,0,0,0,0,0,0,0,0,0,0,0,0,0,0,0,0,0,0,0,0,0],"sum_hessian":[1E2,8.1E1,1.9E1,6.2E1,1.9E1,1.2E1,7E0,4.9E1,1.3E1,1.1E1,8E0,2.9E1,2E1,9E0,2E0,6E0,2E0,6E0,3E0,1E0,1E0,1E0,1E0,4E0,2E0,1E0,2E0],"tree_param":{"num_deleted":"0","num_feature":"23","num_nodes":"27","size_leaf_vector":"1"}},{"base_weights":[3.6617878E1,-1.2040487E3,5.1215195E3,-1.6792357E3,3.5299304E2,3.6957973E1,6.7981285E1,-1.8599932E3,-9.137279E0,-1.6356018E2,1.0025092E3,-2.0454262E1,-1.5065177E1,-2.988808E2,3.4202866E2,1.3349491E1,-1.07353516E2,-4.5004877E2,4.03833E1,1.0352197E0,4.09521E0,2.1909668E-1,-1.8293993E0,-2.4392304E0,-6.435754E0,-6.61582E-1,9.794986E-1],"categories":[],"categories_nodes":[],"categories_segments":[],"categories_sizes":[],"default_left":[0,0,0,0,0,0,0,0,0,0,0,0,0,0,0,0,0,0,0,0,0,0,0,0,0,0,0],"id":51,"left_children":[1,3,5,7,9,-1,-1,11,-1,13,15,-1,-1,17,19,-1,21,23,25,-1,-1,-1,-1,-1,-1,-1,-1],"loss_changes":[6.43342E8,6.1263416E7,2.2683072E7,7.017856E6,6.874164E6,0E0,0E0,1.95824E5,0E0,9.2322494E5,3.463974E6,0E0,0E0,5.31033E5,5.8977188E3,0E0,3.3319785E4,1.22252875E5,3.1013104E4,0E0,0E0,0E0,0E0,0E0,0E0,0E0,0E0],"parents":[2147483647,0,0,1,1,2,2,3,3,4,4,7,7,9,9,10,10,13,13,14,14,16,16,17,17,18,18],"right_children":[2,4,6,8,10,-1,-1,12,-1,14,16,-1,-1,18,20,-1,22,24,26,-1,-1,-1,-1,-1,-1,-1,-1],"split_conditions":[1.41E0,3.79E0,8.08E0,3.34E0,6.58E0,3.6957973E1,6.7981285E1,4.3E-1,-9.137279E0,1E0,1E0,-2.0454262E1,-1.5065177E1,1E0,9.1E-1,1.3349491E1,1.06E0,6.46E0,9.1E-1,1.0352197E0,4.09521E0,2.1909668E-1,-1.8293993E0,-2.4392304E0,-6.435754E0,-6.61582E-1,9.794986E-1],"split_indices":[0,5,4,5,4,0,0,0,0,9,18,0,0,12,0,0,0,3,0,0,0,0,0,0,0,0,0],"split_type":[0,0,0,0,0,0,0,0,0,0,0,0,0,0,0,0,0,0,0,0,0,0,0,0,0,0,0],"sum_hessian":[1E2,8.1E1,1.9E1,6.2E1,1.9E1,1.2E1,7E0,4.9E1,1.3E1,1.1E1,8E0,2.9E1,2E1,9E0,2E0,6E0,2E0,6E0,3E0,1E0,1E0,1E0,1E0,4E0,2E0,1E0,2E0],"tree_param":{"num_deleted":"0","num_feature":"23","num_nodes":"27","size_leaf_vector":"1"}},{"base_weights":[3.6617878E1,-1.2040487E3,5.1215195E3,-1.6792357E3,3.5299304E2,3.6957973E1,6.7981285E1,-1.8599932E3,-9.137279E0,-1.6356018E2,1.0025092E3,-2.0454262E1,-1.5065177E1,-2.988808E2,3.4202866E2,1.3349491E1,-1.07353516E2,-4.5004877E2,4.03833E1,1.0352197E0,4.09521E0,2.1909668E-1,-1.8293993E0,-2.4392304E0,-6.435754E0,-6.61582E-1,9.794986E-1],"categories":[],"categories_nodes":[],"categories_segments":[],"categories_sizes":[],"default_left":[0,0,0,0,0,0,0,0,0,0,0,0,0,0,0,0,0,0,0,0,0,0,0,0,0,0,0],"id":52,"left_children":[1,3,5,7,9,-1,-1,11,-1,13,15,-1,-1,17,19,-1,21,23,25,-1,-1,-1,-1,-1,-1,-1,-1],"loss_changes":[6.43342E8,6.1263416E7,2.2683072E7,7.017856E6,6.874164E6,0E0,0E0,1.95824E5,0E0,9.2322494E5,3.463974E6,0E0,0E0,5.31033E5,5.8977188E3,0E0,3.3319785E4,1.22252875E5,3.1013104E4,0E0,0E0,0E0,0E0,0E0,0E0,0E0,0E0],"parents":[2147483647,0,0,1,1,2,2,3,3,4,4,7,7,9,9,10,10,13,13,14,14,16,16,17,17,18,18],"right_children":[2,4,6,8,10,-1,-1,12,-1,14,16,-1,-1,18,20,-1,22,24,26,-1,-1,-1,-1,-1,-1,-1,-1],"split_conditions":[1.41E0,3.79E0,8.08E0,3.34E0,6.58E0,3.6957973E1,6.7981285E1,4.3E-1,-9.137279E0,1E0,1E0,-2.0454262E1,-1.5065177E1,1E0,9.1E-1,1.3349491E1,1.06E0,6.46E0,9.1E-1,1.0352197E0,4.09521E0,2.1909668E-1,-1.8293993E0,-2.4392304E0,-6.435754E0,-6.61582E-1,9.794986E-1],"split_indices":[0,5,4,5,4,0,0,0,0,9,18,0,0,12,0,0,0,3,0,0,0,0,0,0,0,0,0],"split_type":[0,0,0,0,0,0,0,0,0,0,0,0,0,0,0,0,0,0,0,0,0,0,0,0,0,0,0],"sum_hessian":[1E2,8.1E1,1.9E1,6.2E1,1.9E1,1.2E1,7E0,4.9E1,1.3E1,1.1E1,8E0,2.9E1,2E1,9E0,2E0,6E0,2E0,6E0,3E0,1E0,1E0,1E0,1E0,4E0,2E0,1E0,2E0],"tree_param":{"num_deleted":"0","num_feature":"23","num_nodes":"27","size_leaf_vector":"1"}},{"base_weights":[3.6617878E1,-1.2040487E3,5.1215195E3,-1.6792357E3,3.5299304E2,3.6957973E1,6.7981285E1,-1.8599932E3,-9.137279E0,-1.6356018E2,1.0025092E3,-2.0454262E1,-1.5065177E1,-2.988808E2,3.4202866E2,1.3349491E1,-1.07353516E2,-4.5004877E2,4.03833E1,1.0352197E0,4.09521E0,2.1909668E-1,-1.8293993E0,-2.4392304E0,-6.435754E0,-6.61582E-1,9.794986E-1],"categories":[],"categories_nodes":[],"categories_segments":[],"categories_sizes":[],"default_left":[0,0,0,0,0,0,0,0,0,0,0,0,0,0,0,0,0,0,0,0,0,0,0,0,0,0,0],"id":53,"left_children":[1,3,5,7,9,-1,-1,11,-1,13,15,-1,-1,17,19,-1,21,23,25,-1,-1,-1,-1,-1,-1,-1,-1],"loss_changes":[6.43342E8,6.1263416E7,2.2683072E7,7.017856E6,6.874164E6,0E0,0E0,1.95824E5,0E0,9.2322494E5,3.463974E6,0E0,0E0,5.31033E5,5.8977188E3,0E0,3.3319785E4,1.22252875E5,3.1013104E4,0E0,0E0,0E0,0E0,0E0,0E0,0E0,0E0],"parents":[2147483647,0,0,1,1,2,2,3,3,4,4,7,7,9,9,10,10,13,13,14,14,16,16,17,17,18,18],"right_children":[2,4,6,8,10,-1,-1,12,-1,14,16,-1,-1,18,20,-1,22,24,26,-1,-1,-1,-1,-1,-1,-1,-1],"split_conditions":[1.41E0,3.79E0,8.08E0,3.34E0,6.58E0,3.6957973E1,6.7981285E1,4.3E-1,-9.137279E0,1E0,1E0,-2.0454262E1,-1.5065177E1,1E0,9.1E-1,1.3349491E1,1.06E0,6.46E0,9.1E-1,1.0352197E0,4.09521E0,2.1909668E-1,-1.8293993E0,-2.4392304E0,-6.435754E0,-6.61582E-1,9.794986E-1],"split_indices":[0,5,4,5,4,0,0,0,0,9,18,0,0,12,0,0,0,3,0,0,0,0,0,0,0,0,0],"split_type":[0,0,0,0,0,0,0,0,0,0,0,0,0,0,0,0,0,0,0,0,0,0,0,0,0,0,0],"sum_hessian":[1E2,8.1E1,1.9E1,6.2E1,1.9E1,1.2E1,7E0,4.9E1,1.3E1,1.1E1,8E0,2.9E1,2E1,9E0,2E0,6E0,2E0,6E0,3E0,1E0,1E0,1E0,1E0,4E0,2E0,1E0,2E0],"tree_param":{"num_deleted":"0","num_feature":"23","num_nodes":"27","size_leaf_vector":"1"}},{"base_weights":[3.6617878E1,-1.2040487E3,5.1215195E3,-1.6792357E3,3.5299304E2,3.6957973E1,6.7981285E1,-1.8599932E3,-9.137279E0,-1.6356018E2,1.0025092E3,-2.0454262E1,-1.5065177E1,-2.988808E2,3.4202866E2,1.3349491E1,-1.07353516E2,-4.5004877E2,4.03833E1,1.0352197E0,4.09521E0,2.1909668E-1,-1.8293993E0,-2.4392304E0,-6.435754E0,-6.61582E-1,9.794986E-1],"categories":[],"categories_nodes":[],"categories_segments":[],"categories_sizes":[],"default_left":[0,0,0,0,0,0,0,0,0,0,0,0,0,0,0,0,0,0,0,0,0,0,0,0,0,0,0],"id":54,"left_children":[1,3,5,7,9,-1,-1,11,-1,13,15,-1,-1,17,19,-1,21,23,25,-1,-1,-1,-1,-1,-1,-1,-1],"loss_changes":[6.43342E8,6.1263416E7,2.2683072E7,7.017856E6,6.874164E6,0E0,0E0,1.95824E5,0E0,9.2322494E5,3.463974E6,0E0,0E0,5.31033E5,5.8977188E3,0E0,3.3319785E4,1.22252875E5,3.1013104E4,0E0,0E0,0E0,0E0,0E0,0E0,0E0,0E0],"parents":[2147483647,0,0,1,1,2,2,3,3,4,4,7,7,9,9,10,10,13,13,14,14,16,16,17,17,18,18],"right_children":[2,4,6,8,10,-1,-1,12,-1,14,16,-1,-1,18,20,-1,22,24,26,-1,-1,-1,-1,-1,-1,-1,-1],"split_conditions":[1.41E0,3.79E0,8.08E0,3.34E0,6.58E0,3.6957973E1,6.7981285E1,4.3E-1,-9.137279E0,1E0,1E0,-2.0454262E1,-1.5065177E1,1E0,9.1E-1,1.3349491E1,1.06E0,6.46E0,9.1E-1,1.0352197E0,4.09521E0,2.1909668E-1,-1.8293993E0,-2.4392304E0,-6.435754E0,-6.61582E-1,9.794986E-1],"split_indices":[0,5,4,5,4,0,0,0,0,9,18,0,0,12,0,0,0,3,0,0,0,0,0,0,0,0,0],"split_type":[0,0,0,0,0,0,0,0,0,0,0,0,0,0,0,0,0,0,0,0,0,0,0,0,0,0,0],"sum_hessian":[1E2,8.1E1,1.9E1,6.2E1,1.9E1,1.2E1,7E0,4.9E1,1.3E1,1.1E1,8E0,2.9E1,2E1,9E0,2E0,6E0,2E0,6E0,3E0,1E0,1E0,1E0,1E0,4E0,2E0,1E0,2E0],"tree_param":{"num_deleted":"0","num_feature":"23","num_nodes":"27","size_leaf_vector":"1"}},{"base_weights":[3.6617878E1,-1.2040487E3,5.1215195E3,-1.6792357E3,3.5299304E2,3.6957973E1,6.7981285E1,-1.8599932E3,-9.137279E0,-1.6356018E2,1.0025092E3,-2.0454262E1,-1.5065177E1,-2.988808E2,3.4202866E2,1.3349491E1,-1.07353516E2,-4.5004877E2,4.03833E1,1.0352197E0,4.09521E0,2.1909668E-1,-1.8293993E0,-2.4392304E0,-6.435754E0,-6.61582E-1,9.794986E-1],"categories":[],"categories_nodes":[],"categories_segments":[],"categories_sizes":[],"default_left":[0,0,0,0,0,0,0,0,0,0,0,0,0,0,0,0,0,0,0,0,0,0,0,0,0,0,0],"id":55,"left_children":[1,3,5,7,9,-1,-1,11,-1,13,15,-1,-1,17,19,-1,21,23,25,-1,-1,-1,-1,-1,-1,-1,-1],"loss_changes":[6.43342E8,6.1263416E7,2.2683072E7,7.017856E6,6.874164E6,0E0,0E0,1.95824E5,0E0,9.2322494E5,3.463974E6,0E0,0E0,5.31033E5,5.8977188E3,0E0,3.3319785E4,1.22252875E5,3.1013104E4,0E0,0E0,0E0,0E0,0E0,0E0,0E0,0E0],"parents":[2147483647,0,0,1,1,2,2,3,3,4,4,7,7,9,9,10,10,13,13,14,14,16,16,17,17,18,18],"right_children":[2,4,6,8,10,-1,-1,12,-1,14,16,-1,-1,18,20,-1,22,24,26,-1,-1,-1,-1,-1,-1,-1,-1],"split_conditions":[1.41E0,3.79E0,8.08E0,3.34E0,6.58E0,3.6957973E1,6.7981285E1,4.3E-1,-9.137279E0,1E0,1E0,-2.0454262E1,-1.5065177E1,1E0,9.1E-1,1.3349491E1,1.06E0,6.46E0,9.1E-1,1.0352197E0,4.09521E0,2.1909668E-1,-1.8293993E0,-2.4392304E0,-6.435754E0,-6.61582E-1,9.794986E-1],"split_indices":[0,5,4,5,4,0,0,0,0,9,18,0,0,12,0,0,0,3,0,0,0,0,0,0,0,0,0],"split_type":[0,0,0,0,0,0,0,0,0,0,0,0,0,0,0,0,0,0,0,0,0,0,0,0,0,0,0],"sum_hessian":[1E2,8.1E1,1.9E1,6.2E1,1.9E1,1.2E1,7E0,4.9E1,1.3E1,1.1E1,8E0,2.9E1,2E1,9E0,2E0,6E0,2E0,6E0,3E0,1E0,1E0,1E0,1E0,4E0,2E0,1E0,2E0],"tree_param":{"num_deleted":"0","num_feature":"23","num_nodes":"27","size_leaf_vector":"1"}},{"base_weights":[3.6617878E1,-1.2040487E3,5.1215195E3,-1.6792357E3,3.5299304E2,3.6957973E1,6.7981285E1,-1.8599932E3,-9.137279E0,-1.6356018E2,1.0025092E3,-2.0454262E1,-1.5065177E1,-2.988808E2,3.4202866E2,1.3349491E1,-1.07353516E2,-4.5004877E2,4.03833E1,1.0352197E0,4.09521E0,2.1909668E-1,-1.8293993E0,-2.4392304E0,-6.435754E0,-6.61582E-1,9.794986E-1],"categories":[],"categories_nodes":[],"categories_segments":[],"categories_sizes":[],"default_left":[0,0,0,0,0,0,0,0,0,0,0,0,0,0,0,0,0,0,0,0,0,0,0,0,0,0,0],"id":56,"left_children":[1,3,5,7,9,-1,-1,11,-1,13,15,-1,-1,17,19,-1,21,23,25,-1,-1,-1,-1,-1,-1,-1,-1],"loss_changes":[6.43342E8,6.1263416E7,2.2683072E7,7.017856E6,6.874164E6,0E0,0E0,1.95824E5,0E0,9.2322494E5,3.463974E6,0E0,0E0,5.31033E5,5.8977188E3,0E0,3.3319785E4,1.22252875E5,3.1013104E4,0E0,0E0,0E0,0E0,0E0,0E0,0E0,0E0],"parents":[2147483647,0,0,1,1,2,2,3,3,4,4,7,7,9,9,10,10,13,13,14,14,16,16,17,17,18,18],"right_children":[2,4,6,8,10,-1,-1,12,-1,14,16,-1,-1,18,20,-1,22,24,26,-1,-1,-1,-1,-1,-1,-1,-1],"split_conditions":[1.41E0,3.79E0,8.08E0,3.34E0,6.58E0,3.6957973E1,6.7981285E1,4.3E-1,-9.137279E0,1E0,1E0,-2.0454262E1,-1.5065177E1,1E0,9.1E-1,1.3349491E1,1.06E0,6.46E0,9.1E-1,1.0352197E0,4.09521E0,2.1909668E-1,-1.8293993E0,-2.4392304E0,-6.435754E0,-6.61582E-1,9.794986E-1],"split_indices":[0,5,4,5,4,0,0,0,0,9,18,0,0,12,0,0,0,3,0,0,0,0,0,0,0,0,0],"split_type":[0,0,0,0,0,0,0,0,0,0,0,0,0,0,0,0,0,0,0,0,0,0,0,0,0,0,0],"sum_hessian":[1E2,8.1E1,1.9E1,6.2E1,1.9E1,1.2E1,7E0,4.9E1,1.3E1,1.1E1,8E0,2.9E1,2E1,9E0,2E0,6E0,2E0,6E0,3E0,1E0,1E0,1E0,1E0,4E0,2E0,1E0,2E0],"tree_param":{"num_deleted":"0","num_feature":"23","num_nodes":"27","size_leaf_vector":"1"}},{"base_weights":[3.6617878E1,-1.2040487E3,5.1215195E3,-1.6792357E3,3.5299304E2,3.6957973E1,6.7981285E1,-1.8599932E3,-9.137279E0,-1.6356018E2,1.0025092E3,-2.0454262E1,-1.5065177E1,-2.988808E2,3.4202866E2,1.3349491E1,-1.07353516E2,-4.5004877E2,4.03833E1,1.0352197E0,4.09521E0,2.1909668E-1,-1.8293993E0,-2.4392304E0,-6.435754E0,-6.61582E-1,9.794986E-1],"categories":[],"categories_nodes":[],"categories_segments":[],"categories_sizes":[],"default_left":[0,0,0,0,0,0,0,0,0,0,0,0,0,0,0,0,0,0,0,0,0,0,0,0,0,0,0],"id":57,"left_children":[1,3,5,7,9,-1,-1,11,-1,13,15,-1,-1,17,19,-1,21,23,25,-1,-1,-1,-1,-1,-1,-1,-1],"loss_changes":[6.43342E8,6.1263416E7,2.2683072E7,7.017856E6,6.874164E6,0E0,0E0,1.95824E5,0E0,9.2322494E5,3.463974E6,0E0,0E0,5.31033E5,5.8977188E3,0E0,3.3319785E4,1.22252875E5,3.1013104E4,0E0,0E0,0E0,0E0,0E0,0E0,0E0,0E0],"parents":[2147483647,0,0,1,1,2,2,3,3,4,4,7,7,9,9,10,10,13,13,14,14,16,16,17,17,18,18],"right_children":[2,4,6,8,10,-1,-1,12,-1,14,16,-1,-1,18,20,-1,22,24,26,-1,-1,-1,-1,-1,-1,-1,-1],"split_conditions":[1.41E0,3.79E0,8.08E0,3.34E0,6.58E0,3.6957973E1,6.7981285E1,4.3E-1,-9.137279E0,1E0,1E0,-2.0454262E1,-1.5065177E1,1E0,9.1E-1,1.3349491E1,1.06E0,6.46E0,9.1E-1,1.0352197E0,4.09521E0,2.1909668E-1,-1.8293993E0,-2.4392304E0,-6.435754E0,-6.61582E-1,9.794986E-1],"split_indices":[0,5,4,5,4,0,0,0,0,9,18,0,0,12,0,0,0,3,0,0,0,0,0,0,0,0,0],"split_type":[0,0,0,0,0,0,0,0,0,0,0,0,0,0,0,0,0,0,0,0,0,0,0,0,0,0,0],"sum_hessian":[1E2,8.1E1,1.9E1,6.2E1,1.9E1,1.2E1,7E0,4.9E1,1.3E1,1.1E1,8E0,2.9E1,2E1,9E0,2E0,6E0,2E0,6E0,3E0,1E0,1E0,1E0,1E0,4E0,2E0,1E0,2E0],"tree_param":{"num_deleted":"0","num_feature":"23","num_nodes":"27","size_leaf_vector":"1"}},{"base_weights":[3.6617878E1,-1.2040487E3,5.1215195E3,-1.6792357E3,3.5299304E2,3.6957973E1,6.7981285E1,-1.8599932E3,-9.137279E0,-1.6356018E2,1.0025092E3,-2.0454262E1,-1.5065177E1,-2.988808E2,3.4202866E2,1.3349491E1,-1.07353516E2,-4.5004877E2,4.03833E1,1.0352197E0,4.09521E0,2.1909668E-1,-1.8293993E0,-2.4392304E0,-6.435754E0,-6.61582E-1,9.794986E-1],"categories":[],"categories_nodes":[],"categories_segments":[],"categories_sizes":[],"default_left":[0,0,0,0,0,0,0,0,0,0,0,0,0,0,0,0,0,0,0,0,0,0,0,0,0,0,0],"id":58,"left_children":[1,3,5,7,9,-1,-1,11,-1,13,15,-1,-1,17,19,-1,21,23,25,-1,-1,-1,-1,-1,-1,-1,-1],"loss_changes":[6.43342E8,6.1263416E7,2.2683072E7,7.017856E6,6.874164E6,0E0,0E0,1.95824E5,0E0,9.2322494E5,3.463974E6,0E0,0E0,5.31033E5,5.8977188E3,0E0,3.3319785E4,1.22252875E5,3.1013104E4,0E0,0E0,0E0,0E0,0E0,0E0,0E0,0E0],"parents":[2147483647,0,0,1,1,2,2,3,3,4,4,7,7,9,9,10,10,13,13,14,14,16,16,17,17,18,18],"right_children":[2,4,6,8,10,-1,-1,12,-1,14,16,-1,-1,18,20,-1,22,24,26,-1,-1,-1,-1,-1,-1,-1,-1],"split_conditions":[1.41E0,3.79E0,8.08E0,3.34E0,6.58E0,3.6957973E1,6.7981285E1,4.3E-1,-9.137279E0,1E0,1E0,-2.0454262E1,-1.5065177E1,1E0,9.1E-1,1.3349491E1,1.06E0,6.46E0,9.1E-1,1.0352197E0,4.09521E0,2.1909668E-1,-1.8293993E0,-2.4392304E0,-6.435754E0,-6.61582E-1,9.794986E-1],"split_indices":[0,5,4,5,4,0,0,0,0,9,18,0,0,12,0,0,0,3,0,0,0,0,0,0,0,0,0],"split_type":[0,0,0,0,0,0,0,0,0,0,0,0,0,0,0,0,0,0,0,0,0,0,0,0,0,0,0],"sum_hessian":[1E2,8.1E1,1.9E1,6.2E1,1.9E1,1.2E1,7E0,4.9E1,1.3E1,1.1E1,8E0,2.9E1,2E1,9E0,2E0,6E0,2E0,6E0,3E0,1E0,1E0,1E0,1E0,4E0,2E0,1E0,2E0],"tree_param":{"num_deleted":"0","num_feature":"23","num_nodes":"27","size_leaf_vector":"1"}},{"base_weights":[3.6617878E1,-1.2040487E3,5.1215195E3,-1.6792357E3,3.5299304E2,3.6957973E1,6.7981285E1,-1.8599932E3,-9.137279E0,-1.6356018E2,1.0025092E3,-2.0454262E1,-1.5065177E1,-2.988808E2,3.4202866E2,1.3349491E1,-1.07353516E2,-4.5004877E2,4.03833E1,1.0352197E0,4.09521E0,2.1909668E-1,-1.8293993E0,-2.4392304E0,-6.435754E0,-6.61582E-1,9.794986E-1],"categories":[],"categories_nodes":[],"categories_segments":[],